SVM-light Version V6.02
0 # kernel type
3 # kernel parameter -d 
1 # kernel parameter -g 
1 # kernel parameter -s 
1 # kernel parameter -r 
empty# kernel parameter -u 
250 # highest feature index 
9180 # number of training documents 
2890 # number of support vectors plus 1 
-0.17200401 # threshold b, each following line is a SV (starting with alpha*y)
-0.044329041268172123 41:1 42:1 48:1 54:1 74:1 77:1 88:1 102:1 117:1 126:2 131:1 133:1 136:1 141:1 152:7 170:1 177:1 213:1 249:1 #
-0.095200670518103811 4:2 46:2 53:1 66:1 70:1 77:1 79:1 92:1 94:1 96:1 100:1 107:1 112:1 131:4 133:2 137:1 141:1 148:1 152:1 169:1 185:1 189:1 203:2 221:1 222:1 226:1 234:2 245:1 #
-0.095200670518103811 6:1 #
-0.070188284034246137 8:1 48:1 53:2 70:1 96:1 114:1 129:1 133:1 137:1 145:1 152:2 169:1 212:1 216:2 239:1 #
-0.095200670518103811 131:1 152:1 #
0.095200670518103811 77:1 86:1 121:1 127:1 131:1 152:1 169:1 171:1 208:1 213:1 226:1 234:1 #
0.095200670518103811 34:1 77:1 133:1 170:1 179:1 226:1 #
0.095200670518103811 128:1 131:1 #
0.095200670518103811 57:1 133:1 137:1 152:1 170:1 #
-0.095200670518103811 39:2 121:1 151:4 167:1 168:2 #
-0.095200670518103811 39:1 74:1 75:3 83:3 110:1 125:5 151:3 165:1 166:2 167:1 168:1 219:4 #
-0.095200670518103811 65:1 77:1 123:1 131:1 164:1 205:1 215:1 230:1 245:1 #
-0.095200670518103811 17:1 22:1 29:1 31:1 35:1 45:3 51:1 52:1 58:1 62:1 73:1 90:1 121:1 128:1 131:3 136:1 140:1 143:1 144:1 149:1 152:2 157:1 171:1 180:2 197:1 207:1 227:1 228:1 239:1 #
0.095200670518103811 6:1 16:1 19:1 25:1 28:1 40:1 53:1 66:1 76:1 98:1 109:1 136:1 146:1 152:2 157:1 159:1 169:1 189:1 200:1 234:2 245:1 250:1 #
0.060468755152713258 17:1 18:1 20:3 28:1 45:1 51:2 54:1 63:1 65:1 91:1 94:1 96:1 104:2 109:1 114:1 119:3 128:1 129:1 133:4 134:2 136:1 141:1 152:10 154:1 157:1 169:1 170:2 172:1 174:1 184:1 189:2 195:3 201:3 202:1 216:1 221:2 222:4 223:1 231:1 238:1 248:2 #
0.095200670518103811 3:1 9:1 20:1 28:2 31:2 40:1 56:3 58:3 59:1 61:2 66:1 67:1 77:2 78:2 83:1 96:3 99:1 100:3 103:1 110:3 117:1 119:1 121:1 122:2 126:2 129:1 132:1 133:5 136:2 137:1 144:1 145:2 152:10 155:2 167:2 169:3 182:1 183:2 188:1 189:2 191:1 193:1 195:1 197:1 204:1 211:1 212:2 213:1 216:1 217:1 220:2 224:1 229:1 233:1 240:1 241:1 244:1 245:2 #
-0.095200670518103811 30:1 36:1 70:1 77:1 79:2 96:1 117:1 122:1 128:1 131:2 133:1 144:1 153:1 170:1 245:1 #
0.095200670518103811 9:1 20:3 21:1 27:1 31:1 53:2 56:1 65:1 69:1 79:1 82:1 85:1 88:1 92:1 96:1 99:1 100:2 110:1 113:1 117:1 122:1 131:1 133:1 141:2 144:1 152:9 169:1 170:1 185:1 186:2 197:1 198:1 204:1 205:1 231:2 239:2 240:2 241:1 243:1 245:1 248:2 #
-0.095200670518103811 53:1 74:1 100:1 133:1 152:1 186:1 191:1 195:1 #
0.08751659664353971 4:4 12:1 70:3 96:1 100:5 115:1 117:1 122:1 133:1 149:1 152:1 163:1 169:2 170:1 173:1 179:1 203:1 227:1 234:1 #
0.095200670518103811 4:3 12:1 79:1 82:1 100:1 106:1 117:1 131:1 133:1 217:2 227:2 228:1 231:1 235:1 #
0.095200670518103811 51:1 104:1 162:1 #
-0.095200670518103811 36:1 37:1 87:1 #
0.095200670518103811 55:1 #
-0.095200670518103811 2:1 9:2 20:2 21:1 34:1 35:1 40:1 50:1 57:1 62:1 66:1 71:1 77:3 84:1 87:1 89:1 96:1 115:1 120:1 122:1 123:1 126:1 129:1 131:1 133:2 143:2 152:1 154:1 169:1 171:2 185:2 193:2 204:1 205:1 216:1 225:1 227:1 230:1 234:1 245:1 #
-0.095200670518103811 9:1 13:1 41:1 50:1 66:1 71:1 76:1 77:1 78:1 110:1 121:1 126:1 128:1 131:1 133:1 135:1 138:1 141:1 145:1 153:1 157:1 159:1 169:1 171:1 183:1 197:1 200:1 226:1 241:1 245:1 #
-0.095200670518103811 32:1 57:1 80:1 92:1 123:1 133:1 141:1 161:1 171:1 245:1 #
-0.095200670518103811 42:1 115:1 152:1 229:1 246:1 #
0.061660958126636592 22:1 23:1 28:1 29:1 31:3 37:1 40:1 49:1 51:2 53:3 54:3 57:3 58:1 65:1 66:3 81:1 88:1 106:1 117:1 123:3 124:2 126:1 131:1 133:3 136:2 141:2 144:1 149:2 152:4 161:1 169:1 172:1 174:2 180:1 189:1 217:1 224:1 227:1 228:1 #
-0.095200670518103811 16:1 49:1 124:1 152:1 #
0.095200670518103811 66:1 152:1 169:1 177:1 #
-0.095200670518103811 8:2 39:1 44:1 77:1 79:1 96:1 105:1 108:1 124:1 128:1 131:1 132:1 133:1 141:1 146:1 152:2 160:1 178:1 185:1 189:1 205:1 215:1 222:1 241:1 #
0.095200670518103811 8:1 32:1 64:1 82:1 111:2 131:2 133:2 136:1 144:1 152:5 155:1 159:1 216:1 245:1 #
-0.095200670518103811 48:1 63:1 98:1 117:1 123:1 131:1 152:1 184:1 #
0.095200670518103811 10:2 12:1 39:1 75:1 83:3 125:2 166:2 167:2 168:1 176:1 198:1 219:2 226:1 227:3 #
-0.095200670518103811 6:1 126:1 #
0.095200670518103811 28:1 36:1 96:1 115:1 169:1 246:1 #
-0.095200670518103811 1:1 7:1 8:1 12:3 20:1 31:1 36:1 37:1 39:1 46:1 51:1 57:1 65:1 76:4 77:1 93:1 100:4 113:2 117:4 123:1 126:1 128:2 130:2 131:1 132:2 133:1 136:1 139:1 144:1 146:1 149:1 152:2 153:1 154:1 155:4 157:1 163:1 169:1 171:2 189:1 195:1 197:1 201:1 205:1 224:1 227:1 229:2 232:1 240:2 245:2 #
-0.095200670518103811 31:2 57:1 66:1 77:2 110:1 123:2 128:1 131:1 139:2 152:1 169:1 205:1 239:1 241:1 #
-0.042443359214668963 6:1 9:2 34:1 36:1 54:1 59:1 60:2 66:1 76:1 92:2 106:1 110:3 114:1 116:1 119:1 122:1 123:1 124:1 126:2 128:1 131:1 133:1 136:1 139:2 141:1 142:1 144:1 152:1 157:1 169:2 170:1 179:1 184:1 185:1 191:1 205:1 207:1 223:1 227:1 233:1 240:1 241:1 #
-0.095200670518103811 7:1 9:1 43:1 46:1 48:1 57:1 59:1 66:2 110:1 117:1 126:1 130:1 131:1 155:1 161:1 169:1 179:1 182:1 198:1 213:1 216:1 223:1 224:1 226:1 233:1 241:1 245:1 #
-0.095200670518103811 129:1 223:1 226:1 #
-0.095200670518103811 12:1 56:1 250:1 #
0.095200670518103811 56:1 155:1 160:1 207:1 #
-0.095200670518103811 8:2 20:1 25:1 28:1 29:1 31:2 46:1 51:6 54:1 62:1 74:3 76:3 91:1 92:1 93:1 94:3 99:1 100:1 106:1 115:2 117:1 122:4 126:1 129:4 131:2 133:1 141:1 144:2 149:4 152:10 160:1 170:2 189:4 211:1 217:1 222:1 229:1 234:1 245:1 #
0.095200670518103811 176:1 #
0.045050521112934935 2:1 20:1 27:1 31:1 71:1 110:1 113:2 139:1 143:1 161:1 162:1 233:1 235:1 236:2 #
-0.095200670518103811 152:1 #
-0.095200670518103811 77:1 122:1 136:1 152:1 #
-0.095200670518103811 12:1 152:2 157:1 #
-0.095200670518103811 30:1 84:1 144:1 147:1 169:1 220:1 233:1 245:2 #
0.095200670518103811 36:1 51:1 56:1 70:1 92:1 93:2 96:1 115:1 140:1 146:1 152:2 172:1 191:1 201:1 231:2 246:1 250:1 #
-0.095200670518103811 12:1 30:2 31:1 32:1 37:1 44:1 96:1 99:1 106:1 108:1 115:1 117:1 134:1 139:1 140:1 144:1 147:1 152:1 160:1 171:1 209:1 216:1 218:1 223:1 224:1 245:1 250:1 #
0.095200670518103811 57:1 181:1 224:1 #
0.095200670518103811 152:1 183:1 200:1 224:1 245:1 #
0.095200670518103811 8:1 17:1 31:2 37:1 99:1 122:1 124:1 141:1 155:1 215:1 222:2 227:1 #
0.095200670518103811 230:1 #
0.017118916548523502 75:1 125:1 166:1 168:1 219:1 #
-0.095200670518103811 85:1 169:1 #
-0.095200670518103811 16:2 28:1 31:1 49:2 66:1 67:2 77:1 96:1 99:2 111:2 115:1 133:1 141:1 146:1 170:3 #
-0.095200670518103811 9:1 28:1 40:1 46:1 63:1 67:1 83:1 97:1 126:2 133:3 140:1 141:1 142:1 152:1 169:2 174:2 186:1 193:1 194:1 216:4 245:1 #
-0.095200670518103811 9:1 39:1 40:2 43:1 71:3 79:1 86:1 109:1 121:1 123:1 136:1 141:2 144:1 152:1 169:1 170:1 178:1 179:2 189:1 191:1 197:1 216:1 222:1 223:1 243:1 #
-0.095200670518103811 1:1 10:1 20:1 28:2 41:1 43:1 44:1 51:3 57:1 64:1 67:2 71:2 76:1 84:1 85:1 91:1 96:1 103:1 104:1 108:1 110:1 120:1 122:1 126:2 133:2 141:2 142:1 144:1 146:1 149:1 152:3 159:1 160:1 163:1 170:1 178:1 180:1 195:1 203:1 211:1 213:3 214:1 216:1 218:1 220:1 233:1 234:2 245:2 #
-0.095200670518103811 3:1 6:1 13:1 20:2 27:1 31:2 32:2 34:1 48:2 49:1 53:1 56:1 59:2 77:2 82:1 96:1 123:1 128:1 133:1 136:1 141:1 152:1 155:1 160:1 163:1 170:1 171:1 179:1 180:2 181:1 188:1 190:1 191:1 215:1 222:1 223:1 224:1 231:1 237:1 242:1 246:1 #
0.095200670518103811 151:1 #
0.095200670518103811 10:1 31:1 39:1 48:1 51:1 53:1 57:1 67:1 85:1 96:2 99:1 100:1 113:1 117:1 126:1 128:1 131:1 133:1 137:1 141:1 143:1 152:7 160:1 169:1 170:1 200:1 201:1 224:1 234:1 240:1 248:1 #
0.095200670518103811 75:1 166:1 #
-0.095200670518103811 20:1 36:1 120:1 138:1 149:1 234:1 #
0.095200670518103811 12:2 28:3 31:1 32:1 36:1 39:1 58:1 69:1 70:1 94:1 99:1 106:1 123:1 129:1 133:1 139:1 141:1 144:1 146:1 149:1 155:1 185:1 191:1 212:1 222:2 223:1 #
0.095200670518103811 2:1 3:1 27:1 28:1 31:1 65:1 74:1 77:1 78:1 92:1 94:1 112:1 113:1 129:1 131:1 231:1 241:1 #
-0.095200670518103811 85:1 110:1 117:1 152:1 169:1 170:1 173:1 200:1 224:1 233:1 245:1 #
-0.095200670518103811 67:1 98:1 160:1 169:1 #
0.095200670518103811 32:1 90:1 #
0.095200670518103811 1:1 43:1 133:1 141:1 146:1 160:3 186:1 206:1 213:1 214:2 #
0.095200670518103811 107:1 178:1 #
0.095200670518103811 245:1 #
-0.095200670518103811 98:1 159:1 170:1 194:1 221:1 #
-0.095200670518103811 107:1 119:1 178:1 230:1 245:1 #
-0.095200670518103811 79:1 99:1 100:1 131:1 133:1 224:1 245:1 250:1 #
-0.095200670518103811 240:1 #
-0.095200670518103811 28:1 38:1 56:1 57:1 71:1 84:1 94:1 96:1 100:1 106:1 117:2 131:2 133:1 136:1 149:1 152:2 153:1 155:1 170:1 210:1 231:2 240:1 245:2 246:1 #
0.095200670518103811 4:1 70:1 140:1 152:1 171:1 179:1 195:2 227:1 #
0.095200670518103811 49:1 83:1 121:1 125:1 219:1 227:1 #
0.095200670518103811 59:1 83:2 166:1 #
0.095200670518103811 16:2 33:1 49:2 66:1 99:1 111:1 132:1 205:1 236:1 #
-0.095200670518103811 40:1 119:1 126:1 133:1 140:1 146:1 160:1 170:1 179:1 207:1 #
-0.095200670518103811 9:1 110:2 160:1 169:1 233:1 234:1 #
-0.095200670518103811 2:1 88:1 160:1 213:1 #
-0.095200670518103811 94:2 136:1 142:1 143:1 152:2 #
0.095200670518103811 176:3 198:1 #
-0.095200670518103811 12:1 20:1 53:1 76:1 94:1 99:1 124:1 131:1 133:1 141:2 148:2 152:1 159:1 163:1 186:1 239:1 249:1 #
-0.095145444477506239 5:1 9:2 27:1 28:1 31:1 50:1 51:1 58:1 96:1 106:1 110:2 120:1 141:3 152:1 157:2 169:3 183:1 205:1 214:1 215:1 216:1 218:1 222:1 226:1 230:1 233:2 245:1 #
-0.095200670518103811 45:1 85:1 99:1 137:1 141:1 #
0.095200670518103811 20:1 37:1 131:1 152:1 171:1 185:1 199:1 241:1 #
-0.095200670518103811 1:1 46:1 89:1 126:1 218:1 223:1 #
0.095200670518103811 20:1 23:1 57:1 88:2 133:2 200:1 213:1 238:1 #
-0.095200670518103811 89:1 120:1 133:1 157:1 160:1 #
-0.095200670518103811 51:1 131:1 137:1 152:1 #
-0.095200670518103811 8:1 123:2 128:1 131:1 133:1 144:1 216:1 224:1 #
0.093318079863090181 132:1 152:1 245:1 246:1 #
0.095200670518103811 250:1 #
0.095200670518103811 198:1 225:1 246:1 #
-0.095200670518103811 2:1 82:1 152:1 160:1 236:1 #
-0.022994674454049388 86:1 180:1 #
-0.095200670518103811 46:1 57:1 62:1 182:1 200:1 216:2 224:1 #
-0.095200670518103811 17:1 57:1 96:1 126:1 196:1 216:1 #
-0.069551364668424279 2:1 27:1 33:1 67:1 91:1 96:1 127:1 147:1 152:1 160:1 172:1 205:1 208:1 240:1 #
0.095200670518103811 20:1 46:1 53:1 66:1 137:1 141:1 152:1 216:1 #
0.095200670518103811 6:1 28:1 39:1 77:3 95:1 96:1 98:1 122:2 131:1 132:1 139:1 141:1 148:1 149:1 152:1 158:1 171:1 178:1 180:1 185:1 205:1 212:2 215:1 220:1 228:2 230:1 237:1 #
0.095200670518103811 6:1 8:2 26:1 28:1 42:1 48:1 57:2 89:1 94:1 117:1 129:1 141:2 144:1 152:2 160:1 223:1 229:1 249:1 #
0.095200670518103811 84:1 140:1 160:1 189:1 207:1 #
-0.095200670518103811 136:1 152:2 155:1 #
-0.095200670518103811 47:1 50:1 98:2 146:1 148:1 #
-0.095200670518103811 67:1 69:1 88:1 98:1 106:2 117:1 125:1 151:2 169:1 213:1 220:1 #
-0.095200670518103811 27:2 45:1 57:1 66:1 100:1 116:1 122:1 132:1 141:1 152:1 170:1 198:1 200:1 205:1 220:1 224:1 226:1 245:1 250:1 #
-0.095200670518103811 31:1 141:1 250:1 #
0.095200670518103811 1:1 10:1 19:1 20:1 36:1 46:1 71:1 77:1 92:1 96:1 133:1 140:1 143:1 152:1 170:1 #
-0.095200670518103811 27:1 30:1 31:1 54:1 57:2 80:1 85:1 103:1 104:1 117:1 133:1 156:1 169:1 175:1 213:1 227:1 233:1 #
-0.095200670518103811 5:1 27:1 28:1 37:1 66:2 93:1 96:1 106:1 117:1 122:1 133:1 141:2 186:1 197:1 215:1 231:1 #
-0.095200670518103811 10:1 93:1 115:1 124:1 134:1 146:1 161:1 212:3 215:1 216:1 241:1 246:1 #
0.095200670518103811 60:1 176:2 220:1 #
0.014731331984807394 17:1 39:1 43:1 44:2 57:1 92:1 105:1 126:2 129:1 131:1 141:1 143:1 152:1 157:1 169:1 184:1 191:1 199:1 209:1 245:1 #
-0.095200670518103811 30:1 #
0.095200670518103811 128:1 131:1 152:1 221:1 #
0.095200670518103811 245:1 #
0.095200670518103811 128:1 131:1 157:1 #
0.095200670518103811 5:1 53:1 133:1 152:1 171:1 198:1 #
0.072477203819570762 16:2 34:1 45:1 51:1 53:1 97:1 114:1 129:2 131:2 133:1 157:1 186:1 193:1 216:2 222:1 224:1 #
-0.095200670518103811 3:1 31:1 115:1 207:1 #
-0.095200670518103811 7:1 20:1 77:2 110:1 118:1 157:1 170:1 207:1 216:1 224:1 #
-0.095200670518103811 20:1 32:1 66:1 90:1 96:1 141:1 154:1 155:1 200:1 207:1 226:1 237:1 #
-0.095200670518103811 20:1 51:1 115:1 133:1 195:1 209:1 245:1 250:1 #
0.095200670518103811 7:1 8:1 9:1 20:1 36:1 74:1 78:1 93:2 110:1 115:1 120:1 126:1 128:1 131:1 141:1 148:1 152:2 169:1 179:1 185:1 186:1 218:1 231:2 240:1 #
-0.095200670518103811 36:1 48:1 49:1 53:1 54:2 59:1 77:1 96:1 126:1 133:1 141:1 152:1 169:1 170:1 204:1 213:1 222:1 234:1 #
-0.095200670518103811 36:2 38:1 49:2 50:1 80:1 119:1 141:1 186:1 207:1 223:1 226:1 #
-0.095200670518103811 28:1 42:1 57:1 66:1 78:1 80:1 85:1 96:1 115:1 144:1 159:1 169:1 191:1 209:1 218:1 249:1 250:1 #
-0.095200670518103811 20:1 85:1 128:1 138:1 221:1 240:1 #
0.016865253486824824 3:1 8:1 21:1 25:1 31:1 50:1 62:1 71:4 80:2 96:1 117:1 123:2 133:1 141:1 144:1 146:1 155:1 194:1 197:1 205:1 213:1 222:2 226:1 241:2 245:1 #
-0.095200670518103811 86:1 #
0.095200670518103811 14:1 32:1 46:1 77:2 96:1 100:1 131:1 138:2 193:1 216:1 229:1 239:1 249:2 #
0.095200670518103811 77:1 91:1 96:1 106:1 117:1 126:1 139:1 142:3 144:1 155:1 213:1 250:1 #
0.095200670518103811 46:1 57:1 77:2 126:1 130:1 215:1 218:1 #
-0.095200670518103811 39:1 50:1 67:1 77:2 95:1 133:1 146:1 149:1 216:1 #
-0.095200670518103811 26:1 84:1 110:1 119:1 130:1 152:2 197:1 205:1 207:1 230:1 245:2 #
-0.095200670518103811 28:2 45:1 56:1 117:1 128:1 177:1 204:1 205:1 233:1 236:1 245:1 #
-0.095200670518103811 89:1 157:1 159:1 #
-0.051731222696964084 15:1 27:1 31:1 32:1 54:1 58:1 67:1 69:2 78:2 96:3 100:1 109:1 115:1 116:1 133:2 139:1 141:2 146:3 148:1 149:1 175:1 184:1 190:1 217:2 227:3 241:1 #
0.095200670518103811 159:1 #
0.095200670518103811 5:2 40:1 160:1 222:1 #
0.095200670518103811 13:1 66:1 131:1 157:2 184:1 185:1 190:1 #
-0.095200670518103811 56:1 100:1 131:1 #
-0.095200670518103811 86:1 #
0.088606714406988585 38:1 71:1 160:1 175:1 216:1 #
-0.095200670518103811 31:1 51:1 56:1 70:1 131:1 186:2 194:1 #
-0.095200670518103811 12:1 #
0.095200670518103811 2:1 26:1 39:1 98:1 124:1 133:2 137:1 152:2 159:1 160:1 197:1 216:1 245:1 #
-0.095200670518103811 30:1 152:1 180:1 213:1 228:1 #
0.095200670518103811 18:1 43:1 46:1 52:1 57:1 71:1 77:1 87:1 99:1 131:1 157:1 205:1 220:1 224:1 250:1 #
-0.095200670518103811 13:1 46:1 67:1 96:1 133:1 160:1 #
-0.095200670518103811 28:1 31:1 99:2 141:1 #
-0.095200670518103811 164:1 200:1 226:1 245:1 #
0.029357188214059544 60:3 74:2 176:2 198:3 #
-0.095200670518103811 85:1 99:1 169:1 #
0.095200670518103811 98:1 126:1 140:1 189:1 250:1 #
0.095200670518103811 46:1 78:1 85:1 100:1 131:1 133:1 169:1 239:1 250:1 #
0.095200670518103811 2:1 36:1 82:1 94:1 96:1 101:1 126:1 129:1 131:1 133:1 169:1 184:1 229:1 #
-0.095200670518103811 137:1 152:1 #
-0.095200670518103811 32:1 56:1 66:1 67:2 69:1 91:1 93:1 98:1 104:1 106:3 119:1 123:1 129:1 131:1 133:1 148:1 149:1 152:1 160:1 177:1 185:1 212:2 216:1 222:1 224:1 249:1 #
0.095200670518103811 30:1 66:1 121:1 153:1 169:1 192:1 205:1 #
0.095200670518103811 17:1 27:1 77:1 89:1 126:1 129:1 144:1 149:1 160:1 203:1 205:1 223:1 234:1 #
0.095200670518103811 32:1 46:1 65:1 71:1 76:1 78:1 79:1 84:1 92:1 104:1 106:1 116:1 121:1 122:1 123:2 132:1 167:1 193:2 215:1 216:1 240:1 #
-0.095200670518103811 28:1 42:1 53:1 96:1 106:1 170:1 191:1 239:1 #
-0.095200670518103811 3:1 28:1 31:1 56:1 59:1 77:1 95:1 96:1 115:1 133:1 155:1 157:1 189:1 202:1 218:1 #
-0.095200670518103811 25:1 140:1 160:1 169:1 172:1 227:1 236:1 241:1 245:1 #
0.095200670518103811 23:1 57:1 131:1 136:1 152:2 234:1 250:1 #
0.095200670518103811 50:1 67:1 71:1 76:1 78:1 93:1 102:1 146:1 155:1 160:1 200:1 207:1 224:1 229:1 #
0.095200670518103811 149:1 211:1 #
0.095200670518103811 28:1 30:1 57:2 77:3 88:1 126:1 129:1 141:2 144:1 152:1 182:1 205:1 213:1 224:1 #
0.094730815840175647 27:2 29:1 51:1 67:2 117:1 149:1 189:1 204:1 211:1 230:1 #
-0.0017854948674823649 142:1 152:1 160:1 241:1 #
0.095200670518103811 20:1 30:1 145:1 153:1 170:1 182:1 200:1 215:1 224:1 #
0.095200670518103811 29:1 #
-0.095200670518103811 18:1 34:1 82:1 117:1 136:1 138:1 155:1 221:1 231:1 #
0.095200670518103811 59:1 131:1 #
0.095200670518103811 11:1 #
0.095200670518103811 9:1 43:1 99:1 131:1 133:1 157:1 169:1 185:1 #
-0.095200670518103811 46:1 133:1 149:1 158:1 238:1 #
-0.095200670518103811 152:2 239:1 #
0.095200670518103811 48:1 133:2 149:1 152:1 169:1 186:1 193:1 214:1 #
-0.095200670518103811 53:1 88:1 170:1 202:1 #
-0.095200670518103811 63:1 149:1 215:1 #
0.095200670518103811 48:2 115:1 149:1 152:2 177:1 203:1 #
0.095200670518103811 46:1 87:1 152:1 213:1 216:1 #
0.095200670518103811 128:1 153:1 157:1 #
-0.095200670518103811 2:1 79:1 115:1 131:2 132:1 133:2 157:1 160:1 172:2 180:1 209:1 222:1 227:2 228:1 246:1 250:1 #
-0.095200670518103811 9:1 169:1 205:1 214:1 215:1 245:1 #
-0.095200670518103811 28:1 46:1 96:1 99:1 100:1 115:1 131:1 134:1 149:1 246:1 #
0.095200670518103811 131:1 185:1 #
-0.095200670518103811 1:1 30:1 57:1 96:1 131:1 133:1 185:1 215:1 #
-0.095200670518103811 80:1 99:1 100:1 131:2 244:1 #
-0.095200670518103811 176:8 198:1 #
0.095200670518103811 12:1 27:1 28:1 32:1 45:1 46:1 51:1 59:1 77:1 117:1 118:1 131:1 133:1 140:1 149:1 180:1 197:1 222:1 227:1 228:1 #
-0.095200670518103811 10:1 31:1 33:1 46:1 51:1 67:1 70:1 72:1 99:1 126:1 131:1 138:1 141:1 149:1 180:2 186:1 205:1 216:1 227:1 228:1 234:1 #
0.095200670518103811 51:1 57:1 100:1 137:1 200:1 #
0.095200670518103811 128:1 131:1 152:1 170:1 200:1 205:1 226:2 #
0.095200670518103811 5:1 6:1 8:2 9:1 10:1 12:2 13:1 14:1 15:2 18:1 20:5 21:1 22:2 23:1 24:1 25:4 26:2 27:4 28:5 29:2 30:2 31:3 32:1 33:7 36:2 37:1 41:4 42:1 47:1 50:2 51:6 52:1 53:2 54:2 56:3 58:1 59:3 62:3 63:2 64:1 66:4 67:7 68:1 69:1 70:4 71:1 72:1 74:6 77:7 78:5 79:3 80:3 81:2 82:1 85:1 86:1 87:1 88:2 89:1 90:1 91:3 92:3 93:5 94:9 96:9 97:4 98:3 99:5 100:4 101:1 103:4 104:1 106:5 108:2 109:1 110:2 111:2 113:1 115:1 116:1 117:1 118:1 119:2 121:1 122:5 124:3 126:6 128:1 129:2 131:6 132:3 133:15 134:3 135:1 136:4 137:3 138:2 139:4 140:9 141:5 142:4 143:2 144:10 145:3 146:2 149:1 152:25 153:2 155:3 157:5 159:3 160:7 163:1 167:1 169:3 170:1 171:2 172:1 174:2 175:4 184:2 185:1 186:2 188:2 189:3 191:2 193:1 195:1 200:1 202:3 204:3 206:1 207:1 210:1 211:3 212:1 213:6 214:3 215:1 216:2 217:3 220:2 222:7 223:1 224:2 227:1 231:3 232:2 233:1 236:1 238:1 240:1 241:1 242:1 243:1 244:1 245:6 246:1 248:1 250:3 #
0.095200670518103811 159:1 #
-0.095200670518103811 28:1 31:1 34:1 50:1 77:1 101:1 102:1 131:1 134:1 146:2 153:1 189:1 190:1 200:1 203:1 214:1 234:1 245:1 #
-0.095200670518103811 12:1 30:1 61:1 77:2 110:1 121:1 126:1 133:1 147:1 152:1 169:1 170:1 222:1 #
-0.095200670518103811 12:1 18:1 92:1 126:1 140:1 141:1 143:1 170:1 222:1 #
-0.095200670518103811 1:1 118:1 140:1 213:1 #
-0.095200670518103811 3:1 153:1 182:1 224:1 245:1 #
0.095200670518103811 12:1 62:1 #
0.095200670518103811 78:1 134:1 216:1 #
-0.095200670518103811 51:1 64:1 66:2 71:1 73:1 100:1 104:1 126:1 131:1 137:1 141:1 144:1 149:1 153:1 155:1 161:1 226:1 #
-0.095200670518103811 20:1 23:1 31:1 57:1 106:1 116:1 128:1 131:1 144:1 155:1 185:1 188:1 213:1 224:1 238:1 #
0.095200670518103811 30:1 39:1 51:1 66:1 80:1 121:1 126:1 133:1 153:1 169:1 180:1 195:1 209:1 241:1 249:1 #
-0.095200670518103811 30:1 33:1 42:1 128:1 131:1 147:1 205:1 216:1 224:1 #
-0.095200670518103811 43:1 #
0.095200670518103811 9:1 27:1 28:1 31:1 51:1 77:1 117:2 141:1 149:1 152:2 169:1 196:1 200:1 201:1 226:1 227:1 #
-0.095200670518103811 5:2 10:1 25:1 31:1 50:1 51:1 66:1 77:1 91:1 93:1 103:1 108:1 120:1 133:1 137:2 141:2 144:1 145:1 146:1 152:1 154:2 155:1 156:1 167:1 170:1 204:1 227:2 229:1 #
0.095200670518103811 159:1 #
-0.095200670518103811 7:1 9:1 30:2 58:1 77:2 79:1 110:1 128:1 131:1 133:1 152:2 157:1 163:1 169:1 171:1 216:2 218:1 231:1 243:1 245:1 #
-0.095200670518103811 4:1 31:1 46:1 51:2 59:1 67:1 87:1 100:1 117:1 118:1 123:2 131:1 133:1 138:1 140:1 141:2 157:1 160:1 162:1 184:1 186:1 191:1 214:2 216:1 217:2 237:1 238:1 246:1 #
-0.095200670518103811 100:1 111:1 127:1 208:1 #
0.095200670518103811 39:1 74:2 100:1 115:1 216:1 231:1 246:1 #
0.095200670518103811 25:1 30:2 115:1 128:1 131:1 246:1 #
0.095200670518103811 106:1 110:1 123:1 126:2 141:1 160:1 169:2 192:2 233:1 #
0.095200670518103811 57:1 110:1 153:1 169:1 233:2 #
-0.095200670518103811 14:1 37:1 40:1 62:2 92:1 106:1 114:1 131:1 138:1 141:1 146:1 222:1 224:1 #
0.095200670518103811 4:1 31:1 36:1 80:1 106:1 110:1 114:2 119:1 122:1 131:1 132:1 133:2 140:1 141:1 143:1 150:1 153:1 155:1 169:1 170:1 184:2 189:2 233:1 237:1 #
0.095200670518103811 107:1 220:1 #
0.095200670518103811 75:1 166:1 #
0.095200670518103811 36:1 142:1 #
0.095200670518103811 37:1 78:1 157:1 217:1 #
-0.095091405940951362 2:1 27:1 33:1 67:1 91:1 96:1 127:1 147:1 152:1 160:1 172:1 205:1 208:1 240:1 #
-0.095200670518103811 31:1 94:1 115:1 131:1 133:1 150:1 152:2 169:1 201:1 246:1 250:1 #
0.095200670518103811 56:1 87:1 157:1 216:1 #
0.095200670518103811 99:1 108:1 131:1 216:1 232:1 #
0.095200670518103811 157:1 170:1 #
0.095200670518103811 46:1 152:2 163:1 216:1 #
0.095200670518103811 151:2 #
-0.095200670518103811 66:1 77:2 99:1 117:1 127:1 131:1 133:1 169:1 200:1 208:1 220:1 226:1 245:1 #
0.079544496427893671 11:1 16:1 32:1 128:1 131:1 152:1 155:1 157:1 245:1 #
0.0080744854509945067 9:1 92:1 131:1 169:1 170:1 185:1 #
-0.095200670518103811 12:1 111:1 #
-0.095200670518103811 46:1 171:1 185:1 #
0.061476077320843592 3:1 9:1 18:1 38:1 66:2 76:1 77:3 79:1 94:1 96:1 99:1 110:1 131:1 133:1 141:1 145:1 152:1 157:1 169:1 183:1 220:1 224:1 226:2 230:1 233:1 244:1 245:1 #
0.095200670518103811 46:1 157:1 208:1 216:1 #
0.095200670518103811 131:1 157:1 216:1 #
-0.095200670518103811 30:1 86:1 96:1 131:1 133:1 149:1 153:1 196:1 224:1 #
-0.095200670518103811 131:1 171:1 185:1 #
-0.095200670518103811 148:1 #
0.060016218038451336 63:1 216:1 #
-0.036940863389740189 4:1 33:1 41:1 56:1 59:2 70:4 71:1 74:1 77:2 83:1 85:1 91:1 92:1 94:1 96:2 100:1 110:1 117:1 122:1 131:2 133:1 137:1 140:1 143:1 152:4 169:2 170:2 175:1 185:1 201:2 205:1 222:1 227:1 233:1 237:1 240:1 245:2 #
0.095200670518103811 55:1 74:1 176:1 #
0.095200670518103811 30:1 133:1 147:1 170:1 #
-0.095200670518103811 67:2 145:1 148:1 160:1 170:1 178:1 186:1 191:1 #
0.092666543994989428 5:1 15:1 30:1 66:1 157:1 205:1 216:1 #
-0.095200670518103811 36:1 115:1 133:1 203:1 246:1 250:1 #
0.095200670518103811 47:1 50:2 58:1 77:2 92:1 104:1 106:1 110:1 122:1 138:1 141:4 160:1 169:1 200:1 218:1 226:1 230:1 233:1 #
-0.095200670518103811 71:1 146:1 152:1 155:1 186:1 218:1 #
0.095200670518103811 247:1 #
0.095200670518103811 28:1 110:1 128:1 131:1 152:1 169:1 177:1 200:1 216:1 226:1 #
0.095200670518103811 51:1 133:1 149:1 155:1 170:1 241:1 #
0.095200670518103811 28:1 36:1 67:1 96:2 130:1 141:1 144:1 148:1 149:1 169:1 #
0.095200670518103811 10:1 28:1 46:2 51:1 133:1 216:1 #
-0.095200670518103811 20:1 84:1 121:1 128:1 131:1 144:1 149:1 #
-0.095200670518103811 8:1 111:1 #
-0.095200670518103811 37:1 131:1 133:1 152:1 157:1 213:1 216:1 241:1 #
0.095200670518103811 15:1 30:1 66:1 132:1 133:1 164:1 #
-0.095200670518103811 185:1 194:1 216:1 #
-0.095200670518103811 28:1 46:1 117:1 126:1 131:1 133:1 149:1 169:1 171:1 #
-0.095200670518103811 30:1 131:1 133:1 185:1 204:1 #
0.095200670518103811 34:1 99:1 141:1 152:1 155:1 201:1 #
-0.095200670518103811 111:1 141:1 152:1 #
-0.095200670518103811 2:1 152:2 #
0.0042750359391208895 20:1 26:1 28:1 31:2 37:1 41:1 44:1 89:1 94:1 96:2 98:1 102:1 103:1 121:1 122:2 123:1 124:1 126:1 131:2 132:1 133:1 139:1 145:1 152:1 169:1 170:1 193:1 198:1 200:1 203:1 224:1 234:1 242:1 249:1 #
-0.095200670518103811 46:2 141:1 180:1 196:1 #
0.040574537835761065 31:1 60:1 98:1 149:1 #
0.095200670518103811 8:1 20:1 46:1 54:1 92:1 100:1 149:1 209:1 241:1 #
-0.064381441965177186 3:1 53:1 110:1 131:1 152:1 160:1 163:1 169:1 209:1 214:1 233:1 250:1 #
0.095200670518103811 79:1 126:1 131:2 133:1 140:1 160:1 222:1 #
-0.095200670518103811 39:1 125:1 149:1 219:1 #
0.095200670518103811 60:1 176:2 220:1 #
0.095200670518103811 176:5 #
-0.095200670518103811 88:1 111:1 140:1 213:1 217:1 #
0.095200670518103811 18:1 36:1 54:1 63:1 67:1 136:2 152:1 205:1 216:1 #
-0.095200670518103811 2:1 22:2 23:1 32:1 39:2 45:1 56:1 57:1 59:1 65:1 85:1 93:1 100:1 104:1 120:1 123:2 128:1 133:1 141:1 146:1 152:5 169:1 182:1 185:1 192:3 203:1 211:1 212:1 220:2 225:1 234:2 238:1 246:1 #
-0.095200670518103811 8:1 152:1 223:1 #
-0.095200670518103811 74:2 150:1 176:10 198:2 #
-0.095200670518103811 46:1 62:1 222:1 #
-0.095200670518103811 3:1 80:1 #
0.095200670518103811 17:2 20:1 36:1 49:1 50:1 51:1 54:2 64:1 65:1 70:1 72:1 76:1 77:2 100:1 106:2 117:1 123:2 126:1 128:1 130:1 131:2 152:3 169:1 172:1 174:1 180:2 185:1 191:1 200:1 201:1 212:2 216:1 218:1 220:1 222:2 227:7 233:1 247:1 #
0.095200670518103811 13:1 15:1 20:1 29:1 32:2 56:1 63:1 67:1 70:1 72:2 74:2 91:1 92:2 94:1 100:1 104:1 106:2 123:1 126:1 131:2 133:1 136:1 152:3 160:1 184:1 203:1 210:1 242:1 246:1 250:1 #
0.048010211267777415 80:1 149:1 151:6 165:1 #
0.095200670518103811 12:1 27:1 28:1 30:1 31:1 37:1 45:1 48:2 53:1 58:1 66:1 67:1 70:1 71:2 78:1 88:3 91:4 96:1 99:1 102:1 104:1 106:1 110:1 113:1 117:1 123:2 124:1 128:1 131:2 132:2 141:3 146:1 152:6 155:1 169:1 170:1 189:2 213:1 220:1 222:1 224:1 230:1 231:1 240:1 #
0.095200670518103811 55:1 #
0.095200670518103811 22:1 46:3 75:1 87:1 88:1 96:1 106:1 110:1 117:1 126:1 130:1 152:2 155:1 186:2 222:3 231:1 #
0.095200670518103811 28:1 46:1 63:1 71:1 78:1 82:1 92:1 96:1 103:1 104:1 122:1 133:1 136:1 138:1 140:2 141:1 152:4 155:3 186:1 195:1 213:1 246:1 #
0.038693284722175876 8:1 17:1 21:3 31:2 39:1 66:1 67:1 77:1 82:1 91:1 96:1 111:1 115:1 123:2 128:1 136:1 140:1 148:1 152:6 153:1 155:1 179:1 185:1 197:1 202:1 203:1 205:1 209:1 231:1 234:1 247:1 #
0.095200670518103811 39:3 75:1 125:1 168:1 #
0.095200670518103811 60:1 #
-0.095200670518103811 46:1 62:1 222:1 #
0.095200670518103811 46:1 100:1 115:1 131:1 205:1 207:1 210:1 214:1 234:1 246:1 #
-0.095200670518103811 10:1 39:1 75:4 125:2 151:1 166:1 219:2 #
0.095200670518103811 86:1 99:1 128:1 133:1 194:1 #
-0.095200670518103811 53:1 137:1 152:1 #
-0.095200670518103811 20:2 21:1 22:2 27:1 28:1 29:1 31:3 32:3 51:2 56:1 57:1 61:3 65:1 66:1 67:3 70:1 77:4 78:1 94:3 96:2 98:1 113:1 117:2 123:1 126:1 128:1 133:5 136:1 137:2 140:3 141:6 143:3 146:1 148:1 152:1 155:1 159:1 162:1 169:1 171:1 179:1 189:2 195:1 217:1 226:1 236:1 238:1 242:1 #
-0.095200670518103811 96:1 133:1 #
0.095200670518103811 31:1 32:1 56:2 69:1 74:1 98:3 100:1 106:1 123:1 131:1 133:1 136:2 140:1 141:1 149:2 150:1 152:2 155:1 175:2 195:1 217:1 #
0.095200670518103811 25:1 30:1 110:1 128:1 131:1 132:1 147:2 152:1 156:1 160:1 169:1 185:1 214:1 216:1 224:1 233:1 #
-0.095200670518103811 53:1 137:1 145:1 152:2 248:1 #
-0.095200670518103811 8:1 20:1 32:1 36:1 68:1 69:1 98:2 108:1 131:1 133:1 142:1 149:1 152:2 170:1 185:1 216:1 217:1 224:1 246:1 248:1 #
-0.095200670518103811 115:1 214:1 #
0.095200670518103811 30:2 88:1 133:1 152:1 160:1 170:1 213:1 #
0.04195812060290878 59:1 117:1 144:1 147:1 205:1 216:1 #
-0.095200670518103811 110:1 137:1 152:1 169:1 213:1 233:1 #
-0.095200670518103811 9:2 20:1 46:1 66:1 71:1 77:1 115:1 133:2 153:1 169:1 171:1 197:1 200:1 216:2 226:1 230:1 246:1 #
0.095200670518103811 36:1 #
-0.095200670518103811 26:1 52:1 73:1 89:1 97:1 108:1 117:1 121:1 124:1 130:1 131:1 152:2 155:1 175:1 185:1 216:1 224:1 241:1 244:1 249:1 #
-0.095200670518103811 131:1 152:1 #
-0.095200670518103811 75:1 166:1 #
0.095200670518103811 160:1 #
0.095200670518103811 176:1 #
0.010974553844597289 27:2 29:1 51:1 67:2 117:1 149:1 189:1 204:1 211:1 230:1 #
-0.095200670518103811 17:1 77:1 99:1 107:1 110:1 149:1 155:1 169:1 178:1 205:1 230:1 233:1 #
-0.095200670518103811 6:1 8:1 20:2 27:1 30:1 36:4 57:2 96:1 104:1 112:1 115:2 117:1 126:1 132:2 136:1 143:1 151:1 152:3 161:1 169:1 191:1 201:2 211:1 216:2 222:1 225:1 231:1 247:1 #
-0.095200670518103811 58:2 65:1 70:1 131:1 #
-0.095200670518103811 40:2 46:3 96:2 133:1 160:1 190:1 222:1 227:3 237:1 #
-0.095200670518103811 53:1 57:1 78:1 91:1 126:1 141:1 144:1 152:1 160:2 213:1 #
-0.095200670518103811 1:1 71:3 76:2 152:1 160:1 226:1 #
-0.095200670518103811 5:1 23:1 24:1 66:1 67:1 77:1 94:2 96:1 129:1 137:1 141:1 142:2 144:1 179:1 180:1 226:1 227:1 #
0.095200670518103811 170:1 180:1 #
-0.095200670518103811 28:1 123:2 131:2 152:1 160:1 206:1 217:1 239:1 #
-0.095200670518103811 12:1 40:1 56:1 77:1 78:1 92:1 106:1 120:2 123:1 126:1 131:1 141:1 152:1 157:1 160:1 205:1 216:1 #
-0.095200670518103811 10:1 11:1 36:1 82:1 131:2 152:1 170:1 184:2 197:1 245:1 #
-0.095200670518103811 7:1 129:1 131:1 141:1 213:1 223:1 233:1 241:1 #
0.095200670518103811 49:1 53:1 66:1 82:1 111:1 152:1 205:1 213:1 223:1 232:1 #
-0.095200670518103811 28:1 31:1 54:1 67:2 71:2 78:1 92:1 98:5 99:1 106:2 116:1 126:2 137:1 139:1 140:2 141:2 149:1 152:2 169:1 170:1 188:1 220:2 234:1 245:1 248:1 #
-0.095200670518103811 42:1 46:1 48:3 53:1 66:2 77:1 84:2 88:1 94:1 96:1 123:1 131:2 133:1 141:1 142:1 147:1 152:4 155:1 157:1 169:1 171:1 175:1 180:1 185:1 230:1 250:1 #
-0.095200670518103811 75:1 83:1 149:1 166:1 167:1 168:1 #
-0.095200670518103811 23:1 31:1 57:1 90:1 132:1 140:2 143:1 145:1 182:1 190:1 200:1 213:1 224:1 #
0.02109334080585562 210:1 246:1 #
-0.095200670518103811 28:1 30:1 51:3 57:1 66:1 99:1 137:1 141:1 152:1 169:1 200:1 205:1 209:1 232:1 250:1 #
-0.095200670518103811 30:1 39:1 45:1 60:2 66:2 101:1 112:1 123:1 131:1 141:1 145:1 152:1 189:1 200:1 213:1 222:1 223:1 224:1 #
0.076201908771506136 18:1 20:1 24:1 28:1 31:1 43:1 47:1 53:1 66:1 77:1 92:1 117:2 133:1 140:1 152:5 154:1 155:1 157:1 160:1 188:1 204:1 213:1 216:2 226:1 230:1 234:1 #
-0.095200670518103811 28:1 46:1 194:1 #
0.095200670518103811 78:1 128:1 #
-0.095200670518103811 11:1 31:1 51:1 53:1 77:4 92:1 99:1 100:1 103:1 109:1 123:2 128:1 133:3 137:1 139:1 141:1 152:4 157:1 160:1 171:1 174:1 186:1 187:1 234:1 239:1 244:1 245:1 #
-0.095200670518103811 39:1 60:2 74:4 149:1 176:4 198:2 #
-0.095200670518103811 42:1 71:1 87:1 88:1 105:1 126:1 152:1 213:1 #
-0.095200670518103811 1:1 71:3 76:2 115:1 152:1 160:1 226:1 #
-0.095200670518103811 7:1 20:1 #
-0.095200670518103811 30:1 31:1 36:1 41:1 46:1 66:1 77:1 80:1 81:1 96:2 100:1 103:1 110:1 112:1 126:2 132:1 137:2 146:2 147:1 152:2 169:1 191:1 200:1 205:1 216:2 220:2 245:3 250:2 #
-0.066051995040436962 5:1 17:1 21:1 27:1 31:1 41:2 59:1 67:1 77:3 80:1 93:1 94:2 96:1 98:1 126:2 128:1 131:1 133:1 137:1 139:1 140:1 152:6 155:2 172:1 185:1 213:1 231:1 242:1 #
0.095200670518103811 30:2 88:1 133:1 152:1 160:1 170:1 213:1 #
-0.095200670518103811 33:1 53:1 76:2 120:1 141:1 147:1 177:1 211:1 233:1 #
-0.095200670518103811 28:1 51:1 88:1 98:1 132:1 133:1 136:1 139:1 140:1 148:1 152:1 159:1 160:1 170:1 213:1 #
-0.095200670518103811 3:1 8:1 12:1 31:1 49:1 51:2 57:2 66:1 67:1 77:2 78:1 83:1 94:2 133:1 141:2 152:2 162:1 180:2 191:1 193:1 197:1 212:1 213:1 225:1 227:1 228:2 232:1 249:1 #
-0.095200670518103811 32:2 50:1 106:1 139:1 #
-0.095200670518103811 18:1 46:1 57:1 77:1 130:1 136:1 145:1 152:1 200:1 205:1 218:1 #
-0.095200670518103811 22:1 30:1 32:1 39:1 63:1 66:1 70:1 77:2 94:1 106:1 110:1 120:1 121:1 126:1 134:1 137:1 139:1 141:1 142:1 152:1 171:1 185:1 193:1 222:1 247:1 #
-0.095200670518103811 9:1 36:1 67:2 90:1 92:2 114:1 126:1 131:2 138:1 169:2 170:1 179:1 207:2 210:1 212:1 222:1 224:1 244:1 247:1 #
-0.095200670518103811 28:1 40:1 78:4 92:1 98:1 104:1 122:1 136:2 152:2 155:1 159:1 169:1 216:1 245:1 #
-0.095200670518103811 21:1 33:1 81:1 131:1 133:1 141:1 149:1 153:1 177:1 184:1 185:1 195:1 211:1 #
-0.095200670518103811 28:1 71:1 86:1 99:1 128:1 129:1 131:1 133:1 174:1 195:1 223:2 233:1 236:1 244:1 #
-0.095200670518103811 28:1 192:1 209:1 233:1 241:1 #
-0.095200670518103811 12:1 14:1 32:1 106:1 110:1 133:1 139:1 141:1 174:1 206:1 #
-0.095200670518103811 6:1 122:1 128:1 131:1 153:1 160:1 171:1 185:1 #
-0.095200670518103811 28:1 123:2 131:2 152:1 160:1 206:1 217:1 239:1 #
0.095200670518103811 18:1 129:1 152:1 216:1 #
-0.095200670518103811 71:1 115:1 149:1 246:1 #
-0.095200670518103811 12:1 92:1 124:1 149:1 #
-0.088147844906527398 2:1 31:2 32:1 46:1 51:1 53:1 56:1 57:1 66:1 76:2 77:1 86:1 93:1 122:1 129:5 141:2 143:1 145:1 152:1 196:1 200:1 212:1 223:1 224:1 234:1 #
-0.095200670518103811 136:1 140:2 152:1 217:1 227:1 231:1 #
-0.095200670518103811 12:1 75:2 76:1 83:1 166:2 #
-0.095200670518103811 75:1 83:1 149:1 166:1 167:1 168:1 #
-0.095200670518103811 12:1 51:1 52:1 141:1 170:1 216:2 231:1 241:1 #
-0.095200670518103811 29:1 50:1 120:1 179:1 216:2 230:1 #
-0.095200670518103811 20:1 31:1 40:1 62:1 120:1 123:1 133:2 170:1 222:2 #
-0.095200670518103811 91:1 190:1 210:1 #
-0.095200670518103811 12:1 46:1 149:1 203:1 218:1 #
-0.095200670518103811 106:1 115:1 142:2 144:1 174:1 193:1 213:1 246:1 250:1 #
-0.095200670518103811 148:1 #
-0.095200670518103811 66:1 122:1 149:1 152:1 153:1 171:1 205:1 #
-0.068314485392805227 6:1 20:1 25:1 34:1 42:1 53:1 54:1 58:1 67:1 69:1 74:1 81:1 82:1 88:1 94:2 96:1 101:1 102:1 103:1 117:1 131:2 132:2 133:5 136:1 141:1 150:1 152:4 155:1 170:1 172:1 176:1 184:2 186:2 187:1 199:1 201:1 202:1 203:2 217:2 234:2 245:1 #
0.08426644016532589 9:2 20:1 31:2 42:1 44:1 45:1 51:1 52:1 58:1 72:1 76:2 89:1 100:1 110:1 130:2 131:1 133:1 152:1 157:1 169:1 170:1 173:1 184:2 185:1 195:1 197:1 214:1 215:1 216:1 224:2 225:1 241:1 245:2 #
-0.095200670518103811 18:1 38:1 46:1 50:2 57:2 58:2 59:1 67:1 72:2 74:1 78:1 91:1 96:2 98:2 100:1 104:1 117:1 129:1 133:1 140:1 141:3 143:1 144:1 152:1 155:1 164:1 169:1 175:1 179:1 180:1 182:1 190:2 205:1 214:1 226:1 227:1 235:1 #
-0.095200670518103811 122:1 124:1 126:1 152:1 160:1 #
-0.095200670518103811 16:1 43:1 49:1 66:1 107:1 129:1 131:1 152:1 178:1 185:1 203:1 234:1 245:1 #
-0.095200670518103811 152:1 #
0.095200670518103811 11:1 36:1 42:1 74:1 77:2 79:1 92:1 99:1 131:1 133:1 141:2 150:1 152:1 160:1 169:1 184:1 194:2 216:2 224:1 250:1 #
0.095200670518103811 10:1 26:1 28:2 29:1 31:2 39:1 56:1 69:1 117:1 122:1 123:1 129:1 133:1 134:1 140:1 141:3 143:1 150:2 152:6 155:1 186:1 193:1 197:1 199:1 212:1 216:1 217:1 233:1 #
0.095200670518103811 3:1 12:1 16:1 20:1 51:1 53:3 56:1 67:4 69:1 83:1 97:2 123:1 126:2 133:1 140:1 141:1 146:1 147:1 152:2 186:1 191:1 216:3 218:1 224:1 235:1 242:1 250:1 #
0.095200670518103811 10:1 31:1 39:1 48:1 51:1 53:1 57:1 67:1 85:1 96:2 99:1 100:1 113:1 117:1 126:1 128:1 131:1 133:1 137:1 141:1 143:1 152:7 160:1 169:1 170:1 200:1 201:1 224:1 234:1 240:1 248:1 #
0.095200670518103811 48:3 91:1 133:1 147:1 152:3 169:1 189:1 222:1 250:1 #
0.095200670518103811 31:1 128:1 131:1 133:1 157:1 169:1 204:1 #
-0.095200670518103811 18:1 38:1 51:1 77:1 133:1 141:1 181:1 195:1 222:1 247:1 #
0.095200670518103811 30:1 52:1 66:1 152:1 185:1 188:1 #
0.095200670518103811 48:3 91:1 133:1 147:1 152:3 169:1 189:1 222:1 250:1 #
0.095200670518103811 20:1 22:2 23:1 27:2 32:1 67:1 77:1 91:2 106:1 116:1 132:1 141:1 152:3 186:1 190:1 212:1 220:2 245:1 #
-0.095200670518103811 9:1 12:1 20:1 28:2 31:1 48:4 53:2 55:1 60:1 64:1 66:1 77:1 78:1 95:1 96:3 103:1 104:1 119:1 131:1 146:2 152:4 157:1 169:1 170:1 188:1 189:1 199:1 222:5 223:1 226:1 231:1 243:1 #
0.095200670518103811 8:1 14:1 32:1 36:1 40:1 68:2 106:1 108:3 133:1 140:1 141:2 142:1 152:2 180:1 245:1 246:1 #
0.095200670518103811 75:1 83:1 125:1 166:1 219:2 #
0.095200670518103811 28:1 71:1 87:1 96:1 99:1 111:1 #
0.095200670518103811 32:1 34:1 40:1 56:1 62:1 66:2 106:1 115:1 133:2 152:2 155:1 160:1 189:1 204:1 #
0.095200670518103811 125:1 131:1 151:1 219:1 227:1 #
0.06471806192875211 30:1 52:1 66:1 96:1 108:1 121:1 172:1 182:1 192:1 205:1 224:1 225:1 232:1 #
0.095200670518103811 43:1 66:1 96:1 116:1 145:1 182:1 200:1 #
0.095200670518103811 55:1 96:1 115:1 152:1 160:1 212:1 225:1 #
0.095200670518103811 30:1 31:1 69:1 93:1 94:2 105:1 117:1 126:1 131:2 133:1 136:2 137:1 141:1 152:4 162:1 170:1 185:1 213:1 222:1 #
0.095200670518103811 24:1 106:1 140:1 149:1 152:1 169:1 241:1 244:2 #
0.095200670518103811 20:1 42:1 78:1 106:1 110:1 139:1 169:1 #
0.095200670518103811 5:1 7:2 12:1 20:2 28:1 66:1 77:1 103:1 117:1 149:1 161:1 172:1 191:1 197:1 214:1 218:1 223:1 225:1 227:1 233:1 235:1 241:1 245:2 #
0.095200670518103811 12:1 62:1 #
0.047086934154160223 12:1 53:1 66:1 77:1 137:1 149:1 152:2 171:1 224:1 239:1 #
0.095200670518103811 5:1 39:1 93:1 129:1 155:1 186:1 195:1 209:1 221:1 #
0.095200670518103811 28:1 31:1 49:1 66:1 70:1 82:1 100:1 106:1 133:1 141:1 142:1 144:1 152:3 155:1 160:2 164:1 172:1 174:1 175:1 180:2 201:1 205:1 215:1 227:1 228:1 #
0.095200670518103811 16:1 30:1 41:1 64:1 65:1 66:1 77:3 78:1 104:1 111:1 126:1 131:1 133:1 152:2 155:1 156:1 170:1 180:1 195:1 203:1 213:1 227:1 234:1 241:1 245:1 #
-0.095200670518103811 53:1 124:1 131:1 137:1 152:1 #
0.095200670518103811 8:1 115:1 129:1 144:1 149:1 210:1 223:1 #
-0.095200670518103811 6:1 #
0.095200670518103811 98:1 104:2 106:1 116:1 123:4 242:1 246:1 #
0.095200670518103811 32:1 51:1 106:1 108:1 123:1 131:1 149:1 152:1 180:1 185:1 225:1 245:1 #
0.095200670518103811 8:1 18:1 22:1 27:1 51:1 52:1 106:2 123:1 132:1 133:1 146:1 149:1 152:1 162:1 220:1 223:1 245:1 #
0.095200670518103811 1:1 57:1 99:1 115:1 131:1 177:1 184:1 227:1 #
0.095200670518103811 90:1 #
0.095200670518103811 30:1 51:1 133:1 141:1 152:1 153:1 160:1 169:1 200:1 216:1 249:1 #
0.095200670518103811 119:1 #
0.095200670518103811 9:1 36:1 60:1 67:1 155:1 244:1 #
0.070372513786052526 39:1 66:1 67:1 78:1 108:1 138:2 141:2 142:1 145:1 152:3 186:1 191:1 205:1 216:1 232:1 #
0.095200670518103811 96:1 131:1 141:1 177:1 222:2 #
0.095200670518103811 12:1 38:1 86:1 99:1 129:1 133:1 149:1 200:1 223:1 #
0.095200670518103811 41:1 54:1 59:1 63:1 74:1 77:2 120:1 123:1 133:1 152:1 171:1 175:1 182:1 223:1 224:1 #
0.095200670518103811 2:1 24:1 30:1 31:2 44:1 50:1 66:1 68:1 71:1 77:2 98:1 110:1 113:1 129:1 133:2 137:2 147:1 152:1 174:1 185:1 200:1 219:1 233:1 #
0.095200670518103811 67:1 78:1 94:1 96:1 119:1 133:1 136:1 152:2 163:1 225:1 226:1 248:1 #
-0.095200670518103811 2:1 8:1 31:1 36:1 39:1 48:1 51:1 57:3 71:1 77:2 85:1 99:2 104:1 110:1 133:2 152:6 169:1 171:1 190:1 200:1 216:1 217:1 234:2 243:1 #
-0.095200670518103811 30:1 46:1 48:1 62:1 63:1 117:2 132:1 136:1 137:1 143:1 152:6 155:1 163:1 213:1 216:1 240:1 245:1 248:1 #
-0.095200670518103811 31:1 50:1 52:1 66:1 77:2 99:1 133:2 137:1 149:1 152:1 155:1 169:1 202:1 205:1 241:1 245:1 250:1 #
-0.095200670518103811 10:1 28:1 45:1 48:1 57:1 67:1 93:1 96:1 100:1 115:1 117:1 118:1 126:1 130:1 133:1 150:1 152:3 155:1 212:2 231:1 248:1 250:1 #
0.095200670518103811 5:1 32:1 42:1 69:1 76:1 87:1 98:1 115:1 141:1 199:2 213:2 220:1 #
-0.095200670518103811 27:1 46:1 60:1 89:1 169:1 170:1 180:2 204:1 227:2 #
-0.095200670518103811 8:1 99:1 129:1 133:1 143:1 171:1 185:1 199:1 #
-0.095200670518103811 18:1 36:1 67:1 120:1 128:1 131:1 152:1 169:1 171:1 216:1 #
-0.095200670518103811 3:1 5:1 8:1 20:2 22:1 24:1 28:1 31:2 37:1 51:1 66:1 79:1 85:1 94:5 96:5 99:1 100:1 106:1 114:1 117:3 131:1 132:1 133:2 148:1 149:1 150:1 152:5 155:1 156:3 157:1 164:1 167:2 169:1 171:1 175:1 178:1 180:1 189:4 201:2 204:1 205:1 211:1 212:1 220:5 233:2 240:1 242:1 245:1 246:1 248:1 #
-0.022644349532905502 5:1 10:1 27:2 31:2 37:2 39:1 51:1 52:1 66:1 71:1 77:2 82:1 91:1 92:2 93:1 106:3 113:2 122:2 128:1 131:1 133:1 141:1 145:1 148:1 152:3 170:1 184:1 189:2 195:1 213:2 216:1 220:1 221:1 224:1 229:1 235:2 241:1 245:1 250:1 #
-0.095200670518103811 24:1 40:1 50:1 76:1 93:2 94:1 96:1 102:2 115:1 126:1 131:1 133:1 136:1 137:1 141:3 145:1 146:1 152:2 157:1 160:1 191:1 209:1 215:1 250:3 #
0.095200670518103811 6:1 31:1 32:1 53:1 85:1 96:1 100:1 102:1 133:1 136:1 152:2 155:1 169:1 200:1 202:1 205:1 224:1 231:1 245:1 #
0.095200670518103811 12:1 75:2 151:1 166:2 #
0.095200670518103811 27:1 67:1 137:1 141:1 152:1 191:1 206:1 212:1 #
-0.095200670518103811 114:1 140:1 141:1 #
-0.095200670518103811 97:1 137:1 142:1 152:1 #
0.095200670518103811 53:2 65:1 77:1 136:1 145:1 152:4 179:1 239:2 250:1 #
0.095200670518103811 8:1 30:1 31:1 32:1 39:1 52:1 65:1 76:1 128:1 131:1 133:1 137:1 141:1 152:2 155:1 157:1 197:1 220:1 235:1 243:1 245:1 #
-0.095200670518103811 12:1 17:1 66:1 77:1 94:1 104:1 131:1 155:1 157:1 170:1 200:1 216:1 224:1 226:1 227:2 245:1 #
-0.095200670518103811 21:1 128:1 160:1 194:1 216:1 #
-0.089132331968337197 4:1 19:1 27:1 30:1 48:1 81:1 88:2 100:1 106:1 112:1 126:1 131:2 132:1 133:2 141:2 152:4 156:1 163:1 169:1 213:2 216:1 220:1 224:1 234:1 #
-0.095200670518103811 8:1 31:1 53:1 63:1 66:1 78:1 79:1 92:1 93:1 126:1 129:1 133:1 138:1 141:1 146:1 152:1 171:1 186:1 207:1 222:1 223:1 249:1 250:1 #
-0.095200670518103811 9:1 15:1 20:1 36:1 66:1 67:1 74:1 77:1 96:1 99:1 106:1 132:2 144:1 149:1 152:2 169:2 170:1 179:1 205:1 211:1 214:1 222:1 224:1 240:1 245:1 #
0.095200670518103811 40:1 93:1 96:2 109:1 133:1 144:1 152:1 213:1 239:1 242:1 #
0.095200670518103811 111:1 152:2 213:1 244:1 #
0.095200670518103811 3:1 27:1 76:1 96:1 101:1 131:1 137:1 145:1 149:1 152:1 169:1 200:1 #
0.095200670518103811 2:1 36:1 82:1 94:1 96:1 101:1 126:1 129:1 131:1 133:1 169:1 184:1 229:1 #
0.095200670518103811 82:1 111:1 #
0.095200670518103811 71:1 224:1 245:1 #
-0.095200670518103811 119:1 140:1 #
-0.095200670518103811 28:1 31:1 32:1 36:1 47:1 50:1 51:3 70:1 72:1 93:1 94:1 96:1 117:1 126:1 131:1 133:2 136:2 149:1 152:6 153:1 155:1 169:1 170:1 233:1 #
-0.095200670518103811 3:1 46:1 #
-0.095200670518103811 6:1 #
0.095200670518103811 50:1 66:1 120:1 133:1 181:1 224:1 249:1 #
-0.095200670518103811 20:1 27:1 131:1 152:1 160:1 171:1 185:1 221:1 #
-0.095200670518103811 115:1 128:1 131:1 149:1 152:1 171:1 185:1 #
0.095200670518103811 152:1 169:1 170:1 200:1 214:1 226:1 245:1 #
-0.095200670518103811 2:1 66:2 77:1 128:1 131:1 153:1 170:1 221:1 #
0.095200670518103811 190:1 207:1 #
-0.095200670518103811 14:1 46:1 67:1 115:1 133:1 141:1 200:1 207:1 246:1 #
-0.095200670518103811 32:1 57:1 80:1 92:1 123:1 133:1 141:1 161:1 171:1 245:1 #
-0.095200670518103811 8:1 28:1 96:1 99:1 122:1 129:1 137:1 152:1 163:1 205:1 223:1 246:1 250:1 #
0.095200670518103811 79:1 115:2 122:1 140:1 152:1 155:1 216:1 227:1 231:1 235:1 #
0.095200670518103811 8:1 30:1 66:1 113:1 147:1 149:1 221:1 #
-0.095200670518103811 14:1 46:1 67:1 115:1 133:1 141:1 200:1 207:1 246:1 #
0.095200670518103811 8:1 59:1 153:1 171:1 225:1 #
0.095200670518103811 2:1 57:1 86:1 152:1 #
0.095200670518103811 40:1 56:1 66:1 153:1 249:1 #
-0.095200670518103811 148:1 #
0.095200670518103811 8:2 32:1 68:1 81:1 108:2 144:1 152:2 246:1 #
0.095200670518103811 67:1 78:1 94:1 117:1 133:1 152:2 178:1 #
0.095200670518103811 46:1 62:1 67:1 106:1 115:1 137:2 152:2 #
0.016372485811437069 39:1 75:2 76:1 90:1 151:1 166:2 167:1 #
0.095200670518103811 30:1 96:1 146:1 152:1 160:1 180:1 217:1 245:1 #
0.095200670518103811 58:1 100:1 117:1 142:2 144:1 155:1 213:1 #
-0.095200670518103811 30:1 77:1 128:1 131:1 145:1 152:1 229:1 234:1 #
0.095200670518103811 90:1 198:1 #
0.095200670518103811 55:1 75:1 83:1 166:1 #
0.095200670518103811 75:1 83:1 166:1 #
0.07666947255379325 2:1 23:1 57:1 66:1 96:1 133:1 152:1 196:1 238:1 #
0.095200670518103811 18:1 133:1 157:1 #
-0.095200670518103811 36:1 67:1 126:1 223:1 #
-0.095200670518103811 2:1 66:1 110:1 131:1 133:1 145:1 152:1 157:1 171:1 200:1 #
0.085296211026437224 4:1 26:1 37:1 48:1 51:1 57:1 77:2 93:1 98:1 117:1 122:1 126:1 133:2 142:1 144:1 146:1 152:2 155:1 159:1 160:1 170:1 193:1 194:1 211:1 217:1 221:1 222:1 225:1 245:1 250:1 #
-0.095200670518103811 30:1 115:1 #
0.095200670518103811 22:1 46:3 75:1 87:1 88:1 96:1 106:1 110:1 117:1 126:1 130:1 152:2 155:1 186:2 222:3 231:1 #
-0.095200670518103811 30:1 126:1 141:1 #
0.095200670518103811 71:1 152:1 178:1 245:1 #
0.095200670518103811 26:1 27:1 44:1 51:2 53:1 64:1 66:1 82:1 87:1 92:1 99:1 124:1 137:1 140:1 141:1 152:4 170:1 193:1 195:2 223:1 #
-0.095200670518103811 8:1 12:1 21:1 27:1 31:2 60:1 67:1 78:2 85:1 106:1 107:2 108:2 118:1 126:2 131:2 134:1 140:1 141:1 142:1 152:2 162:1 169:1 185:1 186:1 195:1 203:1 216:2 #
-0.095200670518103811 27:1 30:1 39:1 40:1 48:1 57:1 66:1 79:1 88:1 100:1 106:1 110:1 121:1 128:1 152:2 153:1 169:1 182:1 191:1 224:1 233:2 #
0.095200670518103811 98:1 140:1 146:1 159:1 240:1 #
-0.095200670518103811 63:1 68:1 103:1 110:2 120:1 152:1 169:2 194:1 205:1 216:1 224:1 233:1 245:1 #
0.080968861987662025 75:1 166:1 204:1 #
0.095200670518103811 20:1 31:1 96:2 98:3 111:4 115:1 119:1 126:1 133:1 140:1 141:1 149:2 152:3 223:1 233:1 #
0.095200670518103811 32:1 35:1 67:1 126:1 131:1 133:1 152:1 245:1 #
-0.095200670518103811 7:1 26:1 32:1 39:1 77:1 84:1 85:1 87:1 123:1 149:1 205:1 #
0.095200670518103811 7:1 66:1 86:1 110:1 152:1 169:1 171:1 233:1 #
-0.095200670518103811 36:1 184:1 #
0.095200670518103811 3:1 46:1 83:1 117:1 169:1 189:1 216:1 246:1 #
0.095200670518103811 6:1 21:1 28:1 38:1 57:1 66:1 94:1 100:2 104:1 113:1 114:1 126:1 128:1 131:1 133:1 136:1 143:1 152:3 169:1 170:1 175:1 182:1 214:1 215:2 222:1 224:1 #
-0.095200670518103811 21:1 26:1 28:1 45:1 59:1 81:1 87:1 99:1 100:1 115:1 124:1 131:1 133:1 144:1 149:1 152:1 193:1 245:1 #
-0.095200670518103811 23:1 30:1 38:1 51:1 57:1 66:1 100:1 118:1 126:1 128:1 152:1 177:1 182:1 199:1 221:1 224:1 234:1 238:1 250:1 #
-0.095200670518103811 19:1 29:1 51:1 67:1 76:1 94:1 95:1 126:2 131:1 152:3 172:1 187:1 195:1 #
-0.095200670518103811 20:2 21:1 57:1 79:1 99:1 121:1 128:1 133:1 149:1 152:2 192:1 206:1 222:1 234:1 #
-0.095200670518103811 5:1 15:1 20:1 66:1 117:1 133:1 152:2 202:1 213:1 216:1 #
-0.095200670518103811 57:1 77:1 100:1 128:1 141:1 145:1 152:2 155:1 181:1 188:1 197:1 221:1 224:1 227:1 228:1 245:1 #
-0.093613199398855443 30:1 43:1 66:1 129:1 #
-0.095200670518103811 94:1 97:2 142:1 144:1 213:1 215:1 #
-0.095200670518103811 55:2 176:1 198:3 #
-0.095200670518103811 8:1 14:1 52:1 98:1 140:1 170:1 205:1 217:1 225:1 245:1 #
-0.095200670518103811 17:1 57:1 96:1 126:1 196:1 216:1 #
-0.095200670518103811 8:1 42:1 66:1 71:1 92:1 98:1 108:1 113:1 117:1 126:1 131:1 136:1 144:1 152:2 160:1 215:1 217:1 250:1 #
-0.095200670518103811 6:1 7:1 8:1 20:2 23:1 31:2 59:1 67:1 120:1 137:1 141:1 144:1 146:1 152:2 170:1 178:1 209:1 211:1 227:1 242:1 245:1 #
-0.095200670518103811 18:1 25:1 36:1 46:2 62:1 63:1 115:1 117:1 122:1 131:1 133:2 160:1 190:1 203:1 206:1 214:2 215:1 222:2 234:1 246:1 #
-0.095200670518103811 20:1 31:1 40:1 62:1 120:1 123:1 133:2 170:1 222:2 #
0.095200670518103811 127:1 131:1 152:1 170:1 208:1 #
-0.095200670518103811 7:1 26:1 37:1 53:1 66:1 137:1 152:1 171:1 199:1 241:1 245:1 #
-0.095200670518103811 36:1 67:1 99:1 131:1 157:1 169:1 184:1 #
-0.095200670518103811 67:1 74:2 123:1 129:1 133:1 150:2 175:2 186:1 195:1 231:1 #
-0.095200670518103811 51:1 66:2 86:1 124:1 152:2 #
-0.095200670518103811 55:2 176:1 198:3 #
-0.095200670518103811 46:1 66:1 171:1 200:1 224:1 #
0.012820552581928624 23:1 51:1 57:1 71:1 133:1 137:1 149:1 #
-0.095200670518103811 75:1 83:1 94:2 97:1 99:1 108:1 142:1 144:1 166:2 #
-0.095200670518103811 9:1 46:1 51:1 66:1 76:1 85:1 99:1 133:1 137:1 146:1 151:1 152:1 169:1 180:1 197:1 200:1 228:1 245:1 #
-0.095200670518103811 30:1 149:1 151:1 #
-0.095200670518103811 56:1 77:1 92:2 141:1 159:1 187:1 #
-0.095200670518103811 9:1 31:1 52:1 73:1 77:1 82:1 111:1 133:1 146:1 152:1 169:1 250:2 #
-0.095200670518103811 111:1 152:1 #
-0.095200670518103811 39:1 66:1 72:1 133:1 137:1 149:1 152:3 157:1 169:1 216:1 221:1 241:1 243:1 #
-0.095200670518103811 28:1 36:1 96:1 115:1 160:1 190:1 207:1 210:1 #
0.095200670518103811 26:1 51:1 66:1 73:1 89:1 133:1 #
-0.095200670518103811 5:1 12:1 21:1 31:1 43:1 45:1 51:1 66:1 96:1 133:2 141:1 220:1 233:1 #
-0.095200670518103811 39:1 46:1 48:1 96:1 141:1 152:1 191:1 212:1 222:1 224:1 233:1 243:1 245:1 #
-0.095200670518103811 66:1 99:1 110:1 115:1 133:1 149:1 169:1 233:1 #
-0.095200670518103811 63:1 131:1 159:1 184:1 190:1 241:1 #
-0.095200670518103811 98:1 122:1 129:1 131:1 155:1 157:1 159:1 186:1 205:1 214:1 241:1 245:1 246:1 #
0.095200670518103811 1:1 8:1 9:1 20:2 31:1 39:2 51:1 59:1 77:4 86:1 96:2 98:1 99:1 110:1 123:1 126:1 129:1 131:1 132:1 133:4 141:1 145:2 152:1 153:1 169:2 189:1 191:1 205:1 215:1 227:2 233:1 237:1 242:1 245:1 #
0.095200670518103811 8:2 13:1 20:1 36:2 50:1 69:1 77:1 79:1 88:1 102:3 106:1 114:1 120:3 128:1 131:1 133:3 139:1 142:1 152:2 184:1 204:1 205:1 209:1 213:1 222:1 245:1 250:1 #
0.095200670518103811 96:1 152:1 220:1 245:1 #
0.095200670518103811 8:2 20:1 39:1 42:1 46:1 59:1 66:1 68:1 85:1 87:1 99:1 108:1 112:1 120:1 126:3 128:1 130:1 131:1 132:1 133:1 141:2 144:2 146:1 147:1 152:4 155:2 160:2 169:1 186:1 189:1 192:1 202:1 207:1 218:1 222:1 224:2 233:1 234:1 #
0.095200670518103811 9:1 85:1 99:1 133:1 137:1 169:1 216:1 245:1 #
0.095200670518103811 31:1 34:1 149:1 #
-0.095200670518103811 52:1 110:1 126:1 130:1 #
-0.095200670518103811 44:1 46:1 71:1 126:1 131:1 133:1 157:1 216:1 #
-0.095200670518103811 90:1 96:1 126:1 245:1 #
-0.095200670518103811 12:1 83:2 125:2 149:1 151:1 165:1 219:2 #
-0.095200670518103811 51:1 57:1 77:1 154:1 200:1 #
0.095200670518103811 12:1 28:1 32:1 51:1 59:1 67:1 69:2 78:1 91:1 96:1 98:2 106:2 112:1 113:1 133:3 139:1 143:1 146:2 152:2 162:2 187:1 195:1 233:1 245:1 #
0.095200670518103811 15:2 25:1 31:1 92:1 100:1 102:1 109:1 133:2 136:3 137:1 152:5 215:1 220:2 #
0.095200670518103811 28:1 31:1 49:1 66:1 70:1 82:1 100:1 106:1 133:1 141:1 142:1 144:1 152:3 155:1 160:2 164:1 172:1 174:1 175:1 180:2 201:1 205:1 215:1 227:1 228:1 #
0.095200670518103811 98:2 140:1 #
-0.095200670518103811 26:1 28:1 66:1 87:1 106:1 124:1 133:1 141:1 216:1 249:1 #
-0.095200670518103811 92:1 102:1 112:1 121:1 126:1 142:1 160:1 169:1 #
-0.095200670518103811 83:1 165:1 168:1 225:1 #
-0.095200670518103811 63:1 100:1 117:1 131:1 147:1 152:1 153:1 205:1 245:1 #
0.095200670518103811 8:2 12:1 20:2 27:1 31:2 33:1 37:1 57:1 58:1 66:1 68:1 71:2 74:1 86:1 96:1 100:1 106:1 110:1 112:1 114:1 126:1 131:2 132:1 137:1 141:4 144:1 152:2 160:2 169:1 170:1 209:1 213:1 215:1 229:1 232:2 233:1 241:1 243:1 #
0.095200670518103811 20:1 28:1 39:1 46:1 72:2 74:1 94:1 96:1 120:1 131:1 133:1 141:1 148:1 149:1 152:4 169:1 171:1 179:1 209:1 229:1 #
-0.095200670518103811 111:1 152:1 218:1 222:1 #
-0.095200670518103811 9:1 74:1 103:1 124:1 133:1 152:1 169:1 179:1 233:1 245:1 #
-0.095200670518103811 99:1 100:1 131:1 149:1 165:1 168:1 #
0.095200670518103811 20:1 31:1 99:1 100:1 102:1 106:1 120:1 126:1 133:1 143:1 146:2 152:3 157:1 174:1 188:2 189:2 191:1 201:1 202:1 212:1 231:1 240:1 246:1 #
-0.095200670518103811 7:1 66:1 111:1 209:1 250:1 #
-0.095200670518103811 102:1 115:1 133:1 209:1 246:1 250:1 #
0.095200670518103811 36:1 46:1 48:1 53:1 58:1 77:2 93:1 99:1 124:1 141:1 146:1 152:4 169:1 175:1 222:1 233:1 245:1 #
0.095200670518103811 20:1 30:1 63:1 66:1 94:1 128:1 131:1 133:2 141:1 145:1 152:3 181:1 242:1 247:1 #
0.065701077627400351 55:1 #
0.095200670518103811 8:1 142:1 144:1 213:1 225:1 232:1 #
0.095200670518103811 3:1 31:1 34:1 41:1 51:2 100:1 132:1 133:2 152:2 169:1 216:1 250:1 #
-0.095200670518103811 98:1 126:1 133:1 152:1 216:1 225:1 231:1 #
0.095200670518103811 75:1 166:1 227:1 #
-0.095200670518103811 50:1 51:1 162:1 207:1 220:1 245:1 #
-0.095200670518103811 84:1 207:1 245:1 #
-0.095200670518103811 62:1 75:1 83:2 121:1 #
-0.095200670518103811 152:1 177:1 215:1 #
-0.095200670518103811 66:1 131:1 169:1 171:1 185:1 205:1 226:1 #
-0.095200670518103811 1:1 46:1 76:1 89:1 133:1 207:1 216:1 224:1 244:1 #
-0.095200670518103811 5:1 9:2 27:1 28:1 31:1 50:1 51:1 58:1 96:1 106:1 110:2 120:1 141:3 152:1 157:2 169:3 183:1 205:1 214:1 215:1 216:1 218:1 222:1 226:1 230:1 233:2 245:1 #
0.095200670518103811 128:1 131:1 #
-0.095200670518103811 5:1 12:1 24:1 25:1 60:1 66:1 69:1 77:1 92:1 96:1 145:1 146:1 152:2 155:1 169:1 172:2 227:2 242:1 245:1 #
0.095200670518103811 8:1 18:1 31:1 51:2 76:1 111:1 129:1 133:1 141:1 152:3 154:1 162:1 170:1 200:1 #
-0.095200670518103811 28:1 117:1 170:1 173:1 205:1 #
-0.095200670518103811 3:1 15:1 25:1 31:1 41:3 67:1 74:1 87:1 117:1 126:1 131:1 132:1 133:3 152:1 157:1 169:1 172:1 179:1 184:2 185:1 189:1 197:2 200:1 205:1 216:1 220:1 222:2 226:1 242:1 243:1 245:1 #
-0.095200670518103811 31:1 83:1 108:1 232:1 #
0.081109938696870956 107:1 120:1 152:1 178:1 230:1 #
-0.095200670518103811 134:1 158:1 175:1 #
0.095200670518103811 94:1 96:1 152:1 231:1 242:1 248:1 #
-0.095200670518103811 100:1 111:1 127:1 208:1 #
-0.095200670518103811 66:1 124:1 137:1 152:2 225:1 #
-0.095200670518103811 77:1 157:1 170:1 220:1 245:1 #
-0.021113699290463188 68:1 160:1 225:1 232:1 #
-0.095200670518103811 101:1 128:1 131:1 #
-0.095200670518103811 121:1 133:1 216:1 #
-0.095200670518103811 57:1 66:1 131:1 153:1 169:1 185:1 197:1 #
-0.095200670518103811 3:1 153:1 182:1 224:1 245:1 #
0.095200670518103811 31:1 46:1 62:1 131:1 140:1 222:1 #
-0.095200670518103811 28:1 131:1 136:1 152:1 #
0.095200670518103811 77:1 91:1 96:1 106:1 117:1 126:1 139:1 142:3 144:1 155:1 213:1 250:1 #
0.095200670518103811 4:1 12:1 30:2 79:1 94:2 96:1 97:2 108:1 144:1 152:1 207:1 220:1 245:2 #
0.095200670518103811 17:1 20:2 24:1 25:1 41:2 46:1 48:1 53:2 62:1 69:2 70:1 71:2 77:1 82:1 85:1 92:1 94:1 96:1 102:1 104:1 114:1 117:2 123:3 126:1 131:2 133:1 137:1 146:1 152:4 155:2 169:1 202:2 215:1 222:4 226:2 227:1 230:1 234:2 #
0.095200670518103811 55:1 #
0.030474955768053952 51:1 73:1 85:1 152:1 169:1 171:1 #
0.095200670518103811 31:1 89:1 241:2 #
0.095200670518103811 9:1 131:1 133:1 153:1 185:1 209:1 214:1 215:1 224:1 245:1 250:1 #
-0.095200670518103811 127:1 166:1 219:1 #
-0.095200670518103811 24:1 75:1 166:1 #
-0.095200670518103811 84:1 179:1 216:1 #
0.095200670518103811 31:1 49:1 52:1 53:2 83:1 88:1 100:1 106:1 111:2 117:1 129:1 131:1 136:1 140:2 142:1 144:1 149:2 152:5 153:1 154:1 160:1 162:1 170:1 171:2 185:1 211:1 212:1 213:1 223:4 224:1 225:1 239:1 241:1 246:1 250:1 #
0.095200670518103811 131:1 185:1 #
0.059066571363360611 1:1 9:2 22:1 28:1 31:1 36:1 50:4 56:1 77:2 79:1 85:1 100:1 108:1 110:1 112:1 115:1 124:1 128:1 140:1 141:2 144:1 146:1 152:4 158:1 160:1 164:1 169:1 186:3 197:1 205:1 207:1 213:1 216:1 226:1 227:1 229:1 239:1 #
0.030555429273164878 21:1 22:1 31:2 46:1 48:1 49:1 77:2 106:1 117:3 123:1 129:1 131:1 133:1 134:1 139:1 140:1 147:1 149:1 152:1 155:1 160:1 169:1 171:1 187:1 237:1 240:1 #
0.048064192027137145 1:2 8:1 24:1 25:1 63:2 78:1 81:1 115:1 126:1 131:1 148:1 160:1 203:1 246:1 250:1 #
0.095200670518103811 26:1 32:1 51:1 67:1 131:1 153:1 211:1 244:1 #
0.095200670518103811 140:1 142:1 209:1 250:1 #
0.095200670518103811 1:1 7:1 33:1 46:1 57:2 78:1 92:1 99:1 111:1 129:1 152:1 182:1 205:1 213:1 223:1 229:1 246:1 #
0.095200670518103811 96:1 152:1 220:1 245:1 #
0.095200670518103811 1:1 #
-0.095200670518103811 17:1 33:1 93:1 141:1 152:1 #
0.095200670518103811 176:1 #
0.095200670518103811 19:1 98:1 126:1 148:1 159:1 #
-0.095200670518103811 86:1 #
0.095200670518103811 20:1 31:1 43:1 46:1 58:2 71:1 98:1 126:2 144:1 155:1 210:1 215:1 216:1 227:1 235:1 246:1 #
0.095200670518103811 6:1 37:2 66:1 80:1 93:1 94:1 128:1 131:1 136:1 141:1 152:1 171:1 240:1 #
0.095200670518103811 2:3 24:2 66:1 96:1 100:2 106:1 128:1 129:1 133:1 152:1 190:1 #
0.095200670518103811 176:1 #
0.095200670518103811 74:1 198:2 #
0.095200670518103811 20:1 115:1 142:1 144:1 222:1 246:1 250:1 #
0.095200670518103811 26:1 77:2 89:1 205:1 216:1 222:1 #
0.095200670518103811 176:3 #
-0.095200670518103811 101:1 128:1 131:1 #
0.095200670518103811 10:1 96:1 132:1 134:1 145:1 189:1 191:1 194:1 212:1 245:1 #
0.095200670518103811 28:1 32:1 67:1 92:1 96:1 99:1 126:1 143:1 152:1 #
0.095200670518103811 66:1 110:2 192:1 214:1 233:1 #
-0.095200670518103811 128:1 131:1 245:1 #
0.076892237371346664 5:1 15:1 30:1 66:1 157:1 205:1 216:1 #
0.095200670518103811 30:1 76:1 117:1 152:2 169:1 #
0.095200670518103811 8:1 92:1 96:1 100:1 109:1 111:1 112:1 153:1 155:1 159:1 186:1 195:1 205:1 222:1 245:1 #
-0.095200670518103811 11:1 157:1 185:1 #
0.095200670518103811 9:1 80:1 137:2 152:2 169:1 174:1 177:1 203:1 234:2 240:1 249:1 #
0.067787607117406529 96:1 128:1 133:1 197:1 #
0.095200670518103811 58:1 68:1 70:1 77:1 108:1 115:1 122:1 131:1 151:1 152:2 216:2 246:1 #
0.095200670518103811 23:1 48:1 57:1 63:1 100:1 117:1 123:1 131:1 152:2 171:1 177:1 238:1 #
0.095200670518103811 41:1 53:1 101:1 131:1 133:1 143:1 155:1 186:2 205:1 #
-0.095200670518103811 7:1 66:1 111:1 209:1 250:1 #
0.095200670518103811 157:1 185:1 #
0.095200670518103811 10:1 152:1 200:1 212:1 220:1 224:1 245:1 #
0.095200670518103811 7:1 31:1 46:1 89:1 250:2 #
-0.095200670518103811 1:1 46:1 76:1 89:1 133:1 207:1 216:1 224:1 244:1 #
-0.095200670518103811 152:1 157:1 171:1 205:1 245:1 #
0.095200670518103811 31:1 49:1 53:1 87:1 111:1 152:1 169:1 220:1 #
0.095200670518103811 131:1 157:1 184:1 #
0.095200670518103811 7:2 96:1 112:1 122:1 139:1 182:1 200:1 205:1 213:1 222:1 223:1 245:1 #
-0.095200670518103811 87:1 115:1 169:1 210:2 216:1 #
0.095200670518103811 51:1 103:1 216:1 #
0.095200670518103811 66:1 94:2 111:1 117:1 136:1 152:2 205:1 243:1 #
0.095200670518103811 66:2 94:1 111:2 117:1 122:1 133:1 152:1 222:1 250:1 #
0.095200670518103811 67:1 78:1 94:1 96:1 119:1 133:1 136:1 152:2 163:1 225:1 226:1 248:1 #
0.095200670518103811 32:1 115:1 146:1 148:1 180:1 186:1 216:1 #
0.095200670518103811 55:1 #
0.095200670518103811 25:1 92:1 194:1 197:1 205:1 216:1 #
0.095200670518103811 98:1 152:1 216:1 #
-0.095200670518103811 66:1 152:1 208:1 #
0.095200670518103811 26:1 83:1 87:1 115:1 122:1 124:1 132:1 152:1 206:1 212:1 #
-0.095200670518103811 46:1 62:1 133:1 227:1 #
-0.095200670518103811 133:1 152:1 179:1 223:1 #
0.095200670518103811 31:1 51:1 118:1 140:1 241:1 #
0.095200670518103811 30:1 31:1 #
0.095200670518103811 89:1 110:1 169:1 171:1 #
-0.095200670518103811 66:1 131:1 169:1 171:1 185:1 205:1 226:1 #
0.095200670518103811 76:1 93:1 196:1 205:1 224:1 232:1 245:1 #
0.095200670518103811 157:1 184:1 245:1 #
-0.095200670518103811 128:1 185:1 #
-0.085620298560139918 214:1 #
0.095200670518103811 2:1 117:1 131:1 133:1 147:1 152:1 178:1 185:1 204:1 #
0.095200670518103811 108:1 142:1 144:1 193:1 232:1 #
0.095200670518103811 141:1 144:2 199:1 223:1 #
0.095200670518103811 8:1 51:1 150:1 152:2 163:1 171:1 200:1 205:1 #
0.054431651470732693 46:1 57:1 191:1 200:1 224:1 #
-0.095200670518103811 85:1 169:1 #
0.095200670518103811 66:1 115:1 149:1 169:1 214:1 246:1 #
0.015484877274148512 1:1 2:1 10:1 12:1 28:1 51:1 66:1 77:1 81:1 96:1 114:1 115:1 124:1 149:1 213:1 246:1 250:1 #
-0.095200670518103811 179:1 #
-0.095200670518103811 75:1 151:1 165:1 #
0.095200670518103811 46:1 62:1 99:1 #
0.095200670518103811 85:1 169:1 #
0.095200670518103811 59:1 83:1 #
-0.095200670518103811 46:1 62:1 184:1 185:1 222:1 #
0.095200670518103811 209:1 #
0.095200670518103811 4:1 28:1 31:1 93:1 94:1 96:1 149:1 150:1 152:1 246:1 #
-0.095200670518103811 25:1 34:1 63:1 #
0.095200670518103811 131:1 153:1 184:1 185:1 #
-0.095200670518103811 17:1 #
0.095200670518103811 46:1 66:1 169:1 214:1 216:1 #
-0.095200670518103811 74:1 77:1 114:1 152:1 #
0.095200670518103811 108:1 133:1 142:1 152:1 155:1 160:1 245:1 #
0.095200670518103811 81:1 90:1 137:1 190:1 #
-0.095200670518103811 75:1 151:1 166:1 #
0.095200670518103811 8:1 26:1 66:1 89:1 152:1 #
-0.095200670518103811 66:1 152:1 208:1 #
0.045835784840519193 83:1 151:1 165:1 166:1 168:1 #
-0.095200670518103811 15:1 20:1 28:1 30:2 53:1 66:1 77:1 96:1 111:2 117:3 129:1 133:3 140:1 152:2 170:1 197:2 223:1 245:1 250:1 #
0.034935278072434628 165:1 168:1 #
-0.095200670518103811 12:2 53:1 57:1 66:1 96:1 98:1 113:1 122:1 136:1 152:3 155:1 200:1 234:1 250:1 #
-0.095200670518103811 40:1 57:1 96:1 152:1 170:1 182:1 200:1 #
0.088990949815275375 13:1 18:1 30:1 77:1 100:1 102:1 128:1 131:2 152:1 183:1 185:1 205:1 224:1 237:1 #
0.095200670518103811 25:1 152:1 169:1 205:1 245:1 #
0.095200670518103811 3:1 31:1 189:1 #
-0.095200670518103811 30:1 #
-0.095200670518103811 20:1 25:1 49:1 53:1 57:1 96:1 106:1 123:1 153:1 169:1 188:2 202:1 223:1 233:1 #
-0.095200670518103811 20:1 39:1 45:1 46:3 128:1 131:1 141:2 214:1 216:1 #
-0.095200670518103811 18:1 20:1 63:1 72:1 111:1 123:1 128:1 131:2 152:3 185:1 205:1 213:1 216:2 224:1 #
-0.095200670518103811 98:1 122:1 140:1 148:1 217:1 #
-0.095200670518103811 4:1 26:1 69:1 89:1 91:1 97:1 100:1 105:1 118:1 122:1 129:1 139:1 144:1 152:1 189:1 210:1 213:1 224:1 238:1 246:1 250:1 #
-0.095200670518103811 79:1 99:1 100:1 131:1 133:1 224:1 245:1 250:1 #
-0.040939714033685681 58:1 93:1 98:2 131:1 142:1 144:2 169:1 213:1 #
-0.095200670518103811 5:1 12:1 74:1 77:2 126:1 129:1 133:1 152:1 182:1 204:1 205:1 218:1 223:1 224:1 245:1 #
-0.095200670518103811 7:1 8:1 31:1 43:1 44:1 66:2 71:1 86:1 99:1 131:1 141:1 144:1 152:1 160:1 185:1 205:1 215:2 #
-0.095200670518103811 5:1 8:1 31:1 51:1 56:1 61:1 66:2 74:1 77:1 78:1 91:1 92:1 96:2 98:1 104:1 108:1 118:1 131:2 132:1 133:2 136:1 142:1 144:1 146:2 152:2 155:1 171:1 190:1 191:1 195:3 200:1 201:2 211:1 222:1 238:1 241:1 243:1 #
0.095200670518103811 125:1 151:1 165:1 219:1 #
-0.095200670518103811 59:1 151:2 #
-0.095200670518103811 74:1 149:1 176:4 #
-0.095200670518103811 3:1 9:1 31:1 131:1 169:1 170:1 184:1 204:1 245:1 #
-0.095200670518103811 3:1 15:1 25:1 28:1 31:1 36:1 56:1 58:2 66:1 70:1 78:1 93:2 94:3 96:3 100:1 107:1 115:1 122:1 133:1 140:1 142:1 152:2 153:1 170:1 183:1 188:1 189:1 193:1 200:1 215:1 222:2 224:1 226:1 229:1 248:1 250:2 #
-0.095200670518103811 37:1 131:1 132:1 141:1 144:1 152:2 169:1 209:1 250:1 #
-0.095200670518103811 8:1 144:1 146:1 195:1 218:1 #
-0.095200670518103811 51:1 85:1 126:1 133:1 152:1 160:1 161:1 245:1 #
-0.095200670518103811 31:1 40:1 51:1 57:1 130:1 154:1 162:1 189:1 216:2 224:1 #
-0.095200670518103811 31:1 33:1 57:1 77:4 96:2 110:1 114:1 117:1 122:1 131:1 132:1 137:1 152:1 157:1 163:1 169:1 182:1 185:1 233:1 #
0.040801446378877698 51:1 73:1 98:1 152:1 250:1 #
-0.095200670518103811 25:1 62:1 123:1 131:1 133:1 155:1 180:1 222:2 227:1 240:1 245:1 #
-0.095200670518103811 46:1 119:1 134:1 140:1 141:1 216:1 222:1 #
-0.095200670518103811 20:2 27:1 58:1 66:1 71:1 74:1 116:1 132:1 134:1 152:1 170:1 203:1 220:1 230:1 234:1 #
-0.095200670518103811 12:1 14:1 32:1 106:1 110:1 133:1 139:1 141:1 174:1 206:1 #
-0.095200670518103811 30:1 31:1 88:1 147:1 152:1 169:1 171:1 181:1 192:1 205:1 213:1 224:1 #
-0.095200670518103811 8:1 96:1 141:2 152:2 171:1 177:1 205:1 245:1 #
-0.095200670518103811 31:1 51:1 57:1 80:1 99:1 131:1 133:1 171:1 200:1 226:1 241:1 #
-0.095200670518103811 30:1 31:1 51:1 118:1 162:1 200:1 205:1 209:1 216:1 224:1 #
-0.095200670518103811 25:1 111:1 200:1 247:1 #
0.0006489774645732577 35:1 126:1 131:1 194:1 245:1 #
-0.095200670518103811 176:3 198:1 #
0.012841671478412595 12:1 25:1 27:3 36:1 41:1 46:1 57:1 67:1 85:1 96:1 99:1 110:1 117:1 120:1 121:1 126:1 131:1 133:4 136:1 140:1 141:1 146:1 157:1 169:2 186:1 187:1 189:1 216:1 231:1 233:1 237:1 #
0.095200670518103811 20:2 27:1 28:1 31:1 54:1 57:1 60:1 62:1 65:1 67:1 77:1 123:1 126:1 130:1 131:1 133:1 136:1 140:1 146:1 152:4 170:1 197:1 201:1 222:1 224:1 243:2 #
0.095200670518103811 51:1 57:1 82:1 100:1 111:1 129:1 133:1 136:1 149:1 152:2 161:1 195:1 223:1 224:1 248:1 #
0.095200670518103811 28:1 56:1 134:1 138:1 142:1 144:1 152:1 156:1 185:1 200:1 213:1 224:1 232:1 #
-0.095200670518103811 9:1 31:1 66:1 99:1 110:1 130:1 131:1 134:1 141:1 145:1 152:1 169:1 205:1 206:1 220:1 231:1 245:1 #
-0.095200670518103811 85:1 128:1 157:1 169:1 171:1 185:1 #
0.095200670518103811 46:1 131:1 152:1 185:1 250:1 #
0.095200670518103811 44:1 51:1 77:1 101:1 117:1 131:1 133:1 152:1 154:1 169:1 195:1 #
0.095200670518103811 8:1 12:1 42:2 64:1 77:4 86:1 99:2 106:1 122:1 128:1 131:1 133:1 134:1 141:1 144:2 149:1 152:4 169:1 205:1 213:1 225:1 232:1 234:1 239:1 243:1 250:1 #
0.095200670518103811 12:1 96:1 103:1 133:2 134:1 151:1 216:1 #
0.095200670518103811 2:1 57:1 87:1 99:1 161:1 200:1 205:1 216:1 224:1 249:1 #
0.095200670518103811 5:1 8:1 9:1 31:1 78:1 105:1 110:1 116:1 121:1 123:1 126:1 133:1 144:3 152:1 169:1 199:2 209:1 210:1 213:1 220:1 241:1 246:1 250:1 #
-0.095200670518103811 28:1 36:1 99:1 122:1 138:1 234:1 246:1 #
-0.095200670518103811 56:1 78:1 119:1 128:1 131:1 138:1 #
-0.095200670518103811 125:1 149:1 165:1 168:1 219:1 #
-0.095200670518103811 80:1 100:1 131:1 152:1 #
0.095200670518103811 31:1 53:1 81:1 83:1 97:2 133:2 141:2 142:2 144:1 152:3 202:1 212:1 213:1 220:2 235:1 245:1 #
0.095200670518103811 7:4 8:2 10:1 12:1 18:1 30:1 31:2 32:1 39:1 46:1 50:1 66:2 76:1 90:1 99:1 121:1 122:1 126:1 129:1 130:1 131:3 133:3 140:1 141:3 142:1 144:1 147:1 152:4 180:1 201:1 205:1 213:3 217:1 227:1 231:1 235:1 #
0.095200670518103811 48:2 57:1 63:1 77:1 123:1 152:2 171:1 180:1 195:1 224:1 228:1 #
-0.095200670518103811 18:1 87:1 133:1 144:1 152:1 175:1 224:1 245:1 #
-0.095200670518103811 153:1 224:1 245:1 #
0.095200670518103811 15:1 28:1 54:1 62:1 67:1 74:1 77:1 90:1 92:1 94:1 96:1 100:2 115:1 119:1 122:1 126:1 133:1 138:1 146:1 148:1 150:1 152:3 159:1 169:1 185:1 186:1 191:1 201:2 240:1 #
0.095200670518103811 12:1 20:2 51:1 84:1 123:2 131:1 133:1 137:1 141:1 152:1 170:1 180:2 185:1 193:1 195:1 227:1 #
0.095200670518103811 17:1 27:1 28:1 31:1 51:1 67:1 74:1 78:1 100:1 115:1 117:1 122:2 126:1 148:1 152:2 170:1 175:1 179:1 186:1 189:1 203:1 211:1 215:1 218:1 221:1 229:1 232:1 250:1 #
-0.095200670518103811 41:1 46:1 77:1 123:1 141:1 147:1 157:1 159:1 216:1 232:1 #
-0.095200670518103811 13:1 63:1 100:1 115:1 131:1 177:1 203:1 246:1 250:1 #
0.095200670518103811 8:1 26:1 30:1 57:1 89:1 96:1 152:1 182:2 205:1 224:1 #
-0.095200670518103811 1:1 27:1 31:2 51:1 110:1 113:1 133:1 144:1 152:1 169:1 170:1 199:1 200:1 213:1 224:1 226:1 233:1 245:1 #
0.095200670518103811 87:1 117:1 123:1 124:1 129:1 133:1 152:1 185:1 210:1 #
0.095200670518103811 46:1 86:1 97:1 133:2 140:1 152:1 157:1 187:1 216:1 223:1 #
-0.095200670518103811 30:1 44:1 51:1 57:1 67:1 86:1 91:1 99:1 133:1 149:1 200:1 #
0.095200670518103811 12:1 27:1 31:1 56:1 152:1 185:1 #
-0.095200670518103811 79:1 82:1 133:1 137:1 152:1 171:1 #
0.095200670518103811 15:1 28:1 57:1 96:1 115:1 133:1 155:1 226:1 #
-0.095200670518103811 121:1 151:1 167:1 #
-0.095200670518103811 114:1 133:2 142:2 144:1 149:1 152:2 155:1 171:1 186:1 212:1 213:1 232:1 241:1 #
-0.095200670518103811 36:1 67:1 96:1 126:1 133:2 224:1 245:1 #
0.095200670518103811 5:1 8:1 66:1 105:2 133:2 141:1 152:1 216:1 #
0.012740508013427682 8:1 46:1 65:1 133:1 152:1 164:1 178:1 200:1 216:1 225:1 #
-0.095200670518103811 8:1 115:1 149:1 246:1 #
-0.095200670518103811 46:1 115:1 149:1 152:1 205:1 246:1 #
0.03834982875968139 20:1 22:1 51:1 57:1 67:1 117:2 133:2 141:1 172:1 189:1 191:1 195:1 #
-0.095200670518103811 20:1 27:1 32:1 36:1 97:1 133:1 181:1 224:1 #
-0.095200670518103811 77:1 97:1 100:1 128:1 141:1 144:2 152:1 184:1 216:1 232:1 #
-0.095200670518103811 83:1 121:1 125:1 219:1 #
-0.095200670518103811 125:1 151:1 166:1 219:1 #
-0.095200670518103811 125:1 151:1 165:1 168:1 219:1 #
0.095200670518103811 21:1 74:1 131:1 133:1 152:1 169:1 175:1 185:1 217:1 #
0.095200670518103811 128:1 131:1 #
0.095200670518103811 20:1 23:1 27:1 30:1 31:1 33:1 36:1 49:1 66:1 96:1 112:1 117:1 131:1 155:1 167:1 169:1 196:1 200:1 223:1 241:1 #
0.095200670518103811 77:1 216:1 224:1 #
0.095200670518103811 74:1 106:1 152:1 177:1 #
0.095200670518103811 53:1 152:2 160:1 239:1 #
-0.095200670518103811 176:2 198:2 #
0.095200670518103811 128:1 153:1 157:1 #
0.095200670518103811 46:1 127:1 131:1 208:1 241:1 #
0.095200670518103811 9:1 64:1 110:1 133:1 152:1 160:1 163:1 169:1 177:1 233:1 #
-0.095200670518103811 8:1 46:1 68:1 85:1 110:1 144:2 152:1 199:1 205:1 213:1 216:2 232:1 #
-0.095200670518103811 27:1 129:1 138:1 152:1 179:1 223:1 224:1 247:1 #
0.049036676605792098 35:1 126:1 131:1 194:1 245:1 #
0.095200670518103811 79:1 115:2 122:1 140:1 152:1 155:1 216:1 227:1 231:1 235:1 #
-0.095200670518103811 66:1 100:1 111:1 123:1 128:1 152:1 182:1 200:1 205:1 212:1 #
-0.095200670518103811 90:1 110:1 193:1 #
-0.095200670518103811 32:1 56:1 160:1 #
0.095200670518103811 3:1 9:1 18:1 38:1 66:2 76:1 77:3 79:1 94:1 96:1 99:1 110:1 131:1 133:1 141:1 145:1 152:1 157:1 169:1 183:1 220:1 224:1 226:2 230:1 233:1 244:1 245:1 #
0.095200670518103811 9:1 20:1 71:2 79:1 100:1 102:1 130:1 131:2 140:1 141:1 145:1 152:2 157:1 169:1 177:1 185:1 189:1 222:1 #
0.095200670518103811 18:1 53:1 89:1 129:1 133:1 149:1 152:1 215:1 223:1 #
0.095200670518103811 16:1 27:1 43:1 132:1 133:1 245:1 #
0.095200670518103811 18:1 51:1 185:1 #
-0.095200670518103811 18:1 30:1 52:1 64:1 66:1 152:1 154:1 #
-0.040740410586332772 74:1 150:1 152:1 195:1 #
0.095200670518103811 10:1 46:1 157:1 184:1 216:1 #
-0.095200670518103811 14:1 216:1 #
-0.095200670518103811 52:1 100:1 221:1 #
0.095200670518103811 10:1 96:1 128:1 131:1 134:1 142:1 152:2 205:1 212:1 #
-0.095200670518103811 28:1 46:1 96:1 99:1 100:1 115:1 131:1 134:1 149:1 246:1 #
-0.095200670518103811 50:1 90:1 #
-0.095200670518103811 167:1 #
0.095200670518103811 20:1 108:1 133:1 144:2 152:3 155:1 #
0.095200670518103811 3:1 131:1 149:1 184:1 #
0.095200670518103811 8:1 31:1 59:1 65:1 67:1 81:1 96:1 98:1 106:1 107:1 110:2 113:1 123:1 132:1 139:1 141:1 148:1 153:1 169:1 170:1 178:1 220:1 245:1 #
-0.095200670518103811 207:1 #
0.095200670518103811 36:1 96:1 111:1 133:1 196:1 200:1 224:1 #
0.095200670518103811 30:1 36:1 66:1 85:1 110:1 169:1 223:1 233:1 #
0.095200670518103811 18:1 46:1 145:1 200:1 215:1 #
-0.095200670518103811 176:4 #
-0.095200670518103811 50:1 90:1 #
0.095200670518103811 30:1 57:1 129:1 131:1 149:1 156:1 160:2 169:1 203:1 233:1 234:1 #
0.095200670518103811 30:1 31:1 #
0.095200670518103811 10:1 96:1 132:1 134:1 145:1 189:1 191:1 194:1 212:1 245:1 #
0.095200670518103811 174:1 195:1 #
0.095200670518103811 120:1 131:1 152:1 157:1 171:1 184:1 #
0.095200670518103811 94:1 96:1 152:1 231:1 242:1 248:1 #
0.095200670518103811 20:1 30:1 46:1 77:1 96:1 111:1 114:1 129:1 152:1 182:1 206:1 216:1 223:1 224:1 246:1 #
-0.095200670518103811 80:1 152:1 #
-0.095200670518103811 80:1 133:1 143:1 147:1 152:1 #
0.095200670518103811 2:1 57:1 87:1 99:1 161:1 200:1 205:1 216:1 224:1 249:1 #
0.095200670518103811 31:1 77:1 85:1 99:1 128:1 131:1 144:2 188:1 218:1 221:1 #
0.095200670518103811 75:1 83:1 166:1 167:1 #
0.095200670518103811 176:3 #
0.095200670518103811 93:1 #
0.095200670518103811 61:2 96:1 123:1 #
-0.054059836204102603 7:2 8:1 12:1 28:1 29:1 31:3 33:1 34:1 56:1 61:1 65:1 98:1 102:1 112:4 113:1 114:1 131:2 133:2 138:1 141:4 145:1 152:2 155:1 160:1 163:1 169:2 209:2 214:1 235:3 250:2 #
-0.095200670518103811 20:3 22:1 28:2 54:1 57:1 63:1 110:1 116:1 117:2 131:1 152:2 156:1 157:1 160:1 169:2 216:1 218:2 233:1 243:1 #
-0.095200670518103811 131:1 152:1 169:1 185:1 205:1 245:1 #
-0.095200670518103811 152:1 #
0.095200670518103811 131:1 157:1 216:1 #
0.095200670518103811 168:1 #
-0.0060914467251877713 106:1 124:1 140:1 152:2 186:1 215:1 #
0.095200670518103811 46:1 66:1 169:1 214:1 216:1 #
0.095200670518103811 46:1 110:1 169:1 205:1 216:1 233:1 #
-0.095200670518103811 27:1 66:1 111:1 152:1 249:1 #
-0.095200670518103811 2:1 9:1 27:1 48:1 53:1 59:1 71:1 76:1 96:1 120:2 122:1 124:1 126:1 129:1 131:1 133:1 141:1 152:1 157:1 160:1 169:1 179:1 215:3 216:1 222:1 234:1 246:1 #
-0.095200670518103811 20:1 27:1 54:1 57:1 60:1 63:1 106:2 126:1 137:1 153:1 161:1 182:1 #
0.095200670518103811 130:1 132:1 207:1 211:1 #
-0.095200670518103811 10:1 28:1 32:1 36:1 46:1 51:1 67:1 77:4 103:1 117:1 131:1 133:1 137:1 141:1 146:1 149:1 152:1 174:1 185:1 191:1 216:1 218:1 228:1 231:1 234:1 242:1 #
0.095200670518103811 39:1 226:1 227:1 #
0.095200670518103811 30:1 #
0.026247860087582085 8:1 14:1 54:1 63:1 72:2 93:1 94:1 95:1 98:1 107:1 120:1 128:1 131:1 133:1 150:1 152:1 171:1 178:1 215:1 #
0.095200670518103811 53:1 241:1 #
-0.095200670518103811 12:2 53:1 57:1 66:1 96:1 98:1 113:1 122:1 136:1 152:3 155:1 200:1 234:1 250:1 #
-0.09499966698217846 20:1 45:1 85:1 110:1 123:1 126:1 131:1 152:1 155:1 169:1 192:1 205:1 211:1 227:1 249:2 #
0.019310416094394118 7:1 25:1 46:2 67:1 72:1 87:1 99:1 100:1 120:1 130:1 131:2 133:1 148:1 152:1 157:1 169:1 170:1 184:1 185:1 196:1 197:1 205:1 207:1 211:1 224:1 227:1 235:1 245:1 #
-0.095200670518103811 6:1 20:1 86:1 96:1 100:1 131:1 133:1 144:1 152:2 175:1 185:1 193:1 200:1 203:1 212:1 213:1 216:1 224:1 237:1 249:1 #
0.095200670518103811 46:1 127:1 131:1 149:1 208:1 #
0.095200670518103811 28:1 169:1 177:1 233:1 #
-0.095200670518103811 20:1 31:1 66:1 76:1 77:1 141:1 143:1 145:1 152:1 170:1 178:1 197:1 218:1 226:1 243:1 #
-0.095200670518103811 12:1 20:1 53:1 76:1 94:1 99:1 124:1 131:1 133:1 141:2 148:2 152:1 159:1 163:1 186:1 239:1 249:1 #
-0.095200670518103811 8:1 11:1 20:1 28:1 51:1 113:1 115:1 122:1 133:1 149:1 152:1 157:1 169:1 189:1 205:1 216:1 245:1 246:1 #
0.095200670518103811 66:1 96:1 133:1 #
-0.095200670518103811 23:1 27:1 133:1 153:1 169:1 170:1 197:1 211:1 #
-0.095200670518103811 8:1 23:1 67:1 152:1 157:1 171:1 172:1 213:1 219:1 226:1 #
-0.095200670518103811 5:1 15:1 20:1 66:1 117:1 133:1 152:2 202:1 213:1 216:1 #
-0.095200670518103811 5:1 12:1 24:1 25:1 60:1 66:1 69:1 77:1 92:1 96:1 145:1 146:1 152:2 155:1 169:1 172:2 227:2 242:1 245:1 #
0.095200670518103811 46:1 66:1 133:1 224:1 226:1 #
0.036368114402903474 18:1 46:1 145:1 200:1 215:1 216:1 #
0.095200670518103811 131:1 152:1 184:1 216:1 #
-0.068264362451044155 67:1 74:2 123:1 129:1 133:1 150:2 175:2 186:1 195:1 231:1 #
-0.095200670518103811 57:1 74:2 114:1 122:1 131:1 149:1 152:1 153:1 171:1 186:1 193:1 195:1 217:1 231:1 #
-0.095200670518103811 16:1 38:1 57:1 77:1 86:1 99:1 133:1 152:1 196:1 216:1 224:1 #
-0.095200670518103811 2:1 152:1 #
0.095200670518103811 125:1 151:1 165:1 219:1 #
-0.095200670518103811 24:1 66:1 126:2 131:1 146:1 152:1 185:1 205:1 215:1 #
-0.095200670518103811 26:1 130:1 131:1 141:1 146:1 152:2 157:1 170:1 184:1 215:1 216:1 245:1 #
0.095200670518103811 100:1 127:1 194:1 208:1 220:1 245:1 #
-0.095200670518103811 10:2 12:1 24:1 74:1 75:2 81:1 125:1 151:1 166:2 #
0.095200670518103811 10:1 157:1 184:1 216:1 #
-0.095200670518103811 28:1 81:1 96:1 152:1 160:1 235:1 #
0.095200670518103811 128:1 131:1 157:1 #
-0.095200670518103811 62:1 95:1 158:1 #
-0.095200670518103811 21:1 27:1 48:1 66:1 88:3 114:1 117:2 128:1 133:1 141:1 152:1 155:1 189:1 213:2 222:1 #
0.095200670518103811 75:2 166:1 #
-0.095200670518103811 46:1 77:2 216:1 #
-0.095200670518103811 11:1 157:1 185:1 #
-0.095200670518103811 131:1 153:1 159:1 #
0.095200670518103811 46:1 152:1 189:1 215:1 245:1 #
0.095200670518103811 78:1 157:1 216:1 #
-0.095200670518103811 25:1 28:1 30:1 128:1 131:1 152:1 155:1 185:1 211:1 224:1 226:1 245:1 #
-0.095200670518103811 28:1 79:1 131:1 160:1 177:1 184:1 185:1 195:1 209:1 241:1 250:1 #
-0.095200670518103811 126:1 141:1 142:1 152:2 160:1 232:1 #
-0.095200670518103811 131:1 185:1 205:1 222:1 234:1 #
-0.095200670518103811 31:1 77:1 80:1 112:1 124:1 142:1 152:2 169:1 205:1 217:1 235:1 250:1 #
-0.095200670518103811 1:1 67:1 70:1 77:1 87:1 100:2 141:1 157:1 170:1 171:1 184:2 201:1 203:1 216:2 234:1 #
0.095200670518103811 74:1 #
0.095200670518103811 44:1 93:1 #
-0.095200670518103811 66:1 81:1 96:1 #
-0.095200670518103811 20:1 66:1 115:1 149:1 169:1 246:1 #
-0.095200670518103811 20:1 59:1 60:1 63:1 157:1 #
0.095200670518103811 125:1 151:1 165:1 219:1 #
-0.095200670518103811 8:1 31:5 32:1 41:1 50:1 62:1 65:1 66:1 68:1 76:1 78:1 83:1 100:1 106:1 115:2 119:1 120:1 123:1 130:1 133:2 137:1 141:1 152:3 153:1 167:1 216:2 222:1 225:2 241:2 #
0.095200670518103811 57:2 77:1 234:1 249:1 #
0.0361437568440139 39:1 74:1 176:7 220:1 #
-0.095200670518103811 86:1 129:1 #
-0.095200670518103811 57:1 #
0.095200670518103811 30:1 41:1 42:1 48:1 56:1 71:1 74:1 77:1 84:2 94:2 104:1 110:1 112:1 117:1 124:1 126:1 128:1 131:2 133:2 137:1 141:2 144:1 147:1 150:1 152:3 170:1 171:1 178:1 185:1 195:1 201:1 213:1 218:1 233:1 #
0.067218801912558884 31:2 37:1 66:1 77:2 100:1 128:1 131:1 133:1 149:1 152:2 157:1 193:2 198:1 210:1 246:1 249:2 #
0.095200670518103811 1:1 8:1 31:1 68:1 77:2 85:1 92:1 100:1 108:1 110:1 112:1 124:1 126:1 131:1 132:1 133:1 152:2 169:1 170:2 185:1 189:1 215:1 224:1 245:1 #
0.095200670518103811 131:1 152:1 245:1 #
-0.095200670518103811 12:1 77:2 84:1 124:1 129:1 133:1 141:1 152:2 163:1 223:1 #
0.095200670518103811 8:1 62:1 66:1 114:1 129:1 137:1 174:1 195:1 #
-0.095200670518103811 30:1 77:1 121:1 128:1 131:1 169:1 185:1 #
-0.095200670518103811 3:1 95:1 131:1 152:1 185:1 #
0.095200670518103811 6:2 31:1 42:1 124:1 126:1 149:1 152:2 213:1 #
0.066521261789649885 5:1 12:1 31:1 45:1 100:1 110:2 128:1 130:2 131:1 133:2 141:1 160:1 169:1 200:1 204:1 218:1 224:1 226:1 233:1 245:1 250:1 #
0.095200670518103811 36:1 48:1 54:1 96:1 106:1 141:1 146:1 150:1 152:1 #
0.095200670518103811 20:1 58:1 129:1 131:1 137:1 142:1 144:1 160:1 185:1 #
0.095200670518103811 152:1 245:1 #
0.095200670518103811 4:3 12:1 79:1 82:1 100:1 106:1 117:1 131:1 133:1 217:2 227:2 228:1 231:1 235:1 #
0.095200670518103811 131:1 170:1 #
-0.046354156839842564 71:3 77:1 89:1 96:1 102:2 114:1 128:1 131:1 133:2 137:1 160:1 185:1 188:1 214:2 216:1 240:1 #
-0.095200670518103811 57:1 77:2 79:1 94:1 128:1 131:1 133:1 152:1 169:1 170:1 235:1 #
0.095200670518103811 15:1 53:1 116:1 134:1 169:1 179:1 #
0.095200670518103811 13:1 117:1 157:1 169:1 177:1 #
0.095200670518103811 71:1 87:1 116:2 124:1 169:2 221:1 241:1 245:1 #
0.095200670518103811 137:1 152:1 157:1 160:1 170:1 209:2 241:1 #
-0.095200670518103811 1:1 20:1 157:1 192:1 #
-0.095200670518103811 20:1 27:1 105:1 126:1 131:1 142:1 144:1 152:1 185:1 221:1 #
0.095200670518103811 26:1 83:1 87:1 115:1 122:1 124:1 132:1 152:1 206:1 212:1 #
0.046620073470299374 74:1 94:1 114:1 128:1 131:1 159:1 169:1 191:1 #
0.095200670518103811 3:1 12:1 54:1 77:2 249:1 #
0.095200670518103811 30:1 96:1 128:1 131:1 153:1 185:1 205:1 #
-0.095200670518103811 28:1 53:1 84:1 96:1 120:1 137:1 152:1 #
0.095200670518103811 76:1 126:1 128:1 131:1 145:1 169:1 192:1 #
-0.095200670518103811 28:1 100:1 148:1 195:1 227:1 240:1 #
0.095200670518103811 85:1 99:1 128:1 131:1 133:1 152:1 170:1 #
0.043255701718784255 79:1 96:2 100:2 128:1 131:1 133:1 141:1 184:1 216:1 222:1 #
-0.095200670518103811 152:1 157:1 160:1 169:1 170:1 205:1 216:1 245:1 #
0.095200670518103811 20:1 31:1 43:1 46:1 58:2 71:1 98:1 126:2 144:1 155:1 210:1 215:1 216:1 227:1 235:1 246:1 #
0.095200670518103811 181:1 224:1 245:1 #
-0.095200670518103811 20:1 66:1 115:1 149:1 169:1 246:1 #
0.095200670518103811 12:1 24:1 83:1 105:1 125:1 165:1 168:1 219:1 #
0.095200670518103811 65:1 96:1 124:1 160:1 #
0.095200670518103811 131:1 137:1 152:1 185:1 240:1 #
-0.095200670518103811 25:1 77:1 84:1 131:1 133:1 152:1 157:1 170:1 250:1 #
0.095200670518103811 86:1 144:1 152:1 169:1 209:1 245:1 #
0.095200670518103811 1:1 9:2 12:1 30:1 66:1 96:1 128:1 131:1 133:1 147:1 149:1 169:2 179:1 186:1 195:1 #
0.095200670518103811 40:1 77:1 116:1 133:1 155:1 172:1 180:1 186:1 195:1 197:1 203:1 226:1 228:1 234:1 247:1 #
0.095200670518103811 157:1 170:1 184:1 205:1 #
0.095200670518103811 57:1 76:2 122:1 141:1 #
0.095200670518103811 74:1 176:5 198:1 #
-0.095200670518103811 131:1 185:1 #
-0.095200670518103811 20:1 96:1 133:1 138:1 152:2 #
-0.095200670518103811 28:1 152:1 169:1 216:1 246:1 #
0.095200670518103811 48:1 88:1 133:1 149:1 151:1 157:1 160:1 213:1 #
-0.095200670518103811 51:1 131:1 152:1 184:1 195:1 #
0.085279713036732707 9:1 92:1 131:1 169:1 170:1 185:1 #
0.095200670518103811 84:1 141:1 177:1 205:1 207:1 215:1 218:1 #
-0.095200670518103811 20:1 66:1 111:1 137:1 153:1 185:1 #
0.095200670518103811 46:1 216:1 #
-0.095200670518103811 10:1 23:1 96:1 145:1 166:1 226:1 #
0.095200670518103811 118:1 172:1 250:1 #
0.095200670518103811 3:1 49:1 53:1 131:1 137:1 153:1 199:1 209:1 250:1 #
0.095200670518103811 80:2 114:1 133:1 177:1 245:1 #
0.095200670518103811 14:1 37:1 66:1 82:1 224:1 249:1 #
0.095200670518103811 8:1 62:1 66:1 114:1 129:1 137:1 174:1 195:1 #
0.095200670518103811 48:1 141:1 157:1 169:1 175:1 #
0.095200670518103811 25:1 46:1 54:2 74:1 76:1 121:1 130:1 152:1 160:1 169:1 170:2 173:1 224:1 226:1 227:1 240:1 #
0.095200670518103811 176:2 #
0.095200670518103811 74:1 79:1 128:1 131:2 137:1 140:1 152:2 #
0.095200670518103811 117:1 131:1 169:1 185:1 #
-0.095200670518103811 60:1 74:3 176:3 198:3 #
-0.095200670518103811 8:1 36:1 38:1 48:1 98:1 124:1 131:1 141:1 152:2 198:1 212:2 223:1 230:1 242:1 249:1 #
-0.095200670518103811 20:1 39:1 45:1 46:3 128:1 131:1 141:2 214:1 216:1 #
-0.095200670518103811 6:1 9:1 12:1 16:3 26:1 27:1 42:1 58:1 66:1 69:1 77:1 84:1 87:1 93:1 94:1 98:1 100:1 110:1 117:1 131:2 141:1 152:2 155:1 169:1 170:1 185:1 200:1 201:1 220:1 224:1 245:2 #
-0.095200670518103811 30:1 36:1 70:1 77:1 79:2 96:1 117:1 122:1 128:1 131:2 133:1 144:1 153:1 170:1 245:1 #
0.095200670518103811 8:1 26:1 77:1 89:1 91:1 106:1 115:1 152:3 160:1 246:1 249:1 #
0.07878452374115695 20:2 27:1 28:1 31:1 54:1 57:1 60:1 62:1 65:1 67:1 77:1 123:1 126:1 130:1 131:1 133:1 136:1 140:1 146:1 152:4 170:1 197:1 201:1 222:1 224:1 243:2 #
0.095200670518103811 20:1 27:1 115:1 152:1 160:1 216:1 246:1 #
-0.095200670518103811 55:1 176:1 #
-0.095200670518103811 9:1 10:1 28:1 34:1 36:1 46:1 51:1 56:1 67:1 77:1 106:1 122:1 129:1 132:1 133:1 136:1 140:2 141:1 146:2 149:1 152:6 169:1 171:1 220:2 240:1 245:1 #
0.095200670518103811 165:1 168:1 #
0.095200670518103811 46:1 84:1 216:1 #
0.095200670518103811 52:1 93:1 112:1 131:1 140:1 184:1 216:1 235:1 #
0.095200670518103811 77:1 83:1 111:1 121:1 125:1 151:1 167:1 #
-0.095200670518103811 6:1 17:2 20:1 24:1 51:1 116:1 129:1 149:1 152:1 155:1 160:2 186:1 #
-0.095200670518103811 4:1 20:1 28:1 66:1 74:1 78:2 79:1 96:2 99:1 100:1 106:1 115:1 117:1 122:1 126:1 130:1 131:1 132:1 133:1 140:1 152:1 170:1 189:1 216:1 220:1 229:1 245:1 246:1 #
-0.095200670518103811 67:1 131:1 191:1 207:1 210:1 214:1 222:1 #
-0.095200670518103811 46:1 98:1 99:1 133:1 157:1 216:2 224:1 #
-0.095200670518103811 17:1 20:1 31:1 43:1 48:1 50:1 60:1 66:1 77:1 87:1 88:1 96:2 107:1 114:1 122:2 126:1 129:1 133:2 140:1 141:1 152:1 155:1 156:1 171:1 178:1 216:1 217:1 221:1 222:1 #
0.095200670518103811 31:1 66:1 133:1 152:1 241:1 #
0.095200670518103811 5:1 9:1 31:1 48:1 56:1 63:1 66:1 123:1 131:1 133:1 146:1 149:1 152:2 153:1 169:1 203:1 218:1 234:1 241:1 244:1 #
0.095200670518103811 28:1 85:1 96:1 99:1 169:1 #
0.095200670518103811 28:1 46:1 58:1 112:1 152:1 235:1 #
-0.095200670518103811 9:1 28:1 30:2 31:1 66:1 77:1 110:1 121:1 130:1 131:1 133:1 144:1 152:1 157:2 160:1 171:1 184:1 233:1 #
0.095200670518103811 57:1 76:1 96:1 122:1 152:1 161:1 163:1 181:1 224:1 #
-0.095200670518103811 18:1 110:2 152:1 169:1 233:2 #
-0.095200670518103811 30:1 66:1 133:2 152:1 163:2 178:1 #
-0.095200670518103811 8:1 12:1 18:1 21:2 30:1 31:1 56:1 64:1 66:2 74:1 82:1 92:1 94:2 96:1 99:1 106:2 128:1 133:3 149:1 152:1 169:1 192:1 250:2 #
0.095200670518103811 20:1 23:1 31:1 32:2 57:1 69:2 96:1 121:1 122:2 144:1 152:2 169:1 171:1 192:1 213:1 238:1 #
0.095200670518103811 8:1 31:1 39:1 53:2 68:1 69:1 77:3 81:1 91:1 94:2 97:2 108:1 133:1 140:1 141:2 142:2 152:3 160:1 171:1 179:1 189:1 222:1 239:1 250:1 #
-0.095200670518103811 46:1 89:1 131:1 #
-0.095200670518103811 31:1 32:1 50:1 53:1 56:1 94:1 99:1 106:1 131:1 133:1 134:1 140:2 147:1 151:2 152:4 169:2 170:1 182:1 189:4 216:1 245:1 #
0.095200670518103811 30:1 39:1 166:1 #
0.095200670518103811 28:1 96:1 169:1 #
-0.095200670518103811 3:1 57:1 78:1 197:1 200:1 224:1 #
-0.095200670518103811 51:1 149:1 224:1 #
-0.095200670518103811 31:1 36:1 124:1 209:1 #
-0.095200670518103811 40:1 58:1 #
0.095200670518103811 106:1 133:1 152:1 160:1 169:1 190:1 220:1 #
0.095200670518103811 30:1 57:1 63:1 66:1 123:1 133:1 141:1 152:2 191:1 #
-0.095200670518103811 12:1 56:1 250:1 #
-0.095200670518103811 12:1 92:1 124:1 149:1 #
-0.095200670518103811 131:1 184:1 #
-0.095200670518103811 46:1 77:1 152:1 205:1 213:1 216:1 #
0.095200670518103811 20:1 66:1 76:1 149:1 152:1 218:1 #
0.095200670518103811 131:1 185:1 #
0.095200670518103811 66:1 89:1 213:1 #
0.095200670518103811 55:1 75:1 83:1 166:1 #
-0.095200670518103811 5:1 8:1 31:1 51:1 56:1 61:1 66:2 74:1 77:1 78:1 91:1 92:1 96:2 98:1 104:1 108:1 118:1 131:2 132:1 133:2 136:1 142:1 144:1 146:2 152:2 155:1 171:1 190:1 191:1 195:3 200:1 201:2 211:1 222:1 238:1 241:1 243:1 #
-0.095200670518103811 9:1 19:1 64:1 90:1 115:1 121:1 140:1 152:1 164:1 169:1 #
-0.095200670518103811 57:1 141:1 #
-0.095200670518103811 26:1 37:1 57:1 87:1 97:1 99:1 131:1 137:1 141:1 152:1 160:1 184:1 185:1 205:1 #
0.095200670518103811 6:2 31:1 42:1 124:1 126:1 149:1 152:2 213:1 #
-0.095200670518103811 41:1 82:1 98:1 116:1 141:1 152:3 160:1 213:2 #
-0.095200670518103811 131:1 #
0.095200670518103811 152:1 206:1 #
-0.095200670518103811 28:2 31:1 57:1 58:1 70:1 79:1 96:1 100:1 109:3 116:1 136:1 141:1 144:1 152:3 183:1 200:1 226:1 248:1 #
0.095200670518103811 12:1 115:1 216:1 231:1 240:1 #
0.095200670518103811 12:1 39:1 125:1 151:1 166:1 167:1 219:1 #
-0.095200670518103811 6:1 51:1 66:1 73:1 103:1 129:1 133:1 #
-0.095200670518103811 53:2 62:1 66:1 94:1 99:2 100:1 133:1 141:1 152:3 169:1 192:1 205:1 222:1 239:1 244:1 248:1 #
-0.095200670518103811 12:1 30:2 31:1 32:1 37:1 44:1 96:1 99:1 106:1 108:1 115:1 117:1 134:1 139:1 140:1 144:1 147:1 152:1 160:1 171:1 209:1 216:1 218:1 223:1 224:1 245:1 250:1 #
0.095200670518103811 71:1 98:3 106:1 128:1 131:1 133:1 137:1 152:1 160:1 216:1 241:1 #
0.095200670518103811 152:1 225:1 241:1 #
0.095200670518103811 28:1 56:1 134:1 138:1 142:1 144:1 152:1 156:1 185:1 200:1 213:1 224:1 232:1 #
0.095200670518103811 45:1 51:1 120:1 131:1 #
-0.095200670518103811 41:1 46:1 77:1 123:1 141:1 147:1 157:1 159:1 216:1 232:1 #
-0.095200670518103811 121:1 167:1 #
-0.095200670518103811 15:1 67:1 93:1 141:1 225:1 232:1 #
0.095200670518103811 12:1 #
0.095200670518103811 9:1 55:1 115:1 122:1 160:1 169:1 #
-0.095200670518103811 3:1 28:1 53:1 91:1 122:1 131:1 141:1 144:1 152:1 157:1 169:1 179:1 232:1 #
-0.095200670518103811 31:1 51:1 57:1 106:1 128:1 131:1 152:2 171:1 200:1 #
0.095200670518103811 10:1 31:1 99:1 130:1 #
0.095200670518103811 30:1 51:1 76:1 121:1 133:1 154:1 169:1 195:1 218:1 #
0.095200670518103811 28:1 32:1 67:1 92:1 96:1 99:1 126:1 143:1 152:1 #
-0.095200670518103811 4:1 34:1 115:1 131:1 133:2 149:1 195:1 227:1 246:1 #
-0.095200670518103811 20:1 60:2 133:2 137:1 188:1 216:1 224:1 #
-0.095200670518103811 18:1 52:1 #
-0.095200670518103811 9:1 76:1 93:1 117:1 152:1 155:1 169:1 186:1 #
-0.095200670518103811 10:1 11:1 47:1 51:1 54:1 66:1 67:1 103:1 128:1 131:1 152:2 169:1 189:1 201:1 #
-0.095200670518103811 131:1 177:1 184:1 #
0.095200670518103811 8:1 31:1 51:1 67:1 77:1 79:1 111:1 118:1 123:1 139:1 141:2 152:1 160:1 161:1 171:1 205:1 230:1 #
0.095200670518103811 25:1 31:1 78:1 120:1 141:1 152:1 157:1 172:1 222:1 247:1 #
0.095200670518103811 28:1 30:1 57:2 77:3 88:1 126:1 129:1 141:2 144:1 152:1 182:1 205:1 213:1 224:1 #
0.095200670518103811 66:1 137:1 152:2 #
-0.095200670518103811 30:2 32:1 42:1 66:1 77:1 88:1 93:1 96:1 117:1 124:1 131:1 141:2 145:1 152:1 160:1 182:1 183:1 200:1 213:1 221:1 224:1 230:1 #
0.075179650632392861 11:1 115:1 #
0.095200670518103811 11:1 53:1 67:1 110:1 123:1 126:1 169:2 #
-0.095200670518103811 9:1 31:1 66:1 99:1 110:1 130:1 131:1 134:1 141:1 145:1 152:1 169:1 205:1 206:1 220:1 231:1 245:1 #
-0.095200670518103811 46:1 115:1 149:1 152:1 205:1 246:1 #
-0.095200670518103811 133:1 136:1 149:1 152:2 170:1 216:1 #
-0.049354743961585595 9:2 39:1 66:1 87:1 103:1 123:1 141:1 169:2 233:1 #
-0.095200670518103811 6:1 #
0.095200670518103811 46:1 133:1 152:1 169:1 216:1 231:1 250:1 #
0.095200670518103811 10:1 160:1 #
-0.03515586799909258 20:1 26:1 57:1 87:1 157:1 214:1 #
-0.095200670518103811 111:1 133:1 141:1 161:1 212:2 216:1 224:1 #
-0.025182056677413578 6:1 8:1 16:1 45:1 57:1 68:1 96:1 111:2 131:1 144:1 152:1 170:1 178:1 182:1 185:1 199:1 224:1 232:1 #
0.095200670518103811 8:1 37:1 41:1 46:1 51:1 62:1 69:1 81:1 124:1 126:1 128:1 131:1 133:1 134:1 136:1 139:1 141:1 142:1 144:1 146:1 152:3 169:1 179:1 187:1 193:1 195:1 212:1 216:1 222:1 224:1 249:1 #
0.095200670518103811 64:1 99:1 133:1 152:3 213:1 #
-0.095200670518103811 20:1 31:1 36:1 39:1 46:1 69:1 133:1 146:1 152:1 167:2 169:1 196:1 205:1 225:1 241:2 245:2 #
-0.095200670518103811 99:1 122:1 126:1 132:1 133:1 141:1 152:1 213:1 224:1 241:1 #
-0.095200670518103811 98:1 217:1 #
-0.095200670518103811 66:1 71:1 138:1 140:1 #
-0.095200670518103811 66:1 131:1 215:1 #
0.095200670518103811 20:1 51:1 85:1 97:1 107:1 108:1 115:1 117:1 152:3 162:1 169:1 205:1 245:1 #
-0.095200670518103811 30:1 75:2 85:1 108:1 110:1 152:1 159:1 166:2 169:1 233:1 #
-0.095200670518103811 51:1 64:1 108:1 144:1 152:1 160:1 215:1 249:1 #
0.095200670518103811 31:1 77:1 179:1 241:1 #
0.095200670518103811 30:1 31:1 71:1 121:1 141:1 152:1 169:1 241:1 #
-0.095200670518103811 31:1 71:1 #
0.095200670518103811 46:1 62:1 #
-0.095200670518103811 12:1 22:1 123:1 #
-0.095200670518103811 6:1 #
0.095200670518103811 94:1 97:1 113:1 136:1 142:1 152:2 169:1 #
-0.095200670518103811 125:1 151:1 165:1 168:1 219:1 #
-0.095200670518103811 75:1 83:1 125:1 151:1 167:1 198:1 219:1 #
-0.095200670518103811 85:1 134:1 152:1 169:2 195:1 203:1 216:1 #
-0.095200670518103811 55:1 176:2 #
-0.095200670518103811 26:1 66:2 87:1 96:1 137:1 141:1 152:1 205:1 249:1 #
0.095200670518103811 81:1 96:1 106:1 152:1 #
-0.095200670518103811 84:1 152:1 171:1 #
-0.060001552275339209 42:1 48:1 94:2 97:1 100:1 142:1 152:1 218:1 223:1 #
0.095200670518103811 137:1 152:1 160:1 #
-0.095200670518103811 176:4 #
0.095200670518103811 94:1 96:1 152:1 231:1 242:1 248:1 #
-0.095200670518103811 28:1 96:1 137:1 152:1 246:1 #
-0.095200670518103811 27:1 28:1 96:1 128:1 194:1 #
-0.095200670518103811 71:1 131:1 137:1 152:1 189:1 221:1 224:1 245:1 #
-0.095200670518103811 72:1 99:1 128:1 137:1 152:1 157:1 194:1 216:1 #
0.095200670518103811 176:2 #
-0.095200670518103811 150:1 176:3 198:1 #
-0.095200670518103811 74:1 176:2 198:1 #
0.095200670518103811 84:1 95:1 #
0.095200670518103811 28:1 46:1 58:1 112:1 152:1 235:1 #
0.095200670518103811 66:1 77:1 133:1 142:1 152:1 160:1 169:1 236:1 #
-0.095200670518103811 129:1 152:1 160:1 185:1 #
-0.095200670518103811 46:1 115:1 192:1 #
-0.095200670518103811 77:1 147:1 152:1 192:1 200:1 216:1 224:1 226:1 245:1 #
-0.095200670518103811 84:1 152:1 171:1 #
-0.095200670518103811 80:1 152:1 #
0.095200670518103811 176:2 #
0.095200670518103811 63:1 131:1 152:1 #
0.095200670518103811 66:1 115:1 149:1 169:1 214:1 246:1 #
-0.095200670518103811 25:1 39:2 66:1 117:1 126:1 131:1 136:1 153:1 157:1 160:1 #
-0.095200670518103811 27:1 108:1 133:1 145:1 225:1 232:1 #
-0.095200670518103811 54:1 69:1 164:1 169:1 170:1 #
0.095200670518103811 20:1 53:1 152:4 171:1 197:1 205:1 #
-0.024359110825624971 53:2 96:1 98:1 105:1 126:1 131:1 134:1 136:1 152:3 217:1 239:1 #
-0.095200670518103811 5:1 12:1 37:1 44:1 121:1 128:1 131:1 137:1 144:1 152:2 169:1 199:1 205:1 213:1 #
-0.095200670518103811 53:2 96:1 136:1 152:2 170:1 205:1 216:1 239:2 #
0.095200670518103811 31:2 63:1 67:1 77:1 110:1 126:1 131:1 133:1 141:2 144:1 152:1 153:1 174:1 186:2 194:1 216:1 218:1 225:1 232:1 245:1 #
-0.095200670518103811 25:1 77:1 131:1 133:1 149:1 152:1 156:1 185:1 211:1 #
-0.095200670518103811 31:1 141:1 152:3 189:1 222:1 250:1 #
-0.095200670518103811 66:1 77:1 141:1 152:1 #
0.095200670518103811 157:1 169:1 #
-0.095200670518103811 133:1 209:1 250:1 #
-0.095200670518103811 153:1 157:1 #
-0.095200670518103811 20:1 51:1 94:1 97:1 117:1 118:1 142:1 144:1 205:1 213:1 215:1 #
0.037506306177304834 39:1 53:2 66:1 77:1 81:1 108:1 122:1 124:1 137:1 138:1 152:2 163:1 171:1 193:3 205:1 216:1 #
0.095200670518103811 12:1 125:1 149:1 219:1 #
0.095200670518103811 66:1 89:1 213:1 #
-0.095200670518103811 83:1 158:1 165:1 168:2 #
0.095200670518103811 189:1 207:1 #
0.095200670518103811 18:1 51:1 185:1 #
0.095200670518103811 86:1 209:1 250:1 #
-0.095200670518103811 14:1 160:1 200:2 222:1 226:1 227:1 #
-0.095200670518103811 51:1 77:1 79:1 111:1 152:1 163:1 205:1 209:1 226:1 #
0.095200670518103811 20:1 27:1 28:2 39:1 48:1 53:1 115:1 128:1 131:1 141:1 152:1 157:1 174:1 239:1 #
-0.095200670518103811 31:1 53:1 57:1 82:1 94:1 95:1 98:1 131:2 132:1 133:1 152:2 158:1 186:1 189:1 #
0.095200670518103811 75:1 120:1 140:1 166:1 #
0.095200670518103811 100:1 #
-0.095200670518103811 27:1 66:1 224:1 #
-0.095200670518103811 15:1 67:1 151:1 #
-0.095200670518103811 36:1 115:1 152:1 #
-0.095200670518103811 39:1 151:1 #
-0.095200670518103811 34:1 131:1 184:1 #
-0.095200670518103811 31:1 66:1 128:1 131:1 152:1 157:1 189:1 #
-0.095200670518103811 11:1 28:1 30:1 128:1 131:1 152:1 205:1 #
0.095200670518103811 25:1 145:1 #
0.095200670518103811 24:1 168:1 #
-0.095200670518103811 75:1 166:1 #
0.095200670518103811 72:1 97:1 106:1 108:1 122:1 133:1 137:1 152:2 #
0.095200670518103811 128:1 136:1 157:1 #
-0.095200670518103811 20:1 131:1 152:1 209:1 250:1 #
-0.095200670518103811 85:1 137:1 152:1 218:1 224:1 245:1 #
-0.095200670518103811 9:1 85:1 99:1 152:1 169:1 200:1 209:1 250:1 #
0.095200670518103811 75:1 166:1 167:1 #
0.095200670518103811 157:1 169:1 #
0.095200670518103811 75:1 125:1 166:1 219:1 #
-0.095200670518103811 75:1 166:1 #
0.029656896514927672 11:1 47:1 58:1 131:1 157:1 #
0.095200670518103811 100:1 #
-0.095200670518103811 125:1 165:1 166:1 167:1 168:1 219:1 #
0.095200670518103811 89:1 101:1 133:1 152:1 225:1 245:1 #
0.095200670518103811 27:1 137:1 152:1 188:1 216:1 #
0.095200670518103811 32:1 152:1 220:1 #
0.095200670518103811 30:1 39:1 51:1 66:1 80:1 121:1 126:1 133:1 153:1 169:1 180:1 195:1 209:1 241:1 249:1 #
0.095200670518103811 75:1 125:1 166:1 219:1 #
0.071861841961967668 165:1 168:1 #
0.095200670518103811 75:1 166:1 167:1 #
0.095200670518103811 20:1 49:1 216:1 #
0.095200670518103811 20:1 #
-0.011404126176177309 51:1 84:1 133:1 147:1 152:1 177:1 178:1 192:1 #
0.095200670518103811 27:1 48:1 97:1 99:1 131:1 137:1 152:1 171:1 184:1 #
0.095200670518103811 99:1 115:1 133:1 152:1 250:1 #
0.095200670518103811 77:1 85:1 152:1 250:1 #
0.095200670518103811 20:1 133:1 190:1 222:1 #
-0.00048114713141538326 214:1 #
0.095200670518103811 15:1 28:1 57:1 96:1 115:1 133:1 155:1 226:1 #
0.083591957646224929 67:1 69:1 91:1 106:1 123:1 142:2 144:1 203:1 213:1 216:1 234:1 #
0.095200670518103811 115:1 206:1 225:1 #
0.095200670518103811 56:1 66:1 115:1 128:1 152:1 #
0.095200670518103811 66:1 133:1 143:1 218:1 226:1 245:1 #
0.095200670518103811 100:1 131:1 157:1 185:1 #
0.095200670518103811 8:1 44:1 63:1 76:1 121:1 133:1 145:1 155:1 200:1 #
0.095200670518103811 131:1 157:2 216:1 #
-0.095200670518103811 131:1 #
-0.095200670518103811 20:2 28:1 31:1 65:1 93:1 95:1 100:1 106:1 122:1 133:1 141:1 149:1 169:2 195:1 220:1 229:1 245:1 #
-0.095200670518103811 75:4 76:2 125:2 166:2 219:2 227:2 #
-0.0072798734139091475 26:1 36:1 56:1 67:1 87:1 118:1 152:2 #
-0.095200670518103811 22:1 30:1 32:1 39:1 63:1 66:1 70:1 77:2 94:1 106:1 110:1 120:1 121:1 126:1 134:1 137:1 139:1 141:1 142:1 152:1 171:1 185:1 193:1 222:1 247:1 #
-0.095200670518103811 140:1 152:1 160:1 #
-0.095200670518103811 98:1 126:1 #
-0.095200670518103811 46:1 222:1 #
0.095200670518103811 31:1 45:1 117:1 129:1 152:1 #
0.05918079484465312 131:1 207:1 #
-0.095200670518103811 37:1 129:1 223:1 #
0.095200670518103811 110:1 152:1 169:1 170:1 181:1 205:1 224:1 233:1 #
0.095200670518103811 30:1 83:1 121:1 125:1 151:4 166:1 198:1 219:1 #
0.095200670518103811 74:1 176:2 198:2 #
-0.095200670518103811 5:1 12:1 24:1 25:1 60:1 66:1 69:1 77:1 92:1 96:1 145:1 146:1 152:2 155:1 169:1 172:2 227:2 242:1 245:1 #
-0.095200670518103811 3:1 12:1 59:1 115:1 218:1 233:1 235:1 #
-0.095200670518103811 20:1 106:1 115:1 216:1 246:1 #
-0.095200670518103811 32:1 68:1 128:1 131:1 144:1 169:1 221:1 225:1 234:1 241:1 #
0.095200670518103811 26:1 27:1 44:1 51:2 53:1 64:1 66:1 82:1 87:1 92:1 99:1 124:1 137:1 140:1 141:1 152:4 170:1 193:1 195:2 223:1 #
0.095200670518103811 21:1 22:1 31:2 46:1 48:1 49:1 77:2 106:1 117:3 123:1 129:1 131:1 133:1 134:1 139:1 140:1 147:1 149:1 152:1 155:1 160:1 169:1 171:1 187:1 237:1 240:1 #
-0.095200670518103811 131:1 157:1 208:1 #
0.095200670518103811 84:1 104:1 187:1 226:1 #
0.095200670518103811 60:1 74:1 198:1 #
-0.095200670518103811 49:1 53:1 77:1 205:1 216:1 #
-0.095200670518103811 84:1 86:1 129:1 133:1 137:1 #
0.095200670518103811 140:1 142:1 209:1 250:1 #
0.095200670518103811 36:1 51:1 74:1 93:1 118:1 131:1 152:1 250:1 #
-0.068282475825675523 27:1 74:1 77:1 108:1 144:1 152:1 175:1 241:1 249:1 #
0.095200670518103811 33:1 179:1 #
-0.095200670518103811 46:1 133:1 197:1 216:2 #
-0.095200670518103811 30:1 131:1 141:1 145:1 185:1 205:1 #
-0.095200670518103811 30:1 66:1 131:1 132:1 185:1 #
0.095200670518103811 9:1 58:1 93:1 106:1 110:1 117:1 152:1 163:1 169:1 178:1 #
0.048018983987678086 3:1 46:1 54:1 66:1 111:1 122:1 129:1 131:2 141:1 152:2 155:1 156:1 164:1 169:1 206:1 220:1 223:1 227:1 229:1 245:2 #
0.095200670518103811 53:1 66:2 100:1 133:1 152:1 157:1 164:1 169:1 214:1 #
-0.095200670518103811 30:1 36:1 51:1 77:1 96:1 117:1 152:1 154:1 174:1 195:1 #
0.095200670518103811 83:1 151:1 #
0.095200670518103811 30:1 46:1 216:1 #
0.095200670518103811 55:1 57:1 160:1 217:1 226:1 #
0.095200670518103811 36:1 46:1 95:1 126:1 133:1 149:1 160:1 #
-0.095200670518103811 2:1 5:1 20:1 23:1 31:1 53:1 57:1 66:1 115:1 160:2 215:1 239:1 250:1 #
-0.095200670518103811 2:1 115:1 133:1 142:1 213:1 246:1 250:1 #
-0.095200670518103811 3:1 12:1 59:1 115:1 218:1 233:1 235:1 #
0.095200670518103811 8:2 20:1 39:1 42:1 46:1 59:1 66:1 68:1 85:1 87:1 99:1 108:1 112:1 120:1 126:3 128:1 130:1 131:1 132:1 133:1 141:2 144:2 146:1 147:1 152:4 155:2 160:2 169:1 186:1 189:1 192:1 202:1 207:1 218:1 222:1 224:2 233:1 234:1 #
-0.095200670518103811 20:1 81:1 94:1 101:1 111:1 121:1 127:1 131:1 136:1 142:1 144:1 147:1 152:2 169:1 205:1 208:1 #
-0.095200670518103811 223:1 #
0.095200670518103811 18:1 71:1 137:1 160:1 #
0.095200670518103811 22:1 28:1 50:1 82:1 92:1 98:1 133:1 146:1 152:1 159:1 201:1 217:1 234:1 #
-0.095200670518103811 7:1 129:1 131:1 141:1 213:1 223:1 233:1 241:1 #
0.095200670518103811 10:1 25:1 31:1 51:1 66:1 77:1 82:1 94:1 99:1 110:1 111:1 117:1 121:1 131:1 133:1 136:1 152:2 185:1 241:1 #
-0.095200670518103811 10:1 31:1 99:1 133:1 140:1 152:1 170:1 197:1 #
-0.095200670518103811 28:2 43:1 48:1 80:1 96:1 115:1 117:1 133:2 136:1 149:1 152:1 246:1 #
0.095200670518103811 78:1 129:1 #
0.095200670518103811 151:1 165:1 226:1 #
-0.095200670518103811 151:2 168:1 #
-0.095200670518103811 27:1 66:1 224:1 #
-0.095200670518103811 66:1 131:1 215:1 #
-0.095200670518103811 30:1 66:1 131:1 132:1 185:1 #
-0.095200670518103811 3:1 97:1 153:1 157:1 160:1 184:1 185:1 241:1 #
0.095200670518103811 12:1 27:1 28:1 117:1 133:1 137:1 152:1 209:1 250:1 #
-0.095200670518103811 27:1 31:1 56:1 74:1 78:1 92:1 110:1 134:1 144:1 148:1 150:1 152:2 155:1 163:1 169:1 175:1 179:1 186:1 193:1 203:1 217:1 220:1 234:2 241:1 245:1 #
0.095200670518103811 9:1 64:1 110:1 133:1 152:1 160:1 163:1 169:1 177:1 233:1 #
0.095200670518103811 48:1 95:1 120:1 131:1 152:1 158:1 237:1 #
-0.095200670518103811 51:1 82:1 84:1 85:1 114:1 124:1 133:1 137:1 141:1 145:1 152:1 170:1 195:1 202:1 #
-0.087383409901492404 8:1 9:1 22:1 28:1 31:2 46:1 51:1 58:1 66:1 71:1 77:2 96:1 110:1 117:1 123:2 131:1 133:1 153:1 169:1 185:1 211:1 214:1 232:1 241:1 #
-0.095200670518103811 111:1 128:1 129:1 131:1 133:1 152:1 170:1 223:1 #
-0.025849781031278975 36:2 41:1 50:2 51:2 54:2 57:1 81:1 89:1 92:2 96:1 120:2 126:1 133:1 141:2 143:1 146:1 152:2 154:1 162:2 193:2 222:1 223:2 249:2 #
0.095200670518103811 66:1 133:1 226:1 #
0.095200670518103811 60:1 198:1 #
-0.095200670518103811 9:1 46:1 152:1 169:1 205:1 216:1 224:1 245:1 #
-0.095200670518103811 8:1 24:1 69:1 105:1 124:1 126:1 152:1 #
-0.095200670518103811 124:1 152:1 160:1 205:1 250:1 #
-0.095200670518103811 117:1 163:1 212:1 #
-0.095200670518103811 159:1 #
0.095200670518103811 31:2 39:1 43:1 77:1 78:1 92:1 110:2 117:1 126:1 128:1 131:1 132:1 133:1 141:1 143:1 144:1 169:1 170:1 #
0.095200670518103811 14:1 20:1 36:1 38:1 122:1 123:1 126:1 152:1 162:1 #
0.095200670518103811 46:1 51:1 133:1 137:1 152:1 154:1 195:1 #
0.095200670518103811 18:1 36:1 46:1 133:1 155:1 216:1 #
-0.095200670518103811 99:1 133:1 152:1 170:1 #
-0.095200670518103811 31:1 66:1 128:1 131:1 152:1 157:1 189:1 #
-0.095200670518103811 20:1 25:1 53:3 62:1 78:1 96:1 98:1 102:1 128:1 133:1 140:1 152:4 194:1 217:1 222:1 #
0.067078707239567464 5:1 28:1 31:1 36:1 57:1 58:1 104:1 117:1 128:1 129:1 131:1 141:1 152:1 153:1 186:1 223:1 #
0.095200670518103811 37:1 66:1 92:1 120:1 133:1 152:1 160:1 245:1 #
-0.042726935538517766 8:1 20:1 28:1 141:1 152:1 169:1 188:1 193:1 213:1 217:1 223:1 224:1 #
0.095200670518103811 11:1 #
