SVM-light Version V6.02
0 # kernel type
3 # kernel parameter -d 
1 # kernel parameter -g 
1 # kernel parameter -s 
1 # kernel parameter -r 
empty# kernel parameter -u 
200 # highest feature index 
2955 # number of training documents 
1052 # number of support vectors plus 1 
-0.14045228 # threshold b, each following line is a SV (starting with alpha*y)
-0.098831950609668234 44:1 59:1 155:1 157:1 183:1 #
-0.098831950609668234 33:1 117:1 138:1 #
-0.098831950609668234 14:1 40:1 118:1 154:1 #
-0.098831950609668234 49:1 90:1 100:1 103:1 118:1 #
-0.098831950609668234 18:1 93:1 109:1 #
0.026818205476490033 30:1 39:1 96:1 98:1 103:1 146:1 #
0.098831950609668234 36:1 49:1 139:1 169:1 171:1 #
0.073846826381525218 80:1 97:1 112:1 118:2 133:1 140:1 144:1 174:1 #
0.098831950609668234 119:1 171:1 #
0.098831950609668234 23:1 103:1 118:1 171:1 #
-0.098831950609668234 16:1 33:1 35:1 36:3 96:1 98:1 107:2 138:1 169:1 171:1 179:1 190:2 #
-0.098831950609668234 7:2 32:1 36:2 42:1 49:1 52:1 58:1 60:1 69:1 71:1 73:1 76:1 80:1 86:1 98:4 100:2 103:1 107:1 115:1 118:1 139:1 149:1 151:1 161:2 177:1 181:1 185:1 192:2 198:1 #
-0.098831950609668234 70:1 78:1 158:1 167:1 #
-0.098831950609668234 36:1 44:1 129:1 131:1 147:1 157:1 171:1 176:1 183:1 #
0.098831950609668234 26:1 44:1 47:1 49:1 93:1 100:1 107:1 118:2 152:1 #
0.098831950609668234 98:1 157:1 #
-0.098831950609668234 198:1 #
0.098831950609668234 11:1 12:1 22:1 24:2 27:2 33:1 43:1 51:1 87:1 92:1 93:1 97:1 100:1 101:1 106:1 107:3 111:1 118:6 121:1 138:1 150:1 153:1 155:1 156:1 167:1 171:1 172:1 178:1 189:1 191:1 #
0.08446285599962837 16:1 18:1 27:1 29:1 32:2 37:1 42:1 65:1 94:3 97:1 100:3 105:1 114:2 118:2 121:1 126:1 129:1 140:1 155:1 168:1 170:1 178:1 180:1 181:1 182:1 191:1 #
0.098831950609668234 106:1 126:1 #
-0.098831950609668234 126:1 194:1 #
-0.098831950609668234 169:1 #
-0.098831950609668234 40:1 120:1 #
-0.098831950609668234 26:1 85:1 93:1 118:1 178:1 #
-0.068281977967321439 9:2 12:3 16:1 21:1 24:1 27:2 32:1 36:1 40:6 46:1 55:3 57:3 68:1 69:1 70:1 71:3 75:1 76:1 79:1 84:2 87:1 92:4 95:1 97:4 98:2 100:1 107:1 108:2 112:2 116:4 118:10 127:1 134:3 138:1 140:2 151:4 158:3 159:1 165:1 172:1 179:3 181:1 187:1 192:1 198:1 #
-0.098831950609668234 169:1 #
0.098831950609668234 105:1 124:1 149:1 164:1 #
0.098831950609668234 7:1 40:1 69:1 95:1 98:1 100:1 127:3 178:1 192:1 199:1 200:2 #
0.098831950609668234 50:1 79:1 82:1 91:1 98:1 100:1 104:2 109:1 123:1 163:1 177:1 #
-0.098831950609668234 16:1 58:2 82:1 123:1 140:1 164:1 171:1 173:1 183:1 #
-0.098831950609668234 16:1 27:1 49:1 57:1 58:1 107:1 111:1 113:1 118:1 140:1 144:1 155:1 174:1 185:1 197:1 #
-0.098831950609668234 6:1 9:1 27:1 49:2 53:1 63:1 75:1 98:1 107:1 112:1 118:1 127:1 149:1 163:1 170:2 178:1 195:1 #
-0.030778430781050303 12:1 26:2 49:1 55:1 99:1 103:1 110:1 115:1 198:1 #
-0.098831950609668234 24:1 27:1 49:1 50:2 58:1 73:1 75:2 83:2 84:1 100:1 107:1 114:1 140:3 #
0.0012658109167614524 6:1 12:2 23:2 24:2 27:2 28:1 32:1 38:1 40:2 45:1 53:1 55:1 69:1 73:1 74:1 75:1 79:4 84:2 85:1 86:2 92:1 93:1 98:1 100:1 104:1 106:1 107:1 115:3 118:6 121:1 122:1 123:1 134:2 136:1 140:1 142:1 151:1 158:2 162:1 163:1 164:2 165:1 167:1 171:1 175:1 187:1 193:1 198:1 199:1 #
-0.098831950609668234 16:1 32:1 73:1 100:1 104:1 118:2 179:1 #
0.098831950609668234 9:1 28:1 48:1 83:2 98:2 100:2 102:1 112:1 118:5 121:1 126:1 171:1 180:1 194:1 198:1 #
0.098831950609668234 79:1 82:1 93:1 95:2 107:1 127:1 139:2 189:1 #
-0.098831950609668234 19:1 22:1 24:1 49:1 64:1 79:1 94:1 100:1 107:1 171:1 179:1 180:1 #
-0.098831950609668234 139:1 #
-0.098831950609668234 34:1 113:1 #
-0.098831950609668234 5:1 118:1 139:1 #
0.080576935541831915 1:1 33:1 56:2 57:1 67:1 117:1 137:2 #
0.098831950609668234 49:1 98:1 123:2 148:1 149:1 179:1 #
0.098831950609668234 1:1 33:1 117:1 137:1 #
-0.098831950609668234 17:1 22:1 24:1 35:1 45:1 64:1 75:1 76:1 84:1 94:1 98:1 100:1 112:1 116:1 118:1 153:1 198:1 #
0.098831950609668234 27:1 132:1 175:1 #
-0.098831950609668234 44:1 58:1 76:1 96:1 107:1 113:1 118:2 121:1 155:1 177:1 183:1 186:1 191:1 198:1 #
-0.098831950609668234 1:1 23:1 26:1 27:1 44:2 61:1 78:1 87:1 100:1 122:1 139:1 143:1 168:1 186:1 189:1 #
0.021158626505268757 16:1 30:1 32:2 39:1 40:1 48:1 52:1 57:1 58:2 76:1 79:2 87:1 93:2 95:1 96:1 98:2 118:3 138:1 139:1 142:1 146:2 149:1 152:1 157:1 160:1 167:2 171:1 174:1 175:1 181:2 186:7 #
0.098831950609668234 9:2 16:1 24:1 27:2 28:1 37:1 40:2 42:1 43:1 44:1 46:1 50:1 58:1 65:2 73:2 81:2 92:1 93:3 96:1 103:1 107:2 110:1 112:2 116:1 118:6 120:1 121:2 124:1 126:1 136:1 151:1 158:1 168:3 170:1 173:1 179:1 180:2 196:1 199:1 #
0.098831950609668234 6:2 9:2 12:1 16:2 23:1 27:2 29:1 32:1 44:1 49:1 53:2 55:1 63:1 72:1 73:1 76:1 79:1 82:1 95:1 98:2 99:1 103:1 107:4 108:1 112:1 118:3 127:2 128:1 139:1 140:1 159:1 166:1 168:1 170:1 178:1 187:1 189:1 196:1 197:1 #
0.098831950609668234 44:1 183:1 #
-0.015886859703585061 3:1 14:1 16:3 20:2 23:2 24:1 25:1 27:1 28:2 33:1 38:1 40:1 42:1 43:1 44:1 45:1 50:1 57:1 58:2 59:1 66:1 70:1 71:1 73:1 78:1 84:1 86:1 87:1 92:1 93:4 99:1 100:3 105:1 106:1 107:3 114:1 116:1 118:4 121:1 139:2 141:1 146:2 149:1 152:1 153:1 154:1 159:1 161:1 180:2 186:4 189:1 192:2 194:1 199:2 #
-0.098831950609668234 26:1 #
-0.098831950609668234 42:1 79:1 #
0.098831950609668234 61:1 96:1 98:1 #
0.098831950609668234 117:2 #
0.098831950609668234 74:1 113:1 114:1 138:1 #
-0.098831950609668234 4:1 6:1 53:3 57:2 118:1 127:1 185:1 #
-0.098831950609668234 119:1 183:1 198:1 #
-0.098831950609668234 9:1 41:1 74:1 106:1 140:1 163:1 172:1 184:1 191:1 198:1 #
0.098831950609668234 4:1 9:1 10:1 16:2 19:1 27:1 32:1 33:2 40:1 45:1 58:4 63:1 73:2 74:1 75:1 82:1 88:1 93:1 95:1 97:1 98:1 99:1 100:4 107:1 113:2 118:1 119:1 124:1 139:2 151:1 152:1 163:1 170:1 186:2 189:1 193:1 198:1 #
0.026463854967901969 16:1 24:2 38:1 68:1 71:3 73:1 82:2 85:2 91:1 93:2 95:1 98:3 99:1 100:2 106:1 116:1 118:3 139:4 140:1 143:1 153:1 173:1 175:1 181:1 186:1 194:1 195:1 198:1 #
0.098831950609668234 9:1 48:1 58:4 63:1 75:2 79:1 92:1 96:1 98:1 100:1 101:1 107:1 112:2 116:1 118:4 139:1 163:1 168:1 180:1 184:1 192:1 197:1 200:1 #
0.098831950609668234 44:1 127:1 172:1 185:1 #
0.098831950609668234 17:1 49:1 83:1 107:1 190:1 #
0.098831950609668234 14:1 36:1 74:1 164:1 172:1 178:1 #
0.040349271076521774 10:1 50:1 61:1 82:1 98:1 107:1 118:1 139:1 140:1 150:1 155:1 177:1 178:1 #
-0.098831950609668234 49:1 58:2 75:1 87:1 98:1 100:1 139:1 157:1 175:1 185:1 198:1 #
-0.098831950609668234 70:1 74:2 88:1 98:1 110:1 112:2 139:1 168:1 #
-0.098831950609668234 26:1 58:1 91:1 96:1 98:1 128:1 139:1 #
0.098831950609668234 20:1 26:1 27:1 32:1 44:3 45:1 49:1 58:1 71:3 73:1 86:1 87:1 98:1 100:1 103:1 107:2 118:3 121:2 134:1 139:1 145:1 148:1 163:1 180:1 192:1 194:1 196:1 200:1 #
0.007919482352370659 2:6 15:1 16:4 19:1 21:1 23:2 25:1 27:1 29:1 30:1 32:2 43:3 45:1 59:1 69:2 70:1 78:2 79:2 87:1 96:1 97:1 100:1 114:1 118:3 127:1 131:1 132:1 134:1 141:1 146:1 149:1 153:1 164:2 170:1 172:1 173:1 179:2 181:1 186:2 197:1 199:1 #
0.098831950609668234 26:1 49:1 118:1 155:1 156:1 198:1 #
0.098831950609668234 74:1 106:1 111:1 138:1 #
0.098831950609668234 74:1 92:1 108:1 176:1 #
0.098831950609668234 32:1 89:1 129:1 165:1 181:1 #
-0.028297748096686427 7:1 74:1 78:1 85:1 95:1 100:1 121:1 167:3 173:1 186:3 187:3 #
-0.098831950609668234 24:2 35:1 43:1 87:1 96:1 162:1 163:1 180:1 189:1 198:1 #
0.098831950609668234 96:1 98:1 118:1 177:1 #
-0.033432307820274315 47:1 59:1 123:1 127:1 #
0.098831950609668234 3:1 11:1 33:1 36:1 40:2 50:1 73:1 76:1 93:1 100:1 118:1 131:1 150:1 158:1 #
0.098831950609668234 12:1 23:1 24:1 27:1 40:1 50:1 55:1 59:1 76:1 84:1 87:1 92:2 95:1 115:1 118:2 140:1 143:1 145:1 150:1 151:1 161:1 170:1 174:1 176:1 179:1 180:1 187:1 200:1 #
-0.098831950609668234 24:1 26:1 40:3 44:1 49:1 75:1 103:1 107:1 118:1 139:1 157:1 163:1 166:1 200:1 #
0.098831950609668234 10:1 44:1 100:1 139:1 189:1 #
0.098831950609668234 24:1 139:1 189:1 #
-0.098831950609668234 39:1 90:1 131:1 145:1 171:1 188:1 #
0.098831950609668234 107:1 112:2 156:1 182:1 #
-0.098831950609668234 30:1 50:1 95:1 182:1 #
-0.098831950609668234 48:1 158:1 #
-0.098831950609668234 9:2 16:1 19:1 27:1 36:1 50:1 58:2 73:1 95:2 100:1 104:1 106:1 116:1 118:1 121:1 152:1 158:1 171:1 179:1 180:1 #
0.098831950609668234 16:1 30:1 57:1 97:1 157:1 #
0.098831950609668234 63:1 75:1 97:1 100:1 116:1 157:1 182:1 #
0.098831950609668234 42:1 49:2 76:1 100:1 118:1 123:1 136:1 139:1 169:1 #
-0.098831950609668234 6:1 53:1 114:1 118:1 121:1 150:1 174:1 #
0.0015737908682504618 19:1 27:2 35:1 39:1 42:1 45:1 84:2 96:1 100:1 103:1 108:2 118:1 127:1 146:1 151:1 155:1 186:1 197:1 200:1 #
-0.098831950609668234 40:1 49:2 63:1 94:1 118:2 158:1 167:1 173:1 #
-0.098831950609668234 16:1 21:1 42:1 44:1 73:1 79:1 93:1 119:1 139:1 182:1 189:1 #
0.015573240279973524 6:2 53:2 87:1 112:1 115:1 118:1 150:1 181:1 200:1 #
0.018737918932848964 27:1 36:1 43:1 52:1 61:1 75:1 78:1 98:1 118:1 135:2 140:1 #
0.098831950609668234 39:1 86:1 97:1 106:1 114:1 165:1 #
0.098831950609668234 26:1 49:1 91:1 119:1 139:1 163:1 190:1 #
0.098831950609668234 106:1 111:1 129:1 151:1 181:1 #
0.098831950609668234 86:1 106:1 131:1 #
-0.098831950609668234 96:1 123:1 139:1 141:1 149:1 #
-0.098831950609668234 27:1 83:2 98:1 118:1 148:1 183:1 198:1 200:2 #
0.098831950609668234 5:1 12:1 23:1 24:1 27:1 55:1 58:1 59:1 69:1 71:1 97:1 98:1 196:1 #
-0.098831950609668234 83:1 118:1 #
-0.098831950609668234 76:1 79:1 86:1 100:1 171:1 186:1 #
-0.098831950609668234 9:1 27:1 29:1 44:1 58:4 73:2 82:1 87:1 92:1 98:1 99:1 103:1 118:2 123:1 135:1 139:1 147:1 149:1 178:1 189:1 194:1 #
0.098831950609668234 40:1 54:1 74:1 118:1 138:1 200:1 #
0.098831950609668234 40:1 42:1 100:1 102:1 106:1 116:1 118:1 159:1 200:1 #
0.098831950609668234 23:1 57:1 73:1 77:1 98:1 103:1 113:1 116:1 118:1 139:1 157:1 165:1 #
-0.098831950609668234 11:1 13:1 30:1 98:2 118:1 140:1 148:2 155:1 165:1 198:1 #
-0.098831950609668234 42:2 73:1 102:1 118:2 140:1 163:1 171:1 #
-0.098831950609668234 100:1 102:1 116:1 118:2 140:1 171:1 #
0.098831950609668234 58:2 109:1 178:1 #
0.098831950609668234 164:1 #
-0.098831950609668234 27:2 40:1 58:1 72:1 73:1 98:1 107:1 118:1 121:1 135:1 139:1 151:1 160:1 178:1 179:1 184:2 200:1 #
-0.098831950609668234 6:1 16:1 23:1 53:1 96:1 103:2 118:1 178:1 184:1 195:1 #
-0.098831950609668234 6:1 53:1 82:1 103:2 118:1 127:1 139:1 189:1 #
0.056264725641884769 42:1 94:1 98:1 110:1 118:1 132:1 149:1 155:1 167:1 177:1 #
0.098831950609668234 1:1 12:1 32:1 36:1 55:1 72:1 87:1 98:1 100:1 107:1 114:1 125:1 148:1 180:1 #
-0.098831950609668234 74:1 172:1 #
-0.098831950609668234 27:1 29:1 32:1 36:1 40:1 50:1 52:1 75:1 95:1 98:1 104:1 107:1 116:1 128:2 146:2 150:1 158:1 163:1 171:1 186:1 192:1 #
-0.098831950609668234 1:1 34:1 89:1 95:1 100:1 106:1 114:1 127:1 140:1 145:1 164:1 #
0.098831950609668234 49:1 98:1 100:1 103:1 118:1 149:1 #
0.098831950609668234 21:1 26:1 31:1 82:1 96:1 98:1 99:1 118:1 122:1 127:1 139:1 169:1 171:1 183:1 189:1 #
0.098831950609668234 40:1 118:1 120:1 200:1 #
0.098831950609668234 35:1 79:1 87:1 98:1 127:1 155:1 #
0.098831950609668234 6:1 14:1 53:1 103:1 127:1 #
0.098831950609668234 96:1 98:1 118:1 #
-0.098831950609668234 112:1 118:1 139:1 156:1 171:1 #
0.098831950609668234 23:1 58:1 66:1 95:1 97:1 112:1 116:1 127:1 161:1 163:1 179:1 182:1 192:1 #
0.098831950609668234 98:1 118:1 127:1 141:1 #
0.098831950609668234 36:1 40:1 60:1 91:1 104:1 133:1 146:1 148:1 149:1 152:1 165:1 186:1 188:1 #
0.098831950609668234 24:1 50:1 99:1 198:1 #
-0.098831950609668234 110:1 127:1 184:1 #
-0.098831950609668234 94:1 97:1 182:1 196:1 #
0.098831950609668234 36:1 171:1 #
-0.098831950609668234 94:1 118:1 170:1 178:1 #
-0.098831950609668234 9:1 73:1 107:2 118:2 141:1 163:1 198:1 #
-0.098831950609668234 27:2 44:1 49:1 58:2 82:1 93:2 96:1 98:1 105:2 118:1 139:1 163:1 196:1 #
0.098831950609668234 36:1 49:1 50:1 57:1 103:1 128:1 179:1 #
0.098831950609668234 22:1 64:1 98:1 100:1 118:1 136:1 149:1 #
0.098831950609668234 103:1 118:1 123:1 127:1 140:1 166:2 196:1 #
0.098831950609668234 118:1 139:1 140:1 157:1 169:1 185:1 198:1 #
-0.098831950609668234 136:1 157:1 185:1 198:1 #
-0.098831950609668234 37:1 39:1 74:2 114:1 115:1 138:1 178:1 #
-0.098831950609668234 16:2 38:1 65:1 66:1 73:1 79:1 87:1 91:1 100:1 118:2 139:1 140:1 182:1 198:1 #
0.098831950609668234 29:1 49:1 75:1 83:1 86:1 99:1 163:1 179:1 #
-0.098831950609668234 36:1 95:1 118:1 139:1 #
-0.021708414091418146 26:1 48:1 118:1 170:1 #
0.098831950609668234 36:1 46:1 75:1 #
0.04603059609096033 39:1 74:1 115:1 138:1 171:1 #
-0.098831950609668234 72:1 88:1 98:1 118:1 170:1 183:1 192:1 #
-0.098831950609668234 40:1 88:1 93:1 98:1 100:1 118:1 149:1 183:1 #
0.098831950609668234 38:1 63:1 118:1 171:1 #
0.098831950609668234 10:1 37:1 59:1 91:1 98:1 123:1 139:1 178:1 #
0.098831950609668234 6:1 16:1 53:1 60:1 118:1 127:1 141:1 #
0.098831950609668234 9:1 24:1 73:1 111:1 118:1 163:1 #
-0.098831950609668234 9:1 36:1 82:1 112:2 118:1 131:1 156:1 163:1 168:1 171:1 194:1 #
-0.098831950609668234 118:1 123:1 141:1 163:1 198:1 #
-0.098831950609668234 24:1 118:1 139:1 171:1 199:1 #
-0.098831950609668234 8:1 #
0.098831950609668234 7:1 96:1 98:2 #
0.098831950609668234 30:1 32:1 73:1 83:1 88:1 100:1 157:1 176:1 179:1 183:1 #
-0.098831950609668234 5:1 49:2 58:1 96:1 98:1 119:1 140:1 177:1 #
-0.098831950609668234 6:1 36:1 53:1 95:1 98:1 100:1 123:1 171:1 #
-0.098831950609668234 24:1 32:1 42:1 73:1 79:1 140:1 152:1 159:1 #
0.098831950609668234 64:1 75:1 112:1 118:1 162:1 #
0.098831950609668234 36:1 64:1 118:1 168:1 171:1 #
-0.098831950609668234 27:1 29:1 33:1 83:2 90:1 96:1 98:1 116:1 118:1 139:1 179:1 #
-0.098831950609668234 98:1 99:1 107:1 112:1 118:2 139:1 166:1 178:1 200:1 #
-0.098831950609668234 24:1 32:1 73:1 101:1 118:1 124:1 #
0.098831950609668234 58:1 123:1 140:1 148:1 171:1 #
0.098831950609668234 42:1 50:1 82:1 93:1 95:1 139:2 178:1 #
-0.098831950609668234 36:1 50:1 84:1 100:1 107:1 128:1 157:1 164:1 199:1 #
-0.098831950609668234 36:1 74:1 75:1 100:1 123:1 138:1 171:2 183:1 #
0.098831950609668234 65:1 83:1 98:1 141:1 149:1 163:1 #
0.098831950609668234 36:1 76:1 84:1 98:1 163:1 169:1 192:1 199:1 #
-0.036837267593672438 71:2 102:1 110:1 111:1 118:2 #
0.098831950609668234 98:1 118:1 148:1 171:1 #
0.098831950609668234 29:1 98:1 118:1 177:1 #
-0.098831950609668234 74:1 126:1 140:1 177:1 #
0.098831950609668234 16:1 84:1 110:1 112:1 181:1 199:1 200:1 #
0.098831950609668234 46:1 109:1 #
-0.098831950609668234 14:1 26:1 41:1 48:1 49:1 118:1 120:1 #
-0.098831950609668234 67:1 82:1 153:1 173:1 #
-0.098831950609668234 32:1 69:1 91:1 95:1 110:1 127:1 139:1 #
0.098831950609668234 89:1 #
0.098831950609668234 98:1 #
0.098831950609668234 83:1 #
0.078331602518607601 1:1 3:1 37:1 41:1 54:1 74:1 100:1 114:1 115:1 118:1 180:1 #
-0.098831950609668234 63:1 97:1 #
-0.098831950609668234 63:1 97:1 182:1 #
-0.098831950609668234 51:1 100:1 118:2 175:2 #
-0.098831950609668234 30:1 118:1 150:1 #
0.098831950609668234 32:1 62:1 78:1 185:1 #
0.098831950609668234 117:1 185:1 #
0.098831950609668234 126:1 #
0.098831950609668234 73:1 84:1 118:1 127:1 167:1 184:1 #
0.098831950609668234 9:1 22:1 49:1 66:1 118:1 #
-0.098831950609668234 93:1 #
0.098831950609668234 12:1 55:1 60:1 96:1 98:2 103:1 106:1 118:2 #
-0.098831950609668234 61:1 75:1 76:1 98:2 #
0.098831950609668234 26:1 100:1 141:1 162:1 #
0.098831950609668234 21:1 36:1 46:1 84:1 165:1 181:1 #
0.098831950609668234 16:1 100:1 181:1 #
0.098831950609668234 49:1 63:1 82:1 118:1 139:1 141:1 189:1 #
0.098831950609668234 13:1 123:1 #
0.016152353066776454 38:1 49:1 79:1 96:1 98:1 118:1 134:1 149:1 190:1 #
0.098831950609668234 56:2 88:1 117:1 137:2 #
0.043812864119235226 56:2 117:1 125:1 137:1 141:1 #
-0.098831950609668234 26:1 98:1 107:1 113:1 163:1 #
-0.098831950609668234 98:1 118:1 139:1 149:1 163:1 198:1 #
-0.098831950609668234 24:1 27:1 49:1 98:1 118:1 149:1 166:1 186:1 #
0.098831950609668234 56:1 117:1 141:1 175:1 #
-0.098831950609668234 56:1 117:1 137:1 #
0.098831950609668234 36:1 74:1 138:1 146:1 171:1 #
-0.098831950609668234 137:1 141:1 #
-0.098831950609668234 117:2 #
0.098831950609668234 21:1 98:1 118:1 166:1 171:1 #
0.098831950609668234 35:1 98:1 #
-0.098831950609668234 77:1 83:1 98:1 119:1 139:1 166:1 196:1 #
-0.098831950609668234 96:1 98:1 100:1 118:1 171:1 183:1 #
0.098831950609668234 8:1 9:2 22:1 24:1 38:1 44:2 66:1 71:1 87:1 97:1 107:2 112:1 118:2 127:1 158:1 180:2 182:1 187:1 195:1 #
0.098831950609668234 2:1 9:1 17:2 52:1 78:1 109:1 118:1 140:1 155:1 158:1 164:1 167:1 190:1 198:1 #
0.098831950609668234 9:1 32:1 69:1 73:1 76:1 83:1 119:1 121:1 126:1 150:1 154:1 163:1 181:1 195:1 198:1 #
0.098831950609668234 26:1 32:1 36:1 39:1 107:2 118:1 119:1 121:1 127:1 142:1 146:1 163:1 181:1 182:1 186:1 197:1 #
0.098831950609668234 9:2 28:1 81:2 112:1 118:2 199:1 #
-0.098831950609668234 5:1 79:1 107:1 127:1 197:1 #
-0.098831950609668234 4:1 26:1 44:1 73:1 98:1 100:1 149:1 170:1 #
-0.098831950609668234 11:1 56:2 117:1 124:1 137:1 #
-0.098831950609668234 11:1 56:1 137:1 164:1 #
-0.098831950609668234 56:1 137:1 #
-0.098831950609668234 9:1 12:1 16:1 24:1 95:1 107:1 #
-0.098831950609668234 9:1 23:1 49:1 86:1 99:1 118:1 168:1 #
0.034396660014272794 7:1 24:1 32:1 38:1 46:1 57:1 69:2 74:1 75:2 76:1 79:1 90:1 98:4 100:2 101:1 108:1 118:1 123:1 128:3 141:1 148:1 149:1 151:1 177:1 180:2 182:1 194:1 #
0.098831950609668234 9:1 22:1 26:1 44:1 66:1 73:1 118:1 147:2 163:1 183:1 #
0.098831950609668234 9:1 36:1 40:1 46:1 51:1 94:1 95:1 96:1 98:1 100:1 101:1 102:1 105:1 107:1 110:1 112:1 114:1 118:3 139:1 145:1 153:1 154:1 158:1 167:1 171:1 178:1 179:1 180:1 181:1 183:1 #
0.098831950609668234 1:1 49:1 117:1 #
-0.098831950609668234 40:1 97:1 146:1 150:1 182:1 186:1 #
0.098831950609668234 7:1 52:1 86:1 106:1 118:1 134:1 141:1 145:1 154:2 186:1 191:1 #
0.098831950609668234 26:1 #
0.098831950609668234 35:1 98:1 118:1 #
-0.098831950609668234 83:1 118:1 #
-0.098831950609668234 8:1 123:1 155:1 #
-0.098831950609668234 28:1 43:1 200:1 #
0.098831950609668234 50:1 58:1 89:1 100:1 103:1 114:1 118:1 126:1 140:1 #
-0.098831950609668234 1:1 21:1 58:1 98:1 100:1 116:1 118:1 122:1 149:1 #
-0.098831950609668234 87:1 135:1 167:1 #
-0.098831950609668234 88:1 164:1 #
-0.098831950609668234 24:1 32:1 118:1 134:1 180:1 #
0.098831950609668234 76:1 149:1 #
0.098831950609668234 149:1 #
-0.098831950609668234 80:1 89:1 128:1 144:1 188:1 198:1 #
-0.098831950609668234 142:1 #
0.098831950609668234 50:1 74:1 134:1 #
-0.098831950609668234 98:1 141:1 #
-0.098831950609668234 36:1 46:1 148:1 149:1 181:1 #
-0.098831950609668234 76:1 98:1 127:1 #
-0.098831950609668234 63:1 84:1 199:1 #
0.080115256450328173 36:1 147:1 164:1 #
-0.098831950609668234 13:1 22:1 76:1 #
-0.098831950609668234 63:1 84:1 199:1 #
0.098831950609668234 35:1 118:1 #
0.067724680480345759 13:1 50:1 96:1 100:1 107:1 #
-0.067281464344563627 7:2 9:1 14:1 19:1 32:2 43:1 58:1 59:1 69:2 78:1 84:1 86:1 103:1 104:1 105:1 106:1 109:1 118:1 121:1 127:1 141:1 142:2 152:1 163:1 178:2 181:1 186:2 195:1 #
-0.098831950609668234 7:1 27:1 36:1 40:2 45:1 50:1 64:1 76:1 87:1 93:2 98:1 100:1 104:1 106:1 107:2 123:1 127:1 133:1 148:1 150:1 152:1 165:2 169:1 171:1 172:2 173:1 179:1 190:1 193:1 199:1 #
-0.098831950609668234 8:1 #
-0.098831950609668234 5:1 32:1 60:1 84:1 98:2 99:1 100:2 123:1 127:1 142:2 146:1 166:1 181:1 186:2 199:1 200:1 #
-0.039371915651943291 16:1 24:1 32:3 67:1 69:2 73:1 84:2 98:3 107:1 131:1 148:3 151:1 161:1 169:1 179:2 #
-0.098831950609668234 2:1 117:1 #
-0.098831950609668234 22:1 62:1 82:1 89:1 118:2 155:1 163:1 164:1 188:1 198:2 #
-0.098831950609668234 12:5 23:1 27:1 36:1 38:1 40:1 49:1 50:1 55:2 74:1 79:2 87:1 95:1 98:1 100:2 101:1 103:1 109:1 116:1 118:2 119:1 127:1 134:2 137:1 138:1 140:1 143:1 149:1 150:1 153:2 154:2 179:1 180:1 #
-0.0077709594225726054 10:1 16:2 24:1 26:1 27:1 28:1 44:1 51:1 59:1 68:1 71:1 85:1 86:2 87:1 90:1 96:1 98:1 103:1 106:1 107:1 111:1 114:1 118:1 121:1 139:2 154:1 159:1 160:1 179:1 194:1 195:1 #
-0.098831950609668234 34:1 39:1 57:1 70:2 71:1 73:1 84:1 98:1 100:1 102:1 103:1 107:3 113:1 114:1 118:2 123:1 127:1 152:1 166:1 170:1 176:1 200:3 #
-0.098831950609668234 9:1 26:2 44:1 49:1 93:2 100:1 110:1 112:1 118:4 135:1 146:2 157:1 161:1 165:1 183:1 191:1 192:2 196:1 197:1 #
-0.098831950609668234 24:1 30:1 75:1 92:1 104:1 192:1 194:1 199:1 #
0.098831950609668234 97:1 182:1 #
-0.098831950609668234 33:1 117:1 138:1 #
-0.098831950609668234 103:1 118:1 #
-0.098831950609668234 36:1 40:1 83:1 98:1 100:2 116:1 118:1 127:1 154:1 171:1 183:1 196:1 #
0.098831950609668234 19:1 26:1 48:1 49:1 58:3 59:1 78:1 83:1 88:1 95:1 98:1 100:1 118:2 121:1 122:1 140:1 146:1 154:1 161:1 168:1 186:1 192:1 196:1 198:1 #
0.098831950609668234 3:1 16:1 20:2 27:3 32:1 34:1 42:2 48:1 52:1 58:5 68:2 75:1 78:1 87:1 94:1 99:1 103:1 104:1 110:1 112:1 118:3 135:1 139:1 141:1 145:1 150:2 151:1 155:1 165:1 180:1 184:1 186:1 188:1 194:1 #
0.020437509491103872 88:1 98:1 157:1 #
0.098831950609668234 26:1 73:1 96:1 98:1 119:1 149:1 163:1 #
-0.098831950609668234 116:1 118:1 #
-0.098831950609668234 9:1 27:1 42:1 47:1 49:1 59:1 60:1 69:1 70:1 86:1 97:1 100:1 104:1 107:1 111:1 114:1 118:1 141:1 150:1 158:1 179:1 181:1 182:1 200:1 #
0.098831950609668234 164:1 #
-0.098831950609668234 163:1 171:1 183:1 #
-0.098831950609668234 58:1 118:1 157:1 171:1 183:1 185:1 198:1 #
-0.098831950609668234 16:1 98:1 100:1 109:1 123:3 155:1 170:1 178:1 179:1 195:2 #
-0.098831950609668234 23:2 35:1 44:1 49:1 76:1 85:1 92:1 99:1 107:1 118:1 140:1 157:1 163:1 175:1 183:1 185:1 198:1 #
-0.035632449491953377 3:1 6:2 53:2 83:1 98:1 100:1 102:1 107:1 118:4 149:1 153:1 158:1 182:1 #
-0.098831950609668234 49:1 118:1 139:1 157:1 183:1 185:1 198:1 #
0.098831950609668234 164:1 #
0.098831950609668234 118:1 140:1 146:1 183:1 #
-0.098831950609668234 36:1 141:1 149:1 #
0.098831950609668234 5:1 6:1 19:1 26:1 27:2 39:1 49:1 53:1 58:2 74:1 82:1 88:1 97:1 100:2 103:2 118:1 149:1 157:1 179:1 189:1 #
0.098831950609668234 73:1 99:1 100:1 113:1 122:1 195:1 #
0.098831950609668234 7:1 12:1 24:1 27:1 32:1 70:1 71:1 73:1 116:1 118:1 199:1 #
0.098831950609668234 19:1 34:1 70:1 73:2 100:1 112:1 118:1 168:1 194:1 #
0.098831950609668234 10:1 70:1 79:1 82:1 87:1 118:1 134:1 135:1 139:1 144:1 #
-0.098831950609668234 36:1 100:1 171:1 #
0.098831950609668234 14:1 16:1 33:1 40:2 50:1 89:1 107:1 118:3 121:1 139:2 141:1 152:1 157:1 183:1 #
-0.098831950609668234 164:1 #
0.098831950609668234 5:3 49:1 73:1 76:2 79:1 96:1 97:1 100:1 118:1 194:1 #
0.098831950609668234 6:1 16:1 27:1 36:1 87:1 103:2 116:1 127:1 151:1 161:1 187:1 192:1 198:1 #
0.098831950609668234 19:1 33:1 83:1 105:1 107:1 108:1 118:2 135:1 141:1 #
0.098831950609668234 12:1 24:1 50:1 55:1 76:1 79:1 86:1 98:1 100:1 108:1 118:1 135:1 173:1 198:1 #
0.098831950609668234 11:1 36:1 123:1 148:1 171:1 #
0.098831950609668234 99:1 #
0.042359788540210129 3:2 10:1 12:2 27:7 32:1 35:1 43:1 49:2 55:1 66:1 70:1 76:2 93:1 97:1 98:3 100:2 102:1 103:1 106:1 107:5 110:1 112:1 113:1 115:2 118:8 121:1 134:1 139:1 141:2 150:1 151:1 152:2 159:2 161:1 167:1 168:1 171:1 177:1 178:1 179:1 181:1 182:2 187:2 192:1 196:1 197:1 #
0.098831950609668234 9:2 49:1 71:1 82:1 87:1 100:1 103:1 107:1 112:1 118:1 139:1 163:1 166:1 189:1 200:1 #
-0.098831950609668234 63:1 #
0.098831950609668234 32:1 43:1 104:1 126:1 151:1 #
0.098831950609668234 17:1 41:2 61:1 84:1 87:1 95:1 100:1 107:1 115:1 127:2 164:1 184:1 #
0.098831950609668234 73:1 84:1 183:1 200:1 #
0.098831950609668234 30:1 32:1 40:1 43:1 52:1 69:1 70:2 73:1 84:1 106:1 114:1 118:2 142:1 152:1 158:1 160:1 176:2 178:1 179:1 191:1 194:1 199:1 200:1 #
0.098831950609668234 32:1 36:1 86:1 104:2 118:1 171:1 #
0.098831950609668234 12:1 55:1 87:1 98:1 100:1 102:1 116:1 118:2 121:1 127:1 171:1 #
0.098831950609668234 131:1 #
0.098831950609668234 71:1 102:1 118:2 139:1 #
0.098831950609668234 27:1 30:1 104:1 112:1 127:1 188:1 196:1 #
0.098831950609668234 28:1 67:1 158:1 #
0.098831950609668234 27:1 42:1 64:1 83:1 118:1 139:1 175:1 #
-0.098831950609668234 9:1 27:1 45:1 46:1 49:1 51:1 52:1 59:1 68:1 73:1 93:1 106:1 107:2 108:1 114:1 116:1 118:5 119:1 151:1 172:1 179:4 190:1 191:1 #
0.098831950609668234 16:1 19:1 30:1 92:1 93:1 95:1 118:1 133:1 #
0.098831950609668234 100:1 123:1 #
0.098831950609668234 5:1 44:1 63:1 118:1 #
0.091913435389103029 27:1 41:1 84:1 112:1 118:1 120:1 153:1 161:1 168:2 #
0.098831950609668234 92:1 #
-0.098831950609668234 11:2 12:1 55:1 56:2 117:1 124:3 137:2 #
-0.098831950609668234 29:1 100:1 102:1 118:1 178:1 #
-0.078668238228245063 2:1 9:1 12:2 16:2 18:1 24:1 27:2 31:1 40:1 49:1 60:1 71:5 73:5 75:1 76:1 79:1 86:1 87:3 98:1 99:1 100:2 108:1 115:1 116:1 118:5 121:1 122:3 123:1 136:1 139:1 141:1 143:1 144:1 146:1 151:4 158:1 160:2 162:1 163:1 167:1 175:5 178:2 179:1 189:2 190:1 198:1 199:1 #
-0.098831950609668234 34:1 44:1 73:1 118:1 140:1 147:1 157:1 176:1 #
-0.098831950609668234 19:1 91:1 96:1 98:1 103:1 112:1 118:2 139:1 156:1 163:1 168:1 #
-0.098831950609668234 40:1 49:1 74:2 79:1 90:1 100:1 106:1 107:1 118:5 151:1 159:1 165:1 178:1 #
-0.062366614782598445 14:1 82:2 118:1 139:1 189:2 #
0.098831950609668234 6:1 26:1 49:1 53:1 58:2 95:1 100:1 107:1 139:1 151:1 171:1 179:1 182:1 200:1 #
-0.098831950609668234 21:1 42:1 64:1 81:1 94:2 107:1 127:1 #
0.098831950609668234 16:2 40:1 62:1 93:2 98:1 100:1 103:1 107:1 118:1 140:1 146:2 149:1 153:1 154:1 179:1 186:1 194:1 #
-0.098831950609668234 13:1 27:1 40:1 42:1 58:4 69:1 75:1 76:1 86:1 93:2 96:1 100:3 103:1 105:1 107:1 118:4 123:1 127:1 141:1 150:1 178:1 192:1 198:1 #
-0.098831950609668234 20:1 49:1 50:1 58:1 71:2 73:1 97:1 103:1 107:1 110:2 112:1 145:1 146:1 185:1 186:1 #
-0.098831950609668234 10:1 24:1 26:2 27:1 49:1 58:1 82:1 91:1 98:1 100:1 112:1 118:1 123:2 127:1 141:1 148:1 165:1 176:1 189:1 #
-0.098831950609668234 24:1 36:1 87:1 95:1 98:1 100:1 139:1 141:1 #
-0.039199959738225938 9:1 16:1 25:1 32:1 50:2 57:1 58:1 70:1 78:1 79:2 87:1 88:3 89:1 97:1 98:1 102:3 106:1 107:2 114:2 116:1 118:6 138:1 148:1 152:1 153:1 175:1 180:1 181:1 185:1 190:1 194:1 195:1 #
-0.098831950609668234 3:1 16:1 21:1 32:1 42:3 46:1 59:1 73:1 74:1 96:1 100:1 106:1 118:4 138:2 172:1 179:1 180:1 181:1 #
0.098831950609668234 73:1 87:1 119:1 183:1 #
-0.098831950609668234 22:1 49:2 64:1 73:1 103:1 107:1 118:1 163:1 #
-0.098831950609668234 26:1 49:1 #
-0.098831950609668234 19:1 27:1 30:1 94:1 166:1 #
-0.098831950609668234 116:1 141:1 #
-0.098831950609668234 17:1 29:1 32:1 98:1 100:1 107:1 119:1 148:1 149:1 154:1 194:1 #
0.098831950609668234 29:1 50:1 76:1 80:1 81:1 93:2 100:1 104:1 106:2 118:4 123:1 139:1 141:1 149:1 159:1 179:1 183:1 197:1 #
0.098831950609668234 67:1 #
-0.098831950609668234 14:1 30:1 50:1 90:1 96:1 98:1 118:1 139:1 141:1 171:1 #
-0.098831950609668234 27:1 32:1 82:1 192:1 #
-0.098831950609668234 1:1 117:1 169:1 #
-0.098831950609668234 27:1 40:1 44:1 79:1 96:1 98:1 118:2 141:1 157:1 #
-0.098831950609668234 98:1 149:1 #
-0.098831950609668234 24:2 38:1 61:1 73:1 84:1 87:1 100:2 102:1 116:1 118:1 180:1 199:1 #
-0.098831950609668234 7:1 22:1 51:1 66:1 68:1 76:1 92:1 97:1 105:1 112:1 118:1 151:1 168:1 173:1 183:1 199:1 200:1 #
-0.098831950609668234 83:1 118:1 #
-0.098831950609668234 14:1 16:1 47:1 83:1 93:1 96:1 98:2 118:3 149:1 158:1 163:1 168:1 171:2 183:1 #
-0.098831950609668234 16:1 28:1 49:1 65:1 74:1 80:1 88:1 105:1 169:1 #
-0.098831950609668234 40:1 48:1 81:1 112:1 118:1 127:1 170:1 #
-0.098831950609668234 41:1 82:1 95:1 #
-0.023887279773241333 2:2 7:1 12:1 16:1 17:2 19:1 24:1 33:1 43:1 48:1 52:1 55:2 59:1 60:2 70:1 71:1 73:1 76:2 85:1 88:1 98:2 100:1 104:2 106:1 107:2 109:1 118:1 121:1 134:1 139:1 148:1 165:1 167:1 171:1 186:2 #
-0.098831950609668234 50:1 117:1 #
-0.026325249074350843 5:2 27:1 43:1 44:2 79:1 81:1 115:2 118:1 138:1 139:1 150:1 187:1 190:1 #
0.098831950609668234 67:1 #
-0.098831950609668234 48:1 118:1 158:1 #
-0.098831950609668234 64:1 100:1 112:1 118:1 139:1 140:1 168:1 #
-0.098831950609668234 40:1 74:1 86:1 92:1 100:1 105:1 106:1 121:1 200:1 #
-0.098831950609668234 1:1 2:1 50:1 94:1 103:1 118:1 199:1 #
-0.098831950609668234 100:1 107:1 #
0.098831950609668234 67:1 #
-0.098831950609668234 5:1 6:1 53:1 #
0.098831950609668234 98:1 198:1 #
-0.098831950609668234 32:1 36:1 89:1 101:1 106:1 107:1 171:1 181:1 #
-0.098831950609668234 19:1 103:1 183:1 #
-0.069988237182049412 18:1 27:3 42:1 43:1 59:1 60:1 74:1 98:1 99:3 100:1 101:1 118:1 126:1 134:1 178:1 180:1 #
-0.098831950609668234 44:1 49:1 63:1 75:1 118:1 157:1 163:1 #
-0.098831950609668234 81:1 104:1 139:1 170:1 #
-0.098831950609668234 51:1 73:2 79:1 92:1 98:3 100:1 108:1 118:1 125:1 138:1 140:1 151:1 163:1 180:1 181:1 194:1 #
-0.098831950609668234 24:2 38:1 61:1 73:1 84:1 87:1 100:2 102:1 116:1 118:1 180:1 199:1 #
-0.098831950609668234 10:1 57:1 70:1 87:1 118:1 121:1 139:1 150:1 178:1 #
-0.098831950609668234 8:1 16:2 23:1 25:3 27:2 28:2 38:2 42:1 43:1 45:2 58:2 73:1 93:1 96:1 100:1 102:1 107:1 118:1 121:1 127:1 134:1 135:1 140:1 141:1 145:1 146:2 152:1 165:2 170:1 173:1 179:1 181:1 182:1 183:1 193:1 199:1 #
-0.098831950609668234 33:1 79:1 81:1 124:1 #
-0.098831950609668234 61:1 100:1 111:1 118:1 #
0.076550980920755546 1:1 18:2 24:1 27:1 32:1 39:2 42:3 71:1 73:1 74:1 79:1 94:1 97:1 98:1 103:1 107:2 114:1 115:1 118:2 130:1 172:1 186:1 190:1 199:2 #
0.098831950609668234 7:2 16:1 33:1 58:1 62:1 76:1 80:1 81:2 91:1 92:1 94:1 96:1 98:1 100:2 118:3 136:1 153:1 170:2 173:1 178:2 186:2 198:1 200:1 #
0.098831950609668234 48:1 75:1 100:1 118:3 168:1 #
-0.098831950609668234 12:2 27:1 71:1 84:1 98:1 100:1 118:2 139:1 160:1 199:1 200:1 #
0.098831950609668234 56:1 117:1 137:1 141:1 #
0.098831950609668234 16:1 23:1 24:2 33:1 38:1 42:1 84:1 96:1 98:1 107:1 118:1 123:1 #
0.098831950609668234 157:1 185:1 198:1 #
0.098831950609668234 16:1 27:1 40:1 48:1 50:1 58:1 79:1 94:1 96:1 98:1 100:1 107:1 116:1 134:1 179:1 181:1 #
0.098831950609668234 35:1 76:1 98:1 139:1 #
0.098831950609668234 63:1 75:1 96:1 100:1 #
0.098831950609668234 6:1 49:1 53:1 100:1 103:1 139:1 #
0.02380262443241514 2:1 17:2 23:3 27:1 32:2 35:1 69:1 70:1 71:2 80:1 84:1 93:1 100:1 103:1 118:2 139:1 141:1 142:1 144:1 145:1 162:1 164:1 172:1 194:1 #
0.098831950609668234 86:1 89:1 165:1 193:1 #
0.098831950609668234 23:1 84:1 98:1 118:1 127:1 136:1 164:1 181:1 #
0.098831950609668234 38:1 72:1 90:1 98:1 118:1 125:1 165:1 193:1 #
0.098831950609668234 88:1 98:1 157:1 #
0.098831950609668234 14:1 40:1 116:1 158:1 #
0.098831950609668234 73:1 98:2 107:1 181:2 #
0.098831950609668234 117:1 141:1 183:1 #
0.05494417483407827 6:2 21:1 40:1 50:2 53:2 79:1 87:1 91:1 94:1 95:1 100:2 103:1 107:1 118:2 121:2 123:2 132:1 139:1 151:1 158:1 170:1 171:1 175:2 179:2 180:1 198:1 #
0.098831950609668234 45:2 50:1 73:1 81:1 92:2 98:1 110:1 118:3 173:1 178:4 191:1 #
0.098831950609668234 41:1 64:1 79:1 87:1 92:1 100:1 118:4 120:1 140:1 153:1 171:1 180:1 #
0.098831950609668234 28:1 51:1 57:1 64:1 74:1 84:1 107:1 156:2 168:2 175:1 #
0.098831950609668234 30:1 58:1 82:1 139:1 145:1 150:1 154:1 160:1 #
0.098831950609668234 74:1 126:1 138:1 #
0.098831950609668234 9:1 27:1 32:1 40:1 50:1 58:1 60:1 83:1 88:1 93:1 105:1 107:2 118:1 127:1 141:1 163:1 188:1 #
0.098831950609668234 46:1 71:1 76:1 96:1 98:1 100:1 102:2 118:2 123:1 139:1 #
0.098831950609668234 26:1 27:1 48:1 49:1 81:1 99:1 118:1 #
0.010712409728315248 26:1 36:1 49:1 96:1 98:1 118:1 166:1 200:1 #
-0.098831950609668234 3:1 6:1 7:1 12:1 29:1 32:2 43:1 45:2 52:4 53:1 55:1 58:2 68:1 69:1 71:1 73:2 76:1 82:1 87:1 92:1 98:2 100:1 103:1 106:1 111:1 118:4 139:2 140:1 143:1 149:1 160:2 163:1 165:1 176:2 181:1 186:1 193:1 198:2 #
-0.098831950609668234 72:1 98:1 118:1 149:1 159:1 #
-0.098831950609668234 9:1 27:5 28:1 32:1 39:1 46:1 49:1 57:1 59:1 76:1 79:1 84:2 89:1 90:1 93:1 100:2 103:1 107:1 118:3 119:1 131:1 171:1 178:2 180:1 181:1 184:2 196:2 #
-0.073761699871576381 27:1 32:2 47:1 86:1 93:1 99:1 111:1 118:1 151:1 159:1 175:1 #
-0.098831950609668234 16:1 23:1 95:1 98:1 110:1 112:1 118:1 149:1 177:1 #
-0.098831950609668234 32:1 #
0.098831950609668234 19:1 56:1 100:1 116:1 137:1 #
0.098831950609668234 22:1 24:1 58:1 66:1 73:1 116:1 118:1 196:1 200:1 #
0.098831950609668234 56:1 117:1 137:1 #
0.076314415168293709 14:1 16:1 24:1 27:1 37:1 42:1 49:1 58:1 69:1 87:2 100:1 106:1 118:5 120:1 121:1 123:1 127:1 131:1 162:1 168:1 171:1 178:2 179:1 185:1 192:1 #
-0.098831950609668234 33:3 56:1 137:1 138:1 #
-0.098831950609668234 9:1 20:1 50:1 118:1 123:1 141:1 142:1 168:1 185:1 #
-0.098831950609668234 42:2 49:1 71:1 75:2 76:1 100:1 107:1 118:3 129:1 139:1 163:1 173:1 180:1 181:1 #
-0.098831950609668234 75:1 100:1 118:1 140:1 #
-0.098831950609668234 24:1 27:1 75:2 107:1 128:1 180:1 #
-0.070796246010631891 64:1 98:1 148:1 #
0.098831950609668234 100:1 139:1 #
0.098831950609668234 12:1 55:1 79:1 118:1 #
0.098831950609668234 27:1 79:1 117:1 118:1 124:1 139:1 140:1 166:1 #
0.098831950609668234 42:2 43:1 51:2 79:1 100:1 109:1 111:1 118:4 124:1 129:2 132:1 142:1 172:1 181:2 #
0.098831950609668234 16:1 24:1 27:1 49:1 73:1 75:1 82:1 139:1 163:1 189:2 199:1 #
0.098831950609668234 26:1 40:1 88:1 100:1 107:1 118:1 119:1 127:1 131:1 139:1 157:1 #
0.098831950609668234 26:1 44:1 98:1 107:1 118:1 163:1 170:1 181:1 #
-0.098831950609668234 74:1 200:1 #
0.098831950609668234 49:1 110:1 118:3 128:1 141:1 163:1 182:1 #
0.098831950609668234 61:1 87:1 100:1 102:1 103:1 118:3 141:1 143:1 173:1 #
0.098831950609668234 42:1 118:2 127:1 #
0.0081707884766397745 24:1 28:1 37:1 40:1 70:1 73:1 94:1 95:1 100:1 101:1 106:1 115:1 126:1 130:1 133:1 134:1 139:1 146:1 151:1 #
0.098831950609668234 93:2 100:1 138:1 #
-0.098831950609668234 48:1 92:1 99:1 118:1 152:1 178:1 #
-0.098831950609668234 10:1 12:1 55:1 94:1 100:1 118:1 139:1 145:1 198:1 #
0.098831950609668234 26:1 33:1 124:1 137:1 #
0.098831950609668234 56:1 137:1 138:1 #
0.098831950609668234 11:1 127:1 #
-0.098831950609668234 2:1 24:1 93:2 98:2 118:1 127:1 172:1 #
-0.098831950609668234 36:1 171:1 #
-0.098831950609668234 123:1 #
0.094802260518063869 9:1 28:1 34:1 79:1 81:3 100:1 106:1 107:2 110:1 118:2 146:1 198:1 199:1 #
-0.098831950609668234 42:1 65:1 80:1 81:1 118:1 168:1 #
-0.098831950609668234 102:1 106:2 118:1 134:1 158:1 172:1 186:1 194:1 #
0.098831950609668234 98:1 118:1 140:1 177:1 #
0.098831950609668234 16:1 38:1 84:1 116:1 118:1 199:1 #
0.098831950609668234 24:1 73:1 #
0.098831950609668234 22:1 24:1 66:1 73:1 74:1 84:1 124:1 131:1 138:1 #
-0.098831950609668234 30:1 81:1 121:1 #
-0.098831950609668234 40:1 62:1 100:1 118:1 144:1 #
-0.098831950609668234 49:1 58:1 107:1 118:1 #
0.098831950609668234 117:1 #
-0.098831950609668234 66:1 118:1 187:1 #
0.098831950609668234 66:1 77:1 100:1 118:1 184:1 198:1 #
-0.098831950609668234 17:1 83:1 112:1 118:1 168:1 #
-0.098831950609668234 81:1 #
-0.098831950609668234 27:1 42:1 44:1 71:1 72:1 74:1 98:2 99:1 100:1 118:2 125:1 138:1 150:1 151:1 178:2 #
0.098831950609668234 26:1 100:1 140:1 #
-0.098831950609668234 101:1 118:1 139:2 154:1 161:1 171:1 #
-0.0620669915964134 4:1 12:1 21:1 23:1 27:1 55:1 100:1 103:1 106:1 118:1 140:1 153:1 169:1 186:1 192:1 #
0.098831950609668234 42:1 49:1 83:1 118:1 163:1 168:1 182:1 #
0.098831950609668234 49:1 71:1 79:1 107:1 118:1 179:1 #
0.098831950609668234 117:1 #
-0.098831950609668234 18:1 50:1 87:1 114:1 #
0.059865867634035737 26:1 27:1 50:1 91:1 100:1 139:1 141:1 145:1 175:1 #
-0.098831950609668234 110:1 #
0.098831950609668234 1:1 10:1 36:1 40:1 47:1 73:1 85:1 93:1 95:1 100:1 106:1 118:1 131:1 139:1 142:1 150:1 154:1 157:1 165:1 183:1 #
0.098831950609668234 44:1 100:1 118:1 139:1 186:1 198:1 #
-0.098831950609668234 94:1 118:1 127:1 163:1 200:1 #
0.098831950609668234 115:1 171:1 #
-0.098831950609668234 28:2 39:1 79:1 105:1 194:1 #
-0.010103277018130304 15:1 40:1 50:1 57:1 71:1 72:1 95:2 98:1 118:3 128:1 142:1 154:1 #
0.098831950609668234 114:1 116:1 184:1 #
-0.098831950609668234 116:1 #
-0.098831950609668234 1:1 #
0.098831950609668234 49:1 58:1 73:1 107:1 118:1 185:1 #
-0.098831950609668234 49:1 103:1 118:1 #
-0.098831950609668234 141:1 184:1 #
-0.098831950609668234 131:1 #
0.098831950609668234 117:1 #
-0.098831950609668234 67:1 #
0.098831950609668234 73:1 118:1 141:1 146:1 #
0.098831950609668234 81:1 100:1 110:1 118:1 121:1 127:1 198:1 #
0.098831950609668234 42:1 100:1 118:1 141:1 176:1 #
0.098831950609668234 16:1 38:1 84:1 116:1 118:1 199:1 #
0.098831950609668234 56:1 124:1 137:1 #
0.098831950609668234 56:1 137:1 #
-0.098831950609668234 63:1 84:1 199:1 #
-0.098831950609668234 137:1 #
-0.098831950609668234 24:1 36:1 #
0.098831950609668234 28:1 40:1 79:1 81:1 93:1 98:1 116:1 118:1 146:1 184:1 198:1 #
0.098831950609668234 117:1 #
-0.098831950609668234 26:1 40:1 81:1 119:1 #
-0.098831950609668234 40:1 95:1 100:1 118:1 127:1 159:1 198:1 #
-0.098831950609668234 76:1 100:1 116:1 118:1 123:1 #
0.098831950609668234 42:3 118:3 164:1 #
0.098831950609668234 27:1 100:1 109:1 116:1 #
0.098831950609668234 34:1 58:1 182:1 183:1 #
-0.098831950609668234 10:1 139:1 #
0.098831950609668234 100:1 109:1 118:1 168:1 171:1 #
-0.098831950609668234 109:1 #
0.020662751826301395 18:1 37:1 111:1 180:1 #
-0.098831950609668234 84:1 #
-0.098831950609668234 84:1 #
0.098831950609668234 26:1 49:1 100:1 118:1 140:1 #
0.098831950609668234 36:1 100:1 118:1 139:1 171:1 200:1 #
-0.098831950609668234 26:1 124:1 140:1 #
-0.098831950609668234 11:1 40:1 76:1 100:1 118:1 171:1 183:1 #
0.08856028794784826 6:1 16:1 28:1 44:1 45:1 50:1 53:1 59:1 76:1 79:1 102:2 114:1 118:2 124:1 143:3 163:1 176:1 179:1 199:1 #
-0.098831950609668234 13:1 22:1 63:1 66:1 97:1 98:1 118:2 149:1 174:1 184:1 196:1 #
0.098831950609668234 117:1 #
0.098831950609668234 56:1 137:1 #
-0.098831950609668234 32:1 36:1 58:2 171:1 #
-0.098831950609668234 84:1 #
-0.098831950609668234 10:1 139:1 #
-0.070393133192711232 23:1 26:1 27:2 40:1 84:1 96:1 98:1 118:1 127:1 163:1 183:1 #
0.098831950609668234 56:1 124:1 137:1 #
0.098831950609668234 24:1 73:1 84:1 184:1 199:1 #
-0.098831950609668234 139:1 #
0.098831950609668234 82:1 116:1 118:1 139:1 163:1 189:1 #
0.08446323578904448 42:1 58:1 74:1 118:1 138:1 141:1 156:1 #
-0.098831950609668234 74:1 95:1 100:1 118:1 171:1 184:1 #
-0.098831950609668234 118:1 168:1 #
-0.098831950609668234 27:1 39:1 58:1 118:1 139:1 178:1 #
-0.098831950609668234 14:1 40:1 110:1 112:1 119:1 200:1 #
0.098831950609668234 9:1 70:1 97:1 98:1 100:1 112:1 118:2 139:1 140:1 141:1 182:1 #
0.098831950609668234 49:1 73:1 100:1 #
-0.098831950609668234 1:1 #
-0.098831950609668234 139:1 #
0.098831950609668234 1:1 56:1 137:1 #
0.0032724946702012833 118:1 139:1 145:1 198:1 #
0.098831950609668234 117:1 138:1 141:1 #
-0.098831950609668234 36:1 181:1 #
-0.098831950609668234 1:1 #
-0.098831950609668234 57:1 118:1 139:1 178:1 #
-0.098831950609668234 124:1 #
-0.098831950609668234 48:1 118:1 #
-0.098831950609668234 107:1 118:1 #
0.087018236631126858 6:1 20:1 26:1 27:1 32:1 44:1 45:1 53:1 58:2 59:1 60:1 77:1 81:1 94:4 98:1 100:2 107:1 116:1 118:7 122:1 127:1 139:1 141:1 152:1 153:1 171:1 181:1 183:1 185:1 197:1 199:1 #
-0.098831950609668234 11:1 33:1 56:4 117:1 137:1 #
-0.046546411469320627 16:1 24:1 26:2 42:1 49:1 58:1 73:1 83:2 87:3 97:1 100:3 106:1 118:2 140:1 155:2 158:1 178:2 182:1 198:1 200:1 #
-0.098831950609668234 26:1 56:2 81:1 82:1 118:1 126:1 137:2 139:1 189:1 #
-0.098831950609668234 6:1 53:1 108:1 114:1 118:1 174:1 #
0.098831950609668234 36:1 71:1 79:1 102:1 118:2 128:1 171:1 180:1 188:1 #
0.098831950609668234 27:1 32:1 58:1 75:1 96:1 98:1 112:2 128:1 174:1 177:1 #
0.098831950609668234 22:1 64:1 98:1 118:1 127:1 149:1 184:1 #
0.098831950609668234 16:1 23:1 25:1 101:1 118:1 123:1 140:1 #
0.098831950609668234 16:1 33:1 89:1 98:1 107:1 114:1 178:1 #
-0.091865744779597733 1:1 33:2 91:1 117:4 #
-0.098831950609668234 116:1 117:1 138:1 156:2 #
-0.098831950609668234 116:1 117:1 #
0.098831950609668234 22:1 26:1 27:1 52:1 58:1 73:1 95:1 98:1 102:1 107:1 113:1 118:3 121:1 147:1 157:1 158:1 161:1 174:1 176:1 183:1 192:1 #
0.068731722925929162 24:1 27:1 85:1 87:1 93:1 98:1 100:1 104:1 107:1 118:1 123:1 124:1 139:1 159:1 171:1 178:1 179:1 180:1 190:1 198:1 #
0.098831950609668234 86:1 90:1 95:1 165:1 #
0.098831950609668234 76:1 #
-0.098831950609668234 98:1 123:1 #
-0.098831950609668234 26:1 27:1 49:1 58:1 92:1 98:1 99:1 100:1 118:1 173:1 198:1 #
0.098831950609668234 10:1 27:1 30:1 33:1 53:1 82:1 87:1 91:1 102:1 107:1 118:1 127:1 139:1 150:1 152:1 184:1 #
0.054591398497682575 32:1 46:1 58:1 74:1 90:1 106:1 110:1 112:1 116:1 118:2 121:1 126:1 159:2 172:1 178:1 #
0.098831950609668234 44:1 119:1 196:1 #
-0.098831950609668234 6:1 53:1 82:1 100:1 116:1 118:1 139:1 189:1 #
-0.098831950609668234 74:1 95:1 #
0.060964604802813169 5:1 25:1 27:1 53:2 57:1 58:1 59:1 73:1 100:1 103:1 106:1 118:2 122:2 130:1 156:1 162:1 170:1 173:1 192:1 193:1 #
-0.098831950609668234 36:1 66:1 98:1 #
0.098831950609668234 75:1 138:1 171:1 #
0.098831950609668234 81:1 110:1 112:1 153:1 #
0.098831950609668234 76:1 #
0.098831950609668234 53:1 118:1 145:1 #
0.098831950609668234 27:1 49:1 100:1 118:1 196:1 #
0.098831950609668234 18:1 72:1 100:1 118:1 151:1 175:1 180:1 198:1 #
0.098831950609668234 22:1 28:1 40:1 50:1 98:1 119:1 #
-0.098831950609668234 56:1 137:1 #
-0.098831950609668234 175:1 #
0.044643422861278072 27:2 32:1 33:1 58:1 59:1 69:1 82:2 87:1 88:1 95:1 96:1 98:1 99:1 100:1 107:1 111:1 112:1 124:1 139:1 140:1 179:1 #
0.098831950609668234 45:1 #
-0.098831950609668234 93:1 #
0.066752479435692166 21:1 90:1 123:1 129:1 155:1 165:1 #
0.074334216458970315 73:1 95:1 107:1 199:1 #
0.098831950609668234 28:1 118:1 175:1 #
0.098831950609668234 86:1 90:1 165:1 #
0.098831950609668234 1:1 56:1 137:1 #
0.098831950609668234 76:1 #
0.098831950609668234 181:1 #
0.098831950609668234 74:2 106:1 159:1 #
-0.098831950609668234 98:1 #
0.063513605295322934 6:1 16:1 36:1 53:1 84:1 98:1 138:1 142:1 148:1 177:1 199:1 #
-0.098831950609668234 58:1 #
-0.098831950609668234 36:1 98:1 #
0.098831950609668234 11:1 24:1 36:2 40:1 100:1 171:1 #
-0.098831950609668234 7:1 21:1 106:1 123:1 146:1 165:1 #
-0.098831950609668234 98:1 #
-0.098831950609668234 36:1 #
0.098831950609668234 29:1 49:1 100:1 103:1 118:1 #
0.098831950609668234 49:1 98:1 100:1 103:1 118:1 #
0.098831950609668234 27:1 49:1 103:1 118:1 166:1 196:1 #
0.098831950609668234 49:1 103:1 118:1 139:1 #
-0.098831950609668234 3:1 7:1 26:1 33:1 40:2 49:1 75:1 76:1 100:2 106:1 116:1 118:2 121:1 133:1 136:1 #
0.098831950609668234 154:1 #
-0.098831950609668234 139:1 #
0.098831950609668234 116:1 #
-0.098831950609668234 36:1 98:1 #
-0.098831950609668234 16:1 #
0.098831950609668234 1:2 91:1 117:1 #
0.098831950609668234 76:1 #
-0.098831950609668234 23:1 27:1 36:1 43:1 121:1 #
-0.098831950609668234 118:1 #
0.098831950609668234 14:1 26:1 32:2 58:1 76:1 96:1 98:2 118:1 149:1 163:1 183:1 191:1 193:1 194:1 #
0.098831950609668234 12:1 38:1 55:1 71:1 73:1 98:2 100:1 118:1 142:1 143:2 165:1 180:1 #
0.098831950609668234 12:1 30:1 40:1 55:1 70:1 98:1 118:1 194:1 200:1 #
-0.098831950609668234 27:1 100:1 196:1 #
-0.098831950609668234 118:1 #
0.098831950609668234 139:1 #
-0.098831950609668234 139:1 #
-0.098831950609668234 154:1 #
0.098831950609668234 27:2 75:1 98:1 116:1 118:1 139:1 166:1 #
0.098831950609668234 106:1 #
0.038082780794680395 32:1 39:1 67:1 72:1 86:1 178:1 #
0.098831950609668234 32:1 #
-0.098831950609668234 50:1 81:1 127:1 #
-0.098831950609668234 139:1 #
-0.098831950609668234 32:1 #
-0.098831950609668234 98:1 #
-0.098831950609668234 118:1 #
0.098831950609668234 118:1 139:1 198:1 #
-0.098831950609668234 118:1 #
0.098831950609668234 40:1 48:1 100:1 116:1 118:1 194:1 #
0.074055440849792611 62:1 82:1 132:1 #
-0.098831950609668234 10:1 62:1 118:1 139:1 #
-0.098831950609668234 103:1 110:1 118:1 #
0.098831950609668234 80:1 118:1 144:2 #
0.098831950609668234 73:1 114:1 118:1 151:1 #
0.098831950609668234 70:1 #
0.014709151466796421 40:1 171:1 #
0.098831950609668234 55:1 #
-0.098831950609668234 70:1 103:1 167:1 173:1 #
0.098831950609668234 9:1 14:1 27:1 40:2 57:1 83:1 97:1 100:1 107:1 118:3 120:1 133:1 140:1 157:1 #
-0.098831950609668234 118:1 #
0.098831950609668234 42:1 88:1 196:1 #
0.098831950609668234 98:1 #
-0.098831950609668234 118:1 #
0.098831950609668234 62:1 #
0.098831950609668234 49:1 103:1 118:1 139:1 #
0.098831950609668234 41:1 93:1 106:1 #
0.098831950609668234 1:1 #
-0.098831950609668234 9:1 17:1 83:1 #
-0.098831950609668234 94:1 118:1 #
0.081100213822040967 53:1 136:1 #
-0.098831950609668234 56:1 117:1 #
0.098831950609668234 11:1 73:1 96:1 98:1 101:1 110:1 118:2 163:1 167:1 #
0.098831950609668234 118:1 136:1 #
0.098831950609668234 10:1 16:1 118:1 139:1 198:1 #
0.098831950609668234 18:1 85:1 178:1 #
0.098831950609668234 62:1 78:1 #
0.098831950609668234 36:1 #
0.098831950609668234 84:1 #
-0.098831950609668234 117:2 #
0.098831950609668234 1:1 23:1 27:1 30:1 32:1 43:1 49:1 94:1 118:1 131:1 150:1 163:1 170:1 #
0.098831950609668234 57:1 99:1 139:1 143:1 171:1 178:1 #
0.09259960751952119 23:1 31:1 39:1 42:2 44:1 57:2 71:1 73:1 95:1 107:1 113:1 118:2 122:1 135:1 139:1 146:1 161:1 192:1 #
0.098831950609668234 17:1 83:1 98:1 118:1 136:1 149:1 #
0.098831950609668234 39:1 40:1 93:1 #
-0.098831950609668234 11:1 20:1 73:1 113:1 137:1 185:1 #
-0.098831950609668234 28:1 96:1 98:1 112:1 139:1 177:1 184:1 192:1 196:2 #
-0.072830317749652984 27:1 38:2 42:2 73:2 98:2 100:1 118:2 151:2 180:1 181:1 194:1 #
-0.098831950609668234 5:1 82:1 92:1 96:1 98:1 100:1 107:2 118:2 121:1 135:1 139:1 150:1 186:1 #
-0.098831950609668234 1:1 26:1 30:1 58:1 71:1 73:1 90:1 104:1 110:2 112:1 118:2 156:1 163:1 183:1 200:1 #
-0.098831950609668234 10:1 29:1 42:1 44:2 50:1 57:1 58:2 70:1 71:1 82:1 100:1 102:1 103:1 107:1 113:1 118:2 121:1 139:1 142:1 157:1 158:1 170:1 179:1 #
0.098831950609668234 38:1 40:1 47:1 57:1 61:1 93:1 106:1 166:1 171:1 182:1 193:1 #
0.098831950609668234 98:1 #
-0.098831950609668234 41:1 76:1 177:1 #
-0.098831950609668234 73:1 106:1 181:1 #
-0.098831950609668234 11:1 36:1 40:1 44:1 59:1 73:2 98:1 100:1 #
-0.098831950609668234 60:1 100:1 103:1 118:1 141:1 #
0.098831950609668234 10:1 75:1 82:1 139:1 #
0.098831950609668234 84:1 101:1 118:1 139:1 173:1 183:1 199:1 #
-0.098831950609668234 66:1 139:1 170:1 #
-0.098831950609668234 42:1 87:1 109:1 #
-0.098831950609668234 76:1 98:1 #
0.098831950609668234 6:1 53:1 100:1 127:1 200:1 #
-0.098831950609668234 98:1 102:1 118:1 170:1 #
-0.098831950609668234 24:1 32:1 73:1 101:1 118:1 124:1 #
-0.098831950609668234 16:1 51:1 118:1 127:1 139:1 143:1 #
-0.098831950609668234 2:1 24:1 93:2 98:2 118:1 127:1 172:1 #
0.098831950609668234 40:1 200:1 #
0.098831950609668234 44:1 100:1 103:1 118:1 140:1 #
0.098831950609668234 26:1 49:1 75:1 81:1 100:1 107:1 127:1 155:1 184:1 197:1 #
-0.098831950609668234 22:1 44:1 64:1 75:1 98:1 103:1 107:1 118:1 127:1 148:1 149:1 159:1 163:1 #
-0.098831950609668234 5:1 118:1 127:1 #
-0.098831950609668234 49:1 94:1 103:1 118:2 184:1 #
0.098831950609668234 139:1 173:1 198:1 #
0.098831950609668234 45:1 137:1 #
-0.098831950609668234 100:1 166:1 200:1 #
-0.098831950609668234 14:2 36:1 66:1 82:1 100:3 116:1 118:1 139:1 171:1 183:1 184:1 #
-0.098831950609668234 16:1 118:1 127:1 167:1 #
0.021542635481911005 44:2 118:1 #
0.098831950609668234 29:1 #
-0.098831950609668234 9:1 16:1 24:1 88:1 107:1 118:1 139:1 153:1 168:1 172:1 180:1 182:1 183:1 #
0.098831950609668234 49:1 100:1 103:1 #
0.098831950609668234 119:1 171:1 #
0.098831950609668234 93:1 107:1 #
0.098831950609668234 18:1 24:1 39:1 69:1 74:1 100:1 114:1 118:1 126:1 160:1 172:1 180:1 192:1 #
-0.098831950609668234 22:1 64:1 81:1 118:1 #
-0.098831950609668234 74:1 90:1 95:1 118:1 127:1 165:1 #
-0.098831950609668234 27:1 39:1 58:1 118:1 139:1 178:1 #
0.098831950609668234 5:1 87:1 98:1 100:1 118:1 144:1 149:1 162:1 #
0.098831950609668234 74:1 90:1 165:1 172:1 #
0.098831950609668234 54:1 107:1 118:1 134:1 #
0.098831950609668234 84:1 #
0.098831950609668234 76:1 171:1 #
-0.098831950609668234 52:1 76:1 87:1 98:1 102:1 109:1 118:1 123:1 126:1 169:1 178:1 #
-0.098831950609668234 22:1 32:1 87:1 118:2 123:1 124:1 169:1 #
0.098831950609668234 200:1 #
-0.098831950609668234 82:1 139:1 189:1 #
-0.098831950609668234 73:1 97:1 105:1 #
-0.098831950609668234 16:1 23:1 44:1 70:1 77:1 78:1 94:1 98:2 100:1 107:2 112:1 118:1 121:1 139:1 154:1 166:1 174:1 187:1 #
0.098831950609668234 30:1 76:1 163:1 #
0.098831950609668234 56:1 88:1 124:1 137:1 #
0.098831950609668234 59:1 123:1 171:1 #
0.098831950609668234 58:1 86:1 111:1 #
-0.098831950609668234 14:1 41:1 #
-0.098831950609668234 8:1 62:1 97:1 182:1 #
0.098831950609668234 48:1 87:1 118:1 158:1 198:1 #
-0.098831950609668234 38:1 58:1 118:1 176:1 181:1 #
-0.098831950609668234 47:1 98:1 #
-0.098831950609668234 82:1 165:1 189:1 #
-0.098831950609668234 56:1 137:1 185:1 #
0.098831950609668234 2:1 13:1 69:1 76:1 78:1 105:1 107:1 118:2 140:1 146:1 #
0.098831950609668234 13:1 118:1 123:1 #
-0.098831950609668234 27:1 32:1 107:1 118:3 124:1 151:1 165:1 181:1 200:1 #
-0.098831950609668234 12:1 76:1 100:1 114:1 146:1 #
-0.098831950609668234 50:1 86:1 100:1 180:1 #
-0.098831950609668234 36:2 107:1 128:1 146:1 #
-0.098831950609668234 47:1 76:1 87:1 98:1 118:1 119:1 163:1 198:1 #
0.098831950609668234 29:1 32:1 97:1 194:1 #
0.098831950609668234 2:1 130:1 #
0.098831950609668234 119:1 132:1 139:1 163:1 #
-0.098831950609668234 32:1 58:1 100:1 123:1 148:1 171:1 183:1 #
-0.098831950609668234 94:2 127:1 #
-0.098831950609668234 26:1 27:1 65:1 118:1 139:1 141:1 163:1 168:1 183:1 #
-0.098831950609668234 95:1 118:1 #
-0.098831950609668234 64:1 100:1 112:1 118:1 139:1 140:1 168:1 #
0.098831950609668234 44:1 183:1 #
-0.098831950609668234 98:1 196:1 #
-0.098831950609668234 28:1 42:1 #
-0.098831950609668234 100:1 107:1 #
0.098831950609668234 27:1 49:1 100:1 103:1 118:1 152:1 #
0.098831950609668234 118:1 198:1 #
0.098831950609668234 47:1 171:1 #
-0.098831950609668234 40:1 98:1 103:1 118:1 #
-0.098831950609668234 98:1 118:1 #
0.098831950609668234 32:1 161:1 192:1 #
0.098831950609668234 55:1 #
-0.098831950609668234 12:1 23:1 55:1 58:1 81:1 112:1 118:1 143:1 180:1 196:1 #
-0.098831950609668234 115:1 #
0.098831950609668234 98:1 123:1 #
0.098831950609668234 25:1 36:1 76:1 77:1 98:1 100:1 106:1 118:1 171:1 #
0.098831950609668234 4:1 45:1 98:1 149:1 157:1 159:1 165:1 168:1 186:1 #
-0.098831950609668234 100:1 118:1 145:1 182:1 #
-0.098831950609668234 66:1 100:1 118:1 171:1 182:1 183:1 #
0.098831950609668234 118:1 198:1 #
0.098831950609668234 178:1 195:1 198:1 #
-0.098831950609668234 9:1 #
-0.098831950609668234 89:1 106:1 165:1 #
0.071276536937945667 1:1 67:1 #
-0.098831950609668234 38:1 42:1 63:1 96:1 98:1 118:2 123:1 #
0.098831950609668234 36:1 46:1 165:1 #
0.098831950609668234 62:1 #
-0.098831950609668234 150:1 153:2 154:1 #
-0.042941916712031895 8:1 62:1 97:1 182:1 #
-0.098831950609668234 27:1 100:1 111:1 118:1 159:1 #
0.098831950609668234 123:1 140:1 #
0.098831950609668234 126:1 138:1 #
0.098831950609668234 16:1 98:1 191:1 #
-0.098831950609668234 95:1 190:1 #
-0.098831950609668234 8:1 62:1 97:1 182:1 #
0.098831950609668234 44:1 100:1 103:1 118:1 140:1 #
-0.098831950609668234 118:1 166:1 #
-0.098831950609668234 76:1 81:1 100:1 112:1 118:1 #
0.098831950609668234 27:1 116:1 #
0.098831950609668234 116:1 #
-0.098831950609668234 115:1 #
0.098831950609668234 36:1 118:2 135:1 171:1 #
-0.098831950609668234 26:1 118:2 171:1 #
0.098831950609668234 67:1 #
-0.098831950609668234 3:1 23:1 25:1 88:1 #
-0.098831950609668234 16:1 23:1 44:1 47:1 79:2 88:1 95:1 103:1 119:1 147:1 #
-0.098831950609668234 119:1 #
-0.098831950609668234 64:1 127:1 135:1 #
0.098831950609668234 76:1 96:1 98:1 118:1 #
0.098831950609668234 23:1 42:1 84:1 88:1 199:1 #
0.098831950609668234 130:1 #
-0.085265598986143512 9:1 16:2 42:1 76:1 93:1 139:1 #
-0.01405971880861593 69:1 79:1 98:1 126:1 127:1 138:1 139:1 150:1 154:2 159:1 160:1 173:1 #
0.098831950609668234 74:1 91:1 118:1 138:1 175:1 #
-0.098831950609668234 27:1 74:2 83:1 118:2 138:1 186:1 #
-0.098831950609668234 107:1 118:1 124:1 #
-0.098831950609668234 40:1 98:1 103:1 118:1 #
0.098831950609668234 13:1 #
-0.098831950609668234 115:1 #
0.098831950609668234 98:1 118:1 135:1 139:1 149:1 166:1 183:1 200:1 #
-0.098831950609668234 182:1 #
0.098831950609668234 40:1 118:1 120:1 #
0.098831950609668234 49:1 83:1 97:1 171:1 182:1 184:1 #
0.098831950609668234 98:1 149:1 #
0.098831950609668234 44:1 #
0.098831950609668234 15:1 131:1 #
-0.098831950609668234 11:1 #
-0.098831950609668234 139:1 184:1 #
0.098831950609668234 22:1 58:1 94:1 118:1 171:1 #
0.098831950609668234 46:1 58:1 142:1 #
0.045438937296351345 34:1 43:1 49:1 119:1 #
-0.098831950609668234 22:1 64:1 #
-0.098831950609668234 14:1 40:1 58:1 100:1 107:1 154:1 181:1 #
-0.098831950609668234 106:1 109:1 118:1 127:1 #
-0.098831950609668234 23:1 33:1 48:1 58:1 61:1 118:1 #
0.098831950609668234 126:1 #
-0.098831950609668234 10:1 98:1 123:1 128:1 139:1 169:1 #
-0.098831950609668234 19:1 27:1 105:1 118:1 #
0.098831950609668234 40:1 44:1 118:1 133:1 #
-0.098831950609668234 8:1 62:1 97:1 182:1 #
-0.098831950609668234 59:1 84:1 86:1 100:1 111:1 121:1 #
-0.098831950609668234 30:1 84:1 118:1 179:1 190:1 #
-0.098831950609668234 115:1 #
0.098831950609668234 74:1 116:1 138:1 #
0.098831950609668234 116:1 #
0.098831950609668234 74:1 106:1 140:1 179:1 #
0.07683748765475 41:1 54:1 58:1 125:1 #
0.098831950609668234 84:1 98:1 101:1 #
-0.098831950609668234 8:1 #
-0.098831950609668234 115:1 #
-0.098831950609668234 26:1 126:1 154:1 #
0.098831950609668234 13:1 123:1 #
0.098831950609668234 44:1 147:1 #
-0.098831950609668234 117:1 #
-0.098831950609668234 23:1 49:1 83:1 118:1 #
-0.098831950609668234 112:1 121:1 #
0.098831950609668234 44:1 93:1 98:1 #
0.098831950609668234 46:1 58:1 181:1 #
-0.098831950609668234 60:1 98:1 118:1 #
-0.098831950609668234 24:1 118:1 183:1 #
-0.098831950609668234 117:1 #
-0.098831950609668234 66:1 #
0.098831950609668234 126:1 #
0.096771847839959138 4:1 44:1 175:1 #
0.098831950609668234 98:1 149:1 #
-0.022522074399350799 43:2 52:1 61:1 69:2 73:1 79:3 98:3 108:1 118:2 126:1 134:1 172:1 #
0.098831950609668234 49:1 82:2 169:1 189:1 #
0.098831950609668234 14:1 113:1 118:1 144:1 164:1 183:1 196:1 #
0.098831950609668234 48:1 75:1 96:1 98:1 100:1 118:1 139:1 #
-0.098831950609668234 83:1 118:1 #
-0.098831950609668234 26:1 84:1 #
0.098831950609668234 12:1 27:1 36:1 79:1 87:1 118:1 150:1 171:1 176:1 177:1 #
0.098831950609668234 22:1 61:1 75:1 87:1 91:1 100:1 109:1 118:2 139:1 145:1 #
0.093195057315296578 12:1 21:1 36:1 55:1 57:1 91:1 118:1 127:1 139:1 140:2 183:1 185:1 186:1 #
0.098831950609668234 80:1 102:1 118:2 140:1 144:1 #
0.098831950609668234 100:1 118:1 141:1 183:1 #
0.017128863647346379 114:1 131:1 #
0.098831950609668234 14:1 16:1 19:1 30:1 41:1 90:1 94:1 118:1 120:1 124:1 200:1 #
0.098831950609668234 98:1 118:1 198:1 #
0.060217259223901767 16:1 27:2 30:1 36:1 42:1 58:2 68:1 71:1 73:1 75:1 76:1 78:1 87:1 92:1 94:1 96:1 98:1 100:1 104:1 110:1 115:1 118:3 125:1 134:1 150:1 151:1 152:1 158:2 172:1 175:1 179:1 181:1 183:2 191:2 194:2 198:1 200:1 #
0.098831950609668234 62:1 74:1 115:1 150:1 188:1 #
0.098831950609668234 36:1 118:1 145:1 146:1 198:1 #
0.0078144003485672506 10:1 96:1 98:1 139:1 #
0.098831950609668234 98:1 198:1 #
-0.098831950609668234 1:1 117:1 118:1 124:1 #
-0.098831950609668234 78:1 118:2 127:1 #
0.098831950609668234 198:1 #
-0.098831950609668234 115:1 #
-0.098831950609668234 43:1 79:2 90:1 118:1 133:1 146:1 #
-0.098831950609668234 115:1 #
-0.098831950609668234 79:1 184:1 196:1 #
-0.098831950609668234 82:1 118:1 139:1 189:1 #
-0.098831950609668234 58:1 81:1 119:1 127:1 169:1 #
-0.098831950609668234 115:1 #
-0.098831950609668234 14:1 100:1 #
-0.098831950609668234 32:1 148:1 #
-0.098831950609668234 102:1 118:1 #
-0.098831950609668234 38:1 47:1 75:1 93:1 98:1 118:1 #
-0.098831950609668234 50:1 74:1 127:1 138:1 139:1 #
-0.098831950609668234 103:1 118:1 #
0.098831950609668234 96:1 98:1 118:1 #
0.098831950609668234 40:1 118:1 135:1 140:1 154:1 #
0.098831950609668234 118:1 140:1 #
-0.098831950609668234 63:1 98:1 #
-0.011666330973361647 9:2 12:1 27:1 50:1 55:1 71:1 98:1 100:1 103:1 112:1 118:1 138:1 158:1 163:1 194:1 198:1 #
-0.098831950609668234 169:1 #
-0.098831950609668234 103:1 118:1 #
-0.098831950609668234 36:1 64:1 #
-0.098831950609668234 42:2 93:1 100:1 118:1 150:1 159:1 194:1 #
-0.0042156114530100507 28:1 30:1 38:1 50:1 52:1 70:1 81:1 98:1 102:1 112:1 118:1 138:1 190:1 194:1 #
-0.098831950609668234 5:1 23:1 40:1 79:1 118:1 198:1 #
-0.098831950609668234 9:1 59:1 112:1 146:1 191:1 #
0.098831950609668234 132:1 #
0.098831950609668234 22:1 24:1 64:1 107:1 116:1 119:1 139:1 161:1 192:1 #
0.098831950609668234 28:1 34:1 43:1 49:2 79:1 84:1 100:2 118:2 121:1 127:1 129:1 151:1 158:1 162:1 #
0.098831950609668234 58:1 76:1 83:1 100:1 118:1 141:1 155:1 197:1 #
0.098831950609668234 1:1 90:1 111:1 123:1 148:1 164:1 #
0.098831950609668234 73:1 118:1 147:1 155:1 197:1 #
-0.098831950609668234 24:1 40:1 65:1 74:1 99:1 100:1 102:1 105:1 106:1 115:1 118:1 124:1 126:1 127:1 140:1 168:1 #
0.011156735386676385 3:1 25:1 37:1 40:1 75:2 93:1 99:1 100:1 101:1 109:1 111:1 118:1 141:1 178:1 #
0.098831950609668234 24:1 40:1 118:1 135:1 139:1 198:1 #
-0.098831950609668234 169:1 #
0.066558392338396305 24:1 49:1 73:1 84:1 112:2 118:1 167:1 199:1 #
-0.098831950609668234 9:1 16:1 30:1 76:1 100:1 107:1 118:2 121:1 180:1 187:1 #
0.098831950609668234 87:1 97:2 100:1 107:1 127:1 198:1 #
0.098831950609668234 90:1 118:1 124:1 129:1 193:1 #
0.098831950609668234 117:1 141:1 #
0.098831950609668234 42:1 85:1 101:1 139:1 145:1 178:1 #
0.098831950609668234 40:1 44:1 76:1 103:1 157:1 #
0.098831950609668234 13:1 82:1 96:1 98:1 103:2 115:1 #
0.023910129279672381 175:1 198:1 #
0.098831950609668234 49:1 57:1 100:1 103:1 118:1 140:1 172:1 174:1 183:1 #
0.098831950609668234 116:1 123:1 #
0.098831950609668234 36:1 46:1 75:1 #
-0.098831950609668234 169:1 #
-0.098831950609668234 9:1 16:1 30:1 76:1 100:1 107:1 118:2 121:1 180:1 187:1 #
0.098831950609668234 46:1 109:1 #
0.098831950609668234 100:1 118:2 140:1 168:1 198:1 #
0.098831950609668234 24:1 49:1 95:1 118:1 123:1 163:1 #
0.026402386385862901 14:1 36:1 100:1 118:1 120:1 129:1 183:1 197:1 #
0.098831950609668234 96:1 98:1 103:1 107:1 118:1 127:1 149:1 #
-0.098831950609668234 58:1 107:1 118:1 189:2 #
0.098831950609668234 36:1 171:1 183:1 #
0.098831950609668234 16:1 30:1 40:1 44:1 #
-0.098831950609668234 169:1 #
0.098831950609668234 74:1 126:1 138:1 #
0.037376266861209234 2:1 68:1 69:1 107:1 115:1 126:1 130:1 150:1 #
0.098831950609668234 106:1 111:1 188:1 #
0.098831950609668234 77:1 98:1 177:1 #
0.098831950609668234 171:1 183:1 #
-0.098831950609668234 5:1 97:1 114:1 118:1 168:1 182:1 #
-0.098831950609668234 26:1 49:1 118:1 139:1 170:1 183:1 #
-0.098831950609668234 32:1 102:1 118:2 165:1 181:1 #
-0.098831950609668234 26:1 40:1 44:1 118:1 127:1 133:1 #
-0.098831950609668234 22:1 66:1 118:2 #
0.098831950609668234 131:1 #
-0.098831950609668234 83:1 109:1 179:1 #
-0.098831950609668234 63:1 #
0.098831950609668234 27:1 99:1 101:1 118:2 157:1 175:1 198:1 #
0.098831950609668234 40:1 118:1 133:1 198:1 #
-0.098831950609668234 63:1 #
-0.098831950609668234 30:1 50:1 75:1 98:1 123:1 139:1 148:1 #
-0.016528628104469454 16:1 32:1 34:1 43:1 64:1 100:2 106:1 107:1 109:1 118:3 166:1 181:1 194:1 #
0.098831950609668234 67:1 86:1 #
-0.098831950609668234 9:1 38:1 42:2 52:1 73:1 97:1 100:1 103:1 113:1 118:2 139:1 158:1 167:1 171:2 #
-0.098831950609668234 58:1 103:1 107:1 118:2 165:1 167:1 #
0.098831950609668234 21:1 123:1 171:1 #
-0.098831950609668234 66:1 76:1 127:1 #
-0.098831950609668234 63:1 #
0.098831950609668234 35:1 98:1 #
-0.098831950609668234 8:1 #
-0.098831950609668234 3:1 45:1 117:2 #
0.054013457697488693 10:1 29:1 35:1 38:1 68:2 98:1 118:1 139:1 172:1 200:1 #
-0.098831950609668234 8:1 #
0.097060006914234845 118:1 128:1 132:1 139:1 140:1 #
-0.098831950609668234 118:2 158:1 #
0.098831950609668234 35:1 98:1 #
-0.098831950609668234 50:1 118:1 121:1 150:1 154:1 160:1 171:1 #
-0.098831950609668234 47:1 98:1 108:1 126:1 148:1 196:1 #
-0.098831950609668234 9:1 81:1 98:1 103:2 112:1 118:1 #
-0.098831950609668234 103:1 118:1 127:1 #
0.098831950609668234 171:1 #
0.098831950609668234 98:1 131:1 #
0.089740596891955252 118:1 135:1 140:1 #
0.098831950609668234 40:1 98:1 118:1 133:1 149:1 #
0.078961061987848247 24:1 30:1 73:1 84:1 139:1 199:1 #
0.098831950609668234 118:1 135:1 145:1 183:1 #
0.098831950609668234 35:1 75:1 81:1 118:1 #
0.092237924663699664 37:1 39:1 90:1 170:1 178:1 191:1 #
0.08189354193649917 90:1 106:1 164:1 165:1 #
0.0082628602843283824 10:1 24:1 33:1 91:1 98:1 118:1 139:1 141:1 151:1 158:1 #
0.098831950609668234 25:1 118:1 141:1 #
0.075209088850018452 24:1 30:1 73:1 84:1 139:1 199:1 #
0.052721239196103623 32:1 98:1 164:1 183:1 #
-0.098831950609668234 8:1 #
-0.098831950609668234 83:1 118:1 #
-0.098831950609668234 79:1 90:1 94:1 118:1 190:1 #
-0.098831950609668234 8:1 #
-0.098831950609668234 103:1 118:1 127:1 #
0.098831950609668234 106:1 129:1 #
-0.098831950609668234 16:1 26:1 86:1 106:1 127:1 155:1 #
-0.085085768463432077 3:1 64:1 98:1 99:1 100:1 106:2 111:1 118:1 126:1 148:1 #
-0.098831950609668234 26:1 30:1 73:1 118:1 168:1 #
0.046015341435420576 30:1 100:1 118:1 141:1 #
0.098831950609668234 164:1 #
-0.098831950609668234 33:1 83:1 118:1 #
-0.022381891818873526 42:2 50:1 59:2 75:1 76:2 93:1 100:2 102:1 104:1 115:1 116:1 118:1 119:1 138:2 140:1 #
-0.021480968866035819 24:1 26:1 43:1 49:1 58:1 59:1 73:1 76:1 79:1 87:1 118:1 159:2 172:1 #
0.08584178162097425 13:1 77:1 123:1 #
0.022582797140929801 14:1 19:1 32:1 40:1 136:2 183:1 186:1 #
-0.098831950609668234 82:1 103:1 118:1 139:1 168:1 189:1 #
-0.098831950609668234 16:1 23:1 28:1 100:1 183:1 #
-0.098831950609668234 9:1 27:1 71:1 92:1 97:1 107:1 118:1 182:1 #
-0.045077431413628605 79:2 108:1 112:1 174:1 #
-0.098831950609668234 26:1 27:1 #
-0.098831950609668234 63:1 146:1 #
0.098831950609668234 98:1 123:1 130:1 #
-0.057422072750714211 14:1 21:1 32:1 49:1 58:1 60:1 76:1 83:1 94:1 100:1 110:1 118:1 123:1 142:1 179:1 181:1 #
0.019490848040124811 3:3 9:1 16:1 24:1 27:3 35:1 68:1 73:1 79:2 93:1 96:1 98:1 105:2 107:5 115:1 116:1 118:5 127:1 143:1 149:1 150:1 151:3 194:1 198:4 #
0.046966334058291759 12:1 27:1 55:1 82:1 87:1 97:1 100:1 102:1 104:1 118:1 139:1 140:1 143:1 159:1 166:1 172:1 180:1 #
-0.098831950609668234 40:1 98:1 118:1 148:1 154:1 #
0.098831950609668234 98:1 116:1 #
0.098831950609668234 58:1 171:1 #
0.068129517511373403 88:1 131:1 183:1 195:1 #
-0.098831950609668234 50:1 51:1 70:1 99:1 153:1 #
-0.025360998147492375 22:1 64:1 73:1 81:1 89:1 92:1 98:1 106:1 118:2 124:1 139:1 165:1 184:1 #
-0.098831950609668234 26:1 98:1 118:1 #
0.076202048154971475 4:1 38:1 76:1 98:1 118:2 141:1 149:1 173:1 186:1 #
0.098831950609668234 96:1 98:1 183:1 #
0.050113530428138806 9:1 46:1 49:1 97:1 103:1 154:1 #
-0.0022829218286422879 12:1 16:1 55:1 69:1 71:2 87:1 108:1 114:1 121:1 139:2 159:1 172:1 196:1 #
-0.098831950609668234 26:1 59:1 100:1 118:1 140:1 #
0.039553789959085921 32:1 36:1 91:1 98:1 127:1 139:1 148:1 164:1 171:1 #
-0.059579802598782414 14:1 66:1 118:1 123:1 139:1 #
0.060783804282972698 13:1 23:1 27:1 36:1 40:1 49:1 78:1 79:1 80:1 82:1 95:1 100:1 107:1 118:3 123:1 140:1 189:1 200:1 #
0.098831950609668234 27:1 49:1 163:1 #
0.071662052235955107 22:1 33:1 35:1 58:1 64:1 94:1 141:1 163:1 170:1 178:1 #
-0.052031886638575275 27:1 38:1 83:1 93:1 100:1 #
-0.0074434826535600762 9:1 24:1 38:1 73:1 74:1 79:1 98:1 100:1 116:1 118:2 160:1 178:1 #
-0.03586198507268621 64:1 98:1 148:1 #
-0.098831950609668234 65:1 83:1 118:1 #
-0.089113227583760793 63:1 118:1 #
0.058654640412853329 126:1 155:1 #
-0.012538717417098215 64:1 98:1 148:1 #
0.098831950609668234 123:1 171:1 #
-0.033549516567281598 22:1 66:1 103:1 118:2 #
-0.06002528005485587 2:1 5:1 106:1 117:1 118:1 178:1 #
0.030377885155483567 27:1 41:1 44:1 71:2 73:1 75:1 88:2 98:1 100:1 107:1 110:1 112:1 113:1 118:3 145:1 151:1 167:1 171:1 185:1 #
0.0010086847836163638 6:1 10:1 27:3 32:1 34:1 49:1 53:1 75:2 82:2 96:1 98:1 100:4 103:2 105:1 106:1 107:1 109:1 114:1 118:1 134:1 139:2 140:1 144:1 151:1 162:1 168:1 172:1 179:1 189:1 195:1 196:1 #
-0.00018064757706768783 64:1 98:1 148:1 #
0.00023358240365270108 10:1 50:1 61:1 82:1 98:1 107:1 118:1 139:1 140:1 150:1 155:1 177:1 178:1 #
-0.00018632750041343001 8:1 62:1 97:1 182:1 #
